124 300
飯店 0.0012876093 0.00050174847 -0.00081308 0.0015994571 -0.0013669771 0.0009977662 0.0010585954 -0.00070049026 0.0014251545 0.00023715448 -0.0013882706 0.0013019581 -0.0011333842 -0.0011697218 0.0016505176 0.0013348939 0.00054126716 -0.0006249662 -0.0013997077 -0.0008903829 0.00047515507 -0.00058929436 -0.00019029023 -0.00043466958 0.00014239203 -0.0013837481 -4.9075286e-05 0.00024546921 -0.0011158639 -0.000613868 0.0012024883 -0.0016175057 -0.0004745989 0.0010773876 0.0011659276 -0.0011401772 0.00082809606 -0.00015991548 0.00080916064 0.0009984252 0.0013722098 0.00092956517 0.0013520819 -7.886446e-05 0.0011247247 0.0004342701 -0.00064853847 0.0015753745 0.0014836532 0.0014008363 -0.00043864604 0.0011462991 -0.00028938864 0.0011191262 -0.00038572485 -0.001231807 -0.0012909131 -0.00031576442 0.0013475736 -0.00054612063 0.00017231404 0.0013488848 -0.0007616092 0.00035700807 0.0012854156 0.0012919529 0.0010775791 -0.0011265808 -0.0005425436 -0.0014753322 0.0014569962 -9.078763e-05 0.0005563053 -0.00014461191 0.00047022683 0.001656508 0.0011921229 0.00014402474 0.0015787325 0.0014213611 -0.0016183942 -0.00096283224 -0.00015228153 -0.00047437372 -0.0013546386 0.0010486722 -0.0012671993 0.0003561497 -0.00085669826 0.0002656816 0.00096121064 0.0009989229 0.0002827289 0.0011453904 0.0002686939 -0.0013246728 0.00041343737 0.0011696949 0.0006627652 -0.0004350002 0.00028913686 -0.00043330208 0.0006681272 -0.0011461893 -0.000363387 -0.00023737125 -0.0015667166 0.0007418775 0.0012068048 0.001605691 -0.0014879098 -0.00113163 -0.00020773984 0.0009861448 0.00024215737 0.0011945856 -9.459018e-05 -0.0016150387 0.00013683518 0.00085263705 0.0007836424 -0.0007660473 -0.0006009328 4.4080476e-05 5.3008157e-06 0.0011783545 0.0011822339 -0.0009730985 0.0003006592 -0.0013621832 -0.0015883698 -0.00081001874 -0.00076057285 0.0008172677 0.0016302062 -0.000606924 -0.0012382098 -0.0013829377 0.00047711248 -0.00061653834 0.0013188911 -0.0014593134 0.0013628197 0.00037143583 -0.0011278443 0.0003543691 4.750011e-05 -0.00016679904 -0.0012111472 0.000552927 -0.0004513131 -0.0012139499 -0.0006937229 0.0006978736 -0.00054413156 -3.6448662e-05 0.00029718954 0.0011948893 -0.0010866406 -0.0016153505 -9.292539e-05 -0.00022605281 0.0010410785 0.0015163115 -0.000907429 -0.00013243574 0.0012230072 -0.00010752373 -0.0009453682 -0.00090193027 0.00091311405 -0.00021125929 -0.00079948234 -0.00019534328 0.0010823589 -0.0005285293 0.0006735134 0.0016623976 0.001200147 4.022609e-05 -0.0011108118 -0.0013037097 0.00020132327 0.0004733369 0.00058516616 0.00015647832 0.0013006061 -0.0009410412 -0.0014810371 0.0013257386 -0.0012394136 -0.0007874043 0.00016648261 -0.0014869579 -0.0008238127 -9.312905e-05 -0.0003883811 0.00055140036 -0.0013843707 -0.0015188857 0.0014273777 -0.0011759333 -5.8517526e-05 0.00083881954 0.0009829835 -0.0016236026 0.0004544503 -0.00042474418 -0.001360907 -0.000983895 -0.0003027115 0.0011966525 -0.00046546684 0.001506882 0.00067181455 2.2505375e-05 -0.0008992567 8.386739e-06 -0.0013887475 -0.00012716229 -0.0005662752 0.0016620315 -0.0016285069 0.00039923677 0.00071235205 -0.0012748393 0.0006613905 0.0012098579 0.00036918867 0.00047732802 -0.0012191612 0.00079051626 -0.00046811326 -0.0014928553 0.0012024441 0.0010760652 0.0009536375 -0.0003304304 -0.0013089448 0.0014128124 0.0012223787 -0.0007070217 -0.00149111 -0.0011576264 -0.0011664304 0.0006892471 0.00063270534 -0.0015924647 0.00022753594 0.0004929473 0.0015905645 -0.0006114913 0.0007449984 0.0009931955 -0.00022255421 0.0014473478 0.0005803524 0.00056888897 -0.0008292563 -0.0012070624 -2.0791178e-05 -0.0006535058 -0.0015342046 0.0013473192 0.00012441026 -0.0015271752 0.00015572018 -0.0013021079 -0.0015590565 -0.0006005791 0.0014185319 0.0009627763 -0.00020522781 -7.856272e-05 -1.7202805e-07 -0.00063020113 0.00066107034 -0.00039406115 -0.0010759953 -0.0013474455 0.0010721959 -0.0016364362 0.0010210376 -0.00045583895 0.00029373943 0.00013656073 0.0012101358 -0.0009695382 -0.0002772294 0.0006629665 -0.0015757403 0.0013694051 0.0012987087 0.000999248 -0.00059196615 0.0009673659 -8.841968e-05 0.00059708307 -0.0006748361 -0.0008315357
前往 -0.0010421287 0.00077442033 -0.00021839008 0.0011545559 1.749721e-05 0.0015862663 0.00060835195 -0.0009260529 0.0009944873 0.0010331366 0.00043896458 -0.0015292906 -0.0007189563 -0.0008883585 0.0007361025 -0.00050179387 0.0007163671 0.0014683208 0.00012791493 0.0014020558 0.00082343956 0.00082661794 -0.0006982838 -0.0014361845 0.0014155081 -0.00134551 0.0008391572 -0.0011959944 -5.9704467e-05 -6.949599e-05 -0.0007297857 -0.0013347563 0.0014166712 0.00090367836 -0.001373741 0.0011381131 0.00078898645 -0.0013308201 -0.0008196162 0.0012918576 0.0012475479 -7.46764e-05 -0.0013096131 -0.00024353588 -5.821478e-06 0.00066038314 -1.6208387e-05 0.0011342053 -0.001079967 0.0003439153 -0.0015651272 -0.001309063 0.0007659925 -0.0014874574 -0.00056391803 6.08315e-05 0.0014965516 8.178467e-06 -0.0008522253 -0.0011351393 -0.00016810921 -0.001319554 -6.816249e-05 0.001254482 0.00095171557 -0.00035520922 -0.00059489865 0.0014105861 0.001319091 0.00060516916 -0.0014612897 -0.0010065623 -0.0010348307 0.0006295738 0.0011949661 -0.0011421682 0.0013193431 -0.001439041 -0.0010126841 -1.5961967e-05 0.00017129321 0.0004960142 0.0015534859 0.0013257014 -0.0016102443 9.826622e-05 0.0013988357 -0.001494482 -0.000498526 -0.0009892759 0.0008437941 -0.00061729795 0.0006367423 -0.0016656436 0.0004435782 -0.0009241033 -0.00063086033 0.0009739965 -0.00065814547 0.0008981264 -0.0011568562 -0.0001077442 0.0005009627 -0.001258998 -0.0005124507 0.0012856815 -0.00088859035 -0.00014075381 -0.000682362 0.00092189194 0.000119567725 0.0011678225 0.00072633446 -0.0014589705 -0.0006156327 -0.0007803274 -0.0013394549 0.0013645389 0.0011681727 -0.00017852086 -0.0014642956 0.0012079851 -4.576208e-05 0.00013513086 0.00032313945 0.0010591317 0.0014939327 0.0008198986 0.0016233037 0.001419058 0.0009986216 -0.0003074498 0.00046058855 0.0005384782 -0.000630173 0.00032613738 0.0002486717 -0.00034328888 -0.001075919 0.0005615196 -0.00011936426 0.00095654646 -0.00027824604 6.197722e-05 0.001013533 0.00021369699 0.00025186365 0.001022312 0.00074120465 -0.000105975574 0.00048371384 -0.00022411147 -0.0013421122 0.00084511266 -6.0268267e-05 0.00026082943 -0.0011620971 0.0011241285 -0.00018433135 -0.00054217275 -0.0009852686 0.0006027341 -0.0010583291 0.0006803976 -0.0012167435 0.0007747068 0.00011036351 0.0002120268 0.0006777606 -0.00035118486 0.001267521 0.0009879548 -0.000662756 -0.0014190589 0.0014401418 -7.4823714e-05 0.0016441682 0.0006067708 -0.000670048 0.0016025727 0.0014426536 -0.0010589627 1.6847405e-05 -0.0015931092 -0.0013291248 -0.0014909898 3.297611e-05 -0.0008360342 0.0008239041 0.0014862852 -0.0007992937 -0.00085406617 0.00015520403 -0.0011121682 0.0004921816 -0.00064841256 0.0007146702 0.0012073138 -2.749538e-05 0.0014040858 0.0008697707 -0.00048638115 0.00058329373 -0.00087216275 -0.0005626171 -0.0011700117 0.001514414 0.0012794047 0.0011930751 -0.0015417405 0.0013121266 -0.0012973452 -0.00046956626 -0.0003114701 -0.0009147806 -0.0015818544 0.0016463769 0.001340174 0.0008671287 -0.0007233461 -0.00036242418 0.0006132034 -0.001085307 0.0013231394 0.0014717557 -0.00015134821 0.0007342822 0.00017880855 -0.0006359762 2.4337592e-07 0.0013783992 -0.0008975176 0.0006112645 -0.00027907867 0.00018931911 -0.00043884738 0.0016509801 -0.0007358562 0.00021706907 -0.0010841303 -0.00070653664 0.0003117256 0.0012968411 0.00060843263 -0.0016478326 -0.0016559002 -0.0014329574 0.00056870107 0.00024253428 0.0012211206 -0.00025465636 -0.0013776125 -0.0013115952 1.1754116e-05 8.074006e-05 0.0004579143 -3.2236025e-05 -0.0007486321 -0.0014706788 -0.0010486778 1.5734458e-05 -0.0011628318 0.0014341838 -0.00062395737 -0.0010550309 0.0016496979 -0.00072790193 0.0011791881 -0.0006864496 0.001042019 -0.0012427984 0.00083226134 0.0011573266 -0.00021470133 -0.0005424623 0.0011282903 0.0013719711 -0.0011971694 -0.00024127973 -0.000112358786 0.001374724 0.00065587444 -0.0010970208 0.0011124394 -0.0012660169 -0.0013887519 -0.0014818804 -0.00076130795 -0.0013313595 -0.00013154975 0.00020990719 -0.0005126725 0.0009390377 -0.000612982 6.629187e-05 0.00021383575 0.0011197376 0.0005451393 -6.906477e-05 -0.0014759969
E7 0.00032445972 -0.0015616885 -0.00025077086 0.001283231 0.00064830063 0.0014854297 -0.0013386254 -0.0011137748 -0.00071295287 -0.0009496191 0.0005825385 0.0009972366 -0.001512216 -0.0013463257 0.0005212435 0.00072014634 0.0010309928 0.0010477428 -0.0009274111 -0.00086690515 0.00063078234 -0.0015676259 0.0013286681 0.00042246407 -0.0007130862 -0.0012753654 -0.00085453596 -0.0014757679 0.00018087964 0.0012013228 0.00017290798 -0.00070437585 -0.00047585933 0.0003900115 0.0011074474 -0.000116576965 0.0011774926 0.0005139297 0.0007311379 0.0012533636 0.00071897375 0.0010464907 -0.001599071 0.00088581047 0.0012419495 -6.786728e-05 0.0006441341 -8.543557e-05 -0.00042116942 -0.0013725061 -0.00062141725 -8.51694e-05 -0.00085674884 -0.00023031517 -0.0006705246 -0.0013631047 -0.00021564263 -0.00043281962 -0.0015173367 0.0015019388 -0.0009882669 -0.00090415817 0.0005438497 0.0015460858 0.0010461088 0.0009430398 -0.0006738667 0.0013979862 -0.00048329728 -0.00074633094 0.00026131805 0.00028588515 -0.0011226261 0.00074176496 -0.001462906 0.0005724808 -0.00075393426 0.00112998 -0.0011609301 0.0005469511 -0.00148227 -0.0015527137 -0.001465578 -0.0010414026 0.0008370958 -0.00018950811 0.00073464017 -8.954341e-05 -0.0013946397 0.00022344828 -0.00024379426 -0.0012568767 0.00094288046 -0.00047165158 -0.00032147154 -0.00041123934 0.0016210143 0.0009922605 0.0013499226 -0.0015777842 0.0004372286 -0.0012591709 -0.0015744398 -0.00035706002 0.00050921494 -0.0016239474 -0.00083530974 -0.0002859455 0.001444096 -1.6832878e-06 0.0011645227 -0.0001679915 -0.0010265686 0.001609454 -0.00041737716 -0.00013009337 -0.00095613056 -0.00045353398 -0.0004309712 -0.0003290402 -1.2677848e-05 0.001362624 4.059559e-05 0.00042770294 -0.00062333496 -0.0015127435 0.001450441 -0.0015583639 -0.00052098115 0.0009815273 -0.000743587 -0.00072462624 -0.0008483555 0.0002972516 0.0010105332 -0.0011240586 0.00022913372 0.00017481254 0.0011592687 0.0012621157 -0.00010844114 1.3265774e-05 0.0010745284 -0.0009213337 0.0004387028 0.0012851866 -0.0003009071 0.00028630026 0.0011203057 -0.0007043783 0.000703625 -0.0004934032 0.0001758163 0.0012807263 -0.00066445314 -0.00023978644 -0.00059537735 0.00094626896 0.0015451313 0.000963066 0.00025280734 0.0005720605 -0.00082293915 -0.00021844152 -0.0010775785 -0.00038094554 -7.6841156e-05 -0.0015555252 0.0012105588 -6.148202e-07 -0.0015589941 0.00048522418 -0.0003652726 -0.00063065474 9.336394e-05 0.001320069 0.00045961927 0.0016360742 0.0007193302 -0.0010665717 0.00090871064 0.0014090571 0.0014266844 0.0012474764 0.0011784851 0.00039495534 0.00092067884 -0.0009803883 -0.0015367159 0.0013701306 0.00080906297 -0.00028975093 2.2419963e-05 0.0012735382 0.00011486266 0.001246194 -0.00024480236 0.0016418224 -0.0003299165 -0.0014879948 0.00124209 -0.0011646132 -0.0008310787 -0.0015928982 -0.00055018964 0.00092453806 0.00065116334 0.0013300007 3.771312e-05 0.00022817454 -0.0007057079 0.0014129134 0.00010697713 0.00019806778 -0.0002609582 -0.0016529354 -0.00052550645 0.0015867957 -0.0013825445 0.0010816096 -0.00038493224 2.5115169e-05 0.0015142288 -0.00092771504 -0.0014855956 -0.0016157537 -0.00013716321 -0.00019252195 0.0007963222 8.105205e-05 0.00028285958 -0.0011974497 0.0004550384 0.0014729494 -0.0010911825 -0.0013441424 2.083171e-05 0.0008466075 0.00044398708 0.00028090397 -0.0012609852 0.0007676614 1.30181415e-05 0.0006792118 -0.00015823725 -0.0012945851 -0.000986271 -0.00095617684 0.00063451205 0.00097448664 -0.0002167464 8.758457e-05 0.00023703204 0.0011629115 0.0010996867 0.00036416348 -0.0016573188 0.0013794178 0.0015608009 -0.0007908581 -0.00057608646 0.0015233527 -0.0003309562 0.00085787824 0.00022039354 0.00033560532 -0.0011154206 -0.00078817696 0.00067634945 0.0015374584 -0.0010972035 -0.0015589303 0.0009648031 0.0010209695 9.810872e-05 -0.0005546685 -2.1675876e-05 -0.00026384965 -0.00038904703 0.0006762154 -0.0006221294 -0.0007997987 0.00042683672 0.0004437429 -0.0013552642 -9.48031e-05 4.3044558e-05 0.00092768023 0.00073513633 -0.0013152029 -0.0011279703 0.0010324753 0.0013009703 -0.0016417851 -0.0005057647 0.0002577521 5.837738e-05 0.00058541005 -0.0006923869 -0.00036953136
博多 -0.00052951527 0.0004669707 3.5585246e-05 -0.00018446555 0.0010500125 0.0006817193 -0.0016015716 -0.00047445 0.0015595967 0.00021297777 0.0012437269 0.00029727255 -0.0013869309 0.0004828421 -0.00012385564 -0.0008807379 0.0012878852 -0.0004171432 -0.00028694296 -3.145142e-06 0.00086134626 -0.0013440684 -0.0016549556 0.00020819671 0.0016116027 -0.0015598112 0.0006364382 -0.0015518537 0.0014377644 5.9786482e-05 -0.0010073823 0.000523992 0.0005334094 -0.00056985585 -0.0009548543 -0.0012771662 -0.0010818463 0.0014719841 -0.00012259706 0.0014557254 0.00011810302 0.0011081471 0.0015102322 -0.0016589194 0.00067211536 -0.0011331902 0.0004784106 0.00030775685 -0.00014249384 0.00013822805 0.0014814393 -0.00073162117 0.0016226615 -0.0010674094 -0.0003161344 -0.001313303 -0.0010553272 -0.0015480831 -0.00061591173 -0.00086720986 0.0012079912 -0.0007080256 0.0009157095 0.00024014483 0.00082004385 -0.001366932 0.0016579546 0.00080295233 0.000114633425 -0.0016654794 -0.0016163487 9.0506735e-05 0.0007113627 0.001168993 -0.00017962245 0.0012881353 0.0009230954 -0.0014811098 -0.0013764551 0.000558363 -0.0015774937 -0.0010602972 0.00024910993 -0.0009482387 0.0009290284 0.0015664466 -0.0011345395 0.00037557335 -0.00038534228 0.00032294614 0.0015874607 0.00034309263 -0.00053859525 0.00058639713 0.0012132409 0.00070292427 -0.00030201476 0.0004685718 0.00081620854 -0.0015518293 0.0013474181 -0.0015148402 -0.0013191438 0.0013828276 -0.0013313333 -0.00022084772 0.0006810865 -0.00036241606 -0.0014788124 0.00042759549 -0.00067665585 0.0015536045 -0.001528916 -0.00016189468 0.0011274874 -0.0002911251 7.364545e-05 -0.0010728865 0.0012168095 -0.0016037232 -0.0011730085 0.0016590384 0.0008763689 -0.001351027 0.0015275684 0.0016100274 -0.0016161012 -0.00014760108 -0.0014817436 -0.00078999664 0.0015481242 -0.00043679614 0.0010464832 0.0005106301 -0.0016376396 0.0012810417 0.0012648958 0.00014194568 0.0008761731 -0.0010493601 -0.0010870221 0.0005118188 0.0013481961 -0.0010084383 -0.00068492384 0.00065209257 0.00060983055 0.0014865975 0.00142807 -0.0015621352 -0.00022250897 0.0006493837 -0.0015499925 0.00042724202 -9.51855e-05 0.00027527288 0.0016368876 0.00087574613 -0.0005483016 -0.000803379 -0.00018560182 -0.0002577158 -0.0007659205 -0.00042071074 -0.0011765416 -0.001343981 -0.0011993919 0.0006067932 0.0013780276 -0.0009455961 0.0007017744 -5.600925e-05 -0.0012047291 0.00048100093 -0.0003643173 0.0012550937 -0.000855953 -0.0009594888 -0.0016290265 -0.0004231166 -0.00014958323 -0.0014267486 -0.00088949193 -0.0007731008 0.0007384038 0.0013294694 6.246799e-05 0.0011580648 -0.00016682931 -0.0014629727 0.00069827924 0.0013271973 -0.0014529983 -0.0008748732 0.001104415 0.0012506137 0.0013834545 -5.46181e-05 -0.0015013807 -0.0012004802 -0.0007625736 -0.00032047188 -0.00064116565 -0.0006060336 0.001315258 -0.00097596145 -0.000707329 -0.0016152094 0.00019452102 -0.0013997589 0.00073428784 -0.00073350704 0.0009459517 0.0011663912 -0.0013732793 -0.0009300366 0.0010226741 -0.0006146915 0.0012479123 -0.001626393 0.001370683 0.00092416396 0.0011356195 -0.00075414556 -0.0016638509 -0.0010281203 0.0013340742 -0.0010800988 0.0009254202 -0.0014227456 -0.00031136663 -0.0015513542 0.00042726286 -0.0008030894 -0.00063833914 -0.00025039303 -0.0008836803 -0.00029422774 0.0016130976 0.0002395535 0.00013157232 0.0011234148 0.00042264294 -0.0006000928 6.1272905e-05 -0.0007563062 -0.0011826062 0.0005270864 -0.001391147 0.0010559846 0.0003281289 -0.0013130865 -0.0012468968 -0.0006826275 2.076508e-05 -0.00028243082 0.00020260549 -0.00032142503 -0.0010891736 -0.0013556189 -0.00046234461 0.0014580104 0.000104435574 -0.001542141 0.001323445 -0.0011770022 -0.001624522 0.0011705259 0.00015065173 -0.0012253216 0.0010638168 -0.0015114014 -0.0016217409 -0.0012024471 -0.00044093677 -0.0011235642 0.00071307644 4.9902977e-05 0.0009610073 -0.00078886107 0.0013835377 -0.00032134604 -0.0016301178 -0.0002761838 -0.0011743185 0.0012384524 0.0016640804 -0.0003160657 0.00038934386 -0.00052143884 -0.0013730099 0.0014395914 0.00040022001 -0.00096606713 -0.0013770271 0.0006438677 -0.0015986749 0.001614158 -0.0015069313 -0.0015139908
自由 0.0007433599 0.0011458405 -0.0013470779 -0.0012792432 0.00029382785 0.0012706799 -0.0007501264 -0.00049669255 0.0015243151 0.0004787896 -0.00033696403 0.00019286902 -0.0012437877 0.00046659258 0.0011792311 0.0014674691 -0.0003042781 -0.000948359 0.0007791115 -0.00073021866 0.0012907202 -0.0007160491 -0.00088722527 -0.0001155582 -0.0016553054 -0.0007935509 0.00089287205 0.00025381768 0.0004296195 -0.00058759144 -0.0007587765 -0.00066626637 -0.00089481496 0.00089811283 0.00052627164 0.0005312785 -0.0008804339 0.0008567689 -5.569023e-06 0.0006984955 -0.00031302535 0.0007631865 -6.0247956e-05 -0.0007093429 -0.0012989335 -0.00084190664 -0.0016389762 -0.00085135846 -0.0003023471 -0.0003852775 0.0009978239 0.0002720326 -0.00039962927 -0.0013117734 0.0009451896 4.3602904e-05 0.0005534992 0.0007239286 0.0007711383 -0.0016300759 -0.0011868803 0.0015952787 -0.00014126237 0.0009211776 0.0010068694 -0.00084953714 0.0006155179 0.0014291106 0.00042222042 -0.00094325905 0.00030930786 -0.00069863844 0.00029250106 -0.00021388689 0.00028002678 0.00042381912 0.00020145415 0.0015573438 -0.0016057027 0.0016079366 0.00030354853 0.00035518518 0.00077543064 0.0016079578 0.0015090188 -6.2258085e-05 -0.000744968 -0.0004184329 -0.0011513844 0.0009704014 -0.00071799033 -0.00057850697 -0.00032791586 -0.0014137478 0.0016221866 -0.0016657899 0.0016596945 0.0012116155 0.0013476206 -0.0005939027 0.000594085 0.00011169601 -0.0014218593 0.0007737461 -0.000940819 -0.0016415952 0.0010199847 0.0016491911 0.0014347624 0.0011878205 0.0004550585 7.057326e-05 -0.0013906697 -0.001178271 0.0011203164 8.256917e-05 -0.0014846498 -0.00078972976 -0.0006183405 -0.0003984551 0.0013106278 -0.0008374079 -0.0005632448 0.0004640755 -0.001653802 0.0016313839 0.00073299656 0.0016659386 -0.0013125303 0.0015702626 -0.0010995073 -0.00068896485 0.0001109357 -0.0012721275 0.00033305946 0.001216652 -0.000929033 -0.0011858769 0.0006426859 -8.876286e-05 0.0007793144 -0.00020405061 0.00056154723 -0.0012151687 0.0011483352 0.00043285114 -0.0002055218 0.0013179546 -7.254985e-05 0.0015450785 0.0006676487 -0.0008688978 -0.0010822411 0.00080160744 0.0007802994 0.00068308745 -0.00066173944 0.0012055553 -0.00012134243 -8.773543e-06 0.0008756094 0.00019586159 -0.00037272973 -0.001557547 -0.0010453046 -0.0010797943 -0.0011448537 0.0004827242 0.00095816294 -0.0014625567 -0.00045651416 -0.00080742553 -0.00058169727 0.00076164235 0.00054299587 -0.00018736238 -0.0005698531 0.00034612988 -0.0016136465 -0.00061740703 -0.00015017712 -0.0014858536 -0.001129093 -0.00092711253 0.0007775408 -0.0008098554 0.0013895034 0.00033315187 -0.001495408 0.00012267345 -0.0014106341 0.0013760478 -0.0013431059 0.00020508312 -0.00016249393 0.00020180576 0.0015677369 -0.0011029909 0.0014901924 0.0009211061 -0.0010931519 0.00027709443 -0.00041631784 0.0015410484 0.0004956805 0.0006625972 0.0015630281 -0.0015533592 0.0015570272 0.0010364525 -0.00011653381 -0.0011968983 -0.0005542481 -1.0100862e-05 0.0015142036 -0.001644286 0.0002960488 0.00047323745 -0.00045238627 -1.5073436e-05 -0.0011570337 0.000879739 0.0010867335 -0.00028157866 -0.00017408282 0.00095858506 -0.00060463353 -0.0014245644 -0.00053712144 0.0016416014 0.0010610551 -5.833705e-05 -0.000539577 0.00036427757 -0.00053683633 0.0004661988 0.0015728605 0.0013881461 -0.00062875415 0.000167004 -0.00041037495 6.822312e-05 0.00080140005 -0.00047613677 -0.0012461887 0.00064375636 -0.0014326278 0.0012192507 -0.00025122857 -0.00065295014 0.00072238 -0.00071838946 -0.0005085955 -0.001434673 0.00071269047 -0.0014941056 0.0016260551 -0.00078581186 0.00043985771 0.0013037515 0.0007749446 -0.0007609044 -0.00046473526 -0.0012393679 -0.00048227157 0.0008601086 0.0015598915 -0.0011513535 0.0005297619 -0.0009359257 -0.0009586919 0.0012210646 -0.0003520255 -2.5185623e-06 -0.00028771418 -3.3643777e-05 0.0016378469 0.0009225998 0.00029878056 -0.0002753568 -0.00045001126 -0.001049844 0.0006287613 0.0009168221 0.0006191122 -0.0012559146 0.0010699907 -0.0012361751 0.000976229 -0.00019219742 -0.0015654003 -0.0008029455 -0.0013237721 0.0005484115 0.0014494965 -0.00022868544 0.0006769259 0.0015855487 -0.0002295794 0.0016263949
行動 0.0006210162 0.0010003737 -0.00048248746 0.0003272265 0.0015090512 0.00059941807 0.000658535 0.00045287082 0.0002270946 0.0016170182 0.0007845548 0.00056956627 -0.0006165371 0.0014961477 -0.0016626816 -0.00081301556 -0.001182821 0.0014150919 -0.00015685578 0.0005116183 -0.00048589267 0.00090218 -0.0014455442 -0.0012418507 -0.0016628728 0.0013720484 -0.0002622901 0.00057483 -0.00033284852 -0.00064016774 0.00043513792 0.0011984705 0.00044403516 1.57132e-05 -0.00042670296 0.00094905234 0.0007106436 0.0014433552 0.0007529565 -0.0016342686 0.00091852294 0.0002135884 -0.0015266855 -0.00093156064 0.0009121697 -0.00055289984 -0.0008667678 -0.00028784512 -0.00019046229 -0.00093552563 0.00041474873 -0.00013528002 0.0012661584 0.0010585992 -0.00066916837 -0.0005540726 0.0013513701 -0.0006617474 -0.00024363995 0.000710993 0.0014646254 -0.0007472 -0.00094115676 -0.0016006874 -0.0014870617 -0.0016530356 0.000859518 0.001296017 -0.0005109014 0.0005062286 -0.0013903475 -0.00034701964 -0.001209206 0.0013287207 -0.0009733066 -0.0011410424 0.0005112785 -0.0014110078 0.0006139278 1.710357e-05 0.0014517753 0.00010055399 0.0011431226 0.00046811654 0.0003693958 -0.0012306864 0.00057625124 0.00033636004 -0.0010967756 0.0013479403 -0.0011090771 -0.0009710469 -0.0012470463 0.00078363094 0.0016485399 0.0007984811 -0.00032601997 -0.0016550401 0.0006234322 -7.999412e-06 -0.0014225125 0.0012997142 0.0003728688 -0.0013583777 -0.0009930911 0.0010094468 -0.0015607903 -0.0006846483 0.00049428776 0.0010075038 -0.0005514302 -0.00040941808 5.6761524e-05 0.0012657753 -0.0014231962 0.0009857293 -0.0009344417 0.0016016671 0.0013432021 0.0001322281 -0.0014817711 -0.0001959199 -0.0012734317 -0.0016410425 -0.00028328795 -0.0012281627 0.0009808841 0.0007685748 0.0010492409 0.00065343396 -0.0003551497 -0.00025881582 -0.00060984754 0.0002561688 -0.00039510726 -0.0011755665 -0.00068878534 -0.0007030164 -0.0013539016 -0.00085065333 -0.0005443245 -0.0011358134 -0.00018297219 -0.0012666427 0.0011909462 -0.0015649608 0.0012969091 -0.001422052 -0.0012286133 0.00089911127 -0.000648045 0.00016921332 0.0013306225 -0.0008506362 0.0006049203 -0.00011491711 -0.00094182097 0.00029676087 0.00095299614 -0.0011245728 -0.0006266804 -0.00061245624 -0.0011377786 -0.0011532996 0.00016028133 -0.0016120793 -0.00041529885 0.0015713593 0.0009666682 -0.0016234553 0.0012392931 0.0012646101 -0.0009365827 -0.0011719067 0.00074233965 -0.0012425014 -0.0013504563 -0.0008688605 -0.0009390666 -0.0014274482 -0.0003157869 -0.00014831516 -0.0006284692 -0.0011708641 -0.0005775031 -0.00029917964 0.00015252508 -0.001280627 0.001307669 -0.00032628595 -0.00058302825 0.0006814611 0.0002832542 -0.00089950615 -0.00031639947 -0.00018109307 -0.0005478562 -0.001342037 0.0012506215 0.00025309614 0.0006162762 -0.0009406814 8.6003456e-05 0.00068955444 -0.0010398926 -0.0014651527 -0.0009288958 -5.6791177e-05 0.0012238096 -0.0008309735 -0.0013152031 0.0006210051 0.0005798035 0.00038831262 0.0006922209 8.2309416e-05 0.00068645214 0.00031717264 -0.00029032264 -0.0009205351 0.0014843976 -0.0010381121 4.9359754e-05 -0.001253191 0.001535451 -0.0003445928 0.0010809688 0.000855531 0.0010575682 0.0006103694 -0.0016087306 -0.0015946445 0.00032509293 -0.0010170215 -0.0016524047 0.00077273377 0.0015845947 -0.0009060896 -0.0010677433 -0.0007134436 0.0006353484 0.0010151247 -0.0009346664 0.0011530085 0.0014368205 0.0005442154 0.0016339329 -0.001149624 -0.00069038424 -0.00079896086 -0.0015456979 -0.0013691896 0.00062045513 0.0005132959 -0.0015161114 -0.0008082803 0.0007516876 -0.0007228006 -0.00035388782 -3.6766865e-05 9.5927775e-05 0.0008392572 0.0014194604 -0.00053904287 0.00052066176 0.00062131375 0.00072927977 -0.0014295201 -4.5482368e-05 0.0009172907 -0.0008590065 -0.0009468931 0.000135152 0.0009052755 0.00061058765 0.0006237361 0.00068714167 -0.0012520093 0.0005408321 0.0007365646 -0.0010403352 -0.00015326805 -0.0007310439 -0.000569745 -0.0011712769 -0.0009710279 -0.0007754752 0.0006680564 0.0007315191 -0.0004246678 0.00023667321 0.0002498474 7.721226e-05 0.0010219439 0.0007203902 -0.0009053957 -0.0009749043 -0.0013148937 -0.00042535213 0.00012521041
新幹線 0.0013213798 0.0010593502 -0.0013254888 0.0014779535 -0.00043346247 0.0011573926 0.00022286193 0.00089751143 0.00084850466 -0.0008740069 0.000761234 -0.0002766939 -0.00082390365 0.0008672552 0.001572096 0.00055496563 8.503143e-06 0.0014456392 0.0010783671 0.00083689904 0.00062798156 0.00118389 -0.00091945234 0.00052643486 -0.0011908475 0.00021344867 -0.00066304905 -0.00040833867 0.001529788 0.0009003996 0.00037344522 -0.00033034236 -0.0004724525 -0.0010808919 0.0016637754 0.0008615652 -0.0005832111 -0.0009811857 -0.0015750395 -0.0008197988 8.63361e-05 -0.0014806638 0.00071680784 -0.00052161264 0.001513661 -0.0005070006 -0.0012040407 -0.0014720847 -0.00041978134 0.0010949227 -0.0001737319 -0.00038359532 -0.00076463184 -0.0015124144 -0.00063123344 0.00041683402 0.0015612456 0.0011368201 0.0015081086 -0.00047494253 -0.0014299226 0.0006377695 0.00046674217 -0.00039911782 -0.00094420306 0.0015606465 -0.000307749 0.00024861263 0.0016552462 0.0015188073 -0.0011360735 0.0010920445 0.00075540855 -0.0013848614 0.0009167189 -0.00083514827 0.0001819896 -0.0016395518 -0.001620366 -0.0006541596 7.9234575e-05 -0.00087847613 0.0015393676 -0.0014560589 -0.00084008917 -2.858694e-05 -7.982301e-05 0.0016233573 -0.0005573215 0.0016632598 -0.000984396 -0.00038607704 0.00041152755 0.0014080163 0.00022876351 0.0007638018 0.0016601112 0.0010273049 -0.0009983216 8.715197e-05 0.000121117446 0.00017370241 0.00078290526 -0.0006704129 0.0014827874 -0.00039800344 -0.00050420925 -0.00052204065 -0.0003026484 0.0013727181 -3.4500586e-05 0.00021684277 -0.0010735531 0.00090486446 -0.00030320647 -0.0006279771 0.0014582819 -0.00037384118 -0.0016486769 0.0009396346 0.0012655302 0.00156316 -0.0013030242 -0.0002028419 0.0003065026 0.00033766366 0.0009405826 -0.00017632727 -0.0012933135 0.00030606912 0.0010451245 0.0012241831 0.0003785007 0.0016624253 0.0012348419 0.00050218625 0.00097637967 0.00019496467 -0.00027361402 0.0009925913 0.0015436175 1.2405574e-05 -0.0013827644 -0.0005474168 -0.0012284662 0.0014506578 0.0006912002 -0.0013998221 -0.0010788977 0.00085288595 0.0010176072 0.00068593357 0.0005552376 0.0005695171 -7.039287e-05 0.0014268609 0.001299881 -3.167932e-05 -0.0010704921 -0.0007220415 -0.0007805896 -0.00088813575 -0.00019552185 -0.0013906385 0.00037909814 0.0011109167 -0.00017529938 -0.0010445608 -0.00017760553 0.00019354763 -0.0013951384 -0.0010463726 0.001285694 0.00018312514 0.0013030458 -0.0008062392 0.0012677733 -0.0003348695 3.836736e-05 -0.0001659282 0.0013661879 4.8224214e-05 -0.0012348173 0.00063811656 0.0012047114 -0.0009250048 0.0013325382 0.0015470734 0.00090248557 0.0008704107 0.0012382971 -0.00027346532 -0.0003454363 0.00061208673 -0.0007378631 0.0011526291 0.0007710221 0.0014613889 0.0009900953 -0.00042938022 0.0016465723 -0.0010371656 0.0014261139 0.0005338989 -0.000954868 0.0015590321 0.001277114 -0.0008764366 -0.00036661723 -0.001294678 -0.00093280023 -0.000120870456 -0.00024398898 0.00030551324 -0.0012392692 -0.0016360802 -0.0015568242 0.00032196645 0.00079528306 0.0009412694 0.0013491221 0.0015001883 0.00025366116 0.00040144162 0.00015438387 0.0014792446 0.00094770495 -0.0004866319 0.0015317417 -0.0004402655 -0.0004585925 1.9152663e-05 0.0015148814 -5.482287e-05 -0.00014874229 0.00045624815 0.0007354827 -0.00060553284 0.0002565425 -0.0002097142 -0.0014704518 0.001127714 -0.00023985025 -0.00022438292 -0.0011692614 -0.00035804938 -0.00019428704 -0.00013519931 -0.0013515151 -0.001287935 -3.5607987e-05 -0.0015141277 0.0007483249 0.0015063144 -0.000409885 0.0013048108 -1.2223453e-05 0.00040877622 0.00056057004 -0.0013072699 0.0016296991 0.0011489771 0.00044162944 0.00045580673 -0.0014756782 0.00065709115 -0.0014678596 0.0008149328 0.001151994 -0.0014358086 0.0012047174 0.001532997 0.0008349027 0.0001037132 -6.591828e-05 -0.00064429606 0.00039623104 0.00036571943 0.0008759981 0.00039100242 -0.0015538158 -0.00082144816 0.00078719424 0.00022918633 0.0014780305 0.0013645238 0.00020005683 -0.0008011784 0.00035859062 0.00055269944 -0.00021897796 0.00029403192 -0.0014295675 0.00071053207 -0.001304977 -0.0014611 -0.00038987826 -0.0013533869 -0.0016000418 9.108726e-05
車廂 -0.0008953669 0.0011663048 0.0016318634 -0.00052654283 -0.0013163842 0.0012418224 -5.82455e-07 0.0012257018 0.0016405658 -0.0008943792 0.00018982292 -0.0003773246 -0.0005628628 0.0010400073 -0.001481034 0.00034320998 5.2420783e-05 0.0015224695 -0.0015990686 -0.00089696964 0.00028038965 -6.214629e-05 0.0003631023 0.0009299109 -0.0014239093 0.0009958423 0.0015885052 0.00021514388 -0.0012591245 -0.0006157762 -0.00060750835 -0.00043812 0.0016307388 -0.0012147707 0.0001640808 0.000520853 0.00020716875 -0.0005149836 0.0012558848 0.0006308457 -0.0014477161 -9.652525e-05 -0.00032171677 0.0014676587 0.00060048763 -0.0010102016 -0.0014708509 0.0012735161 -0.00038644503 -0.0015294858 -0.0011671897 0.0008679511 0.0013789611 0.0015872163 0.0016327222 -0.0011891315 0.00069673045 0.00084600464 0.0005585003 -0.00030056818 0.0009237221 0.00085920934 -0.00031633663 0.0010788601 -0.00082670606 -0.0005400918 -0.00082796795 -0.00016907646 0.0007099303 0.0014660045 -0.0016252327 0.0008707467 0.00070049043 -0.0015202453 0.0008647889 0.00011071926 0.00083172135 0.0012975815 -0.000156276 0.00025290617 0.00039934603 0.0012338582 -0.0010888836 0.00048750654 4.1082794e-06 0.0011692888 0.0015507566 -9.323535e-05 0.00073040306 0.0005047076 -0.0003668724 -0.0013727639 7.280427e-05 0.0016595183 0.00079334184 0.0008726243 0.0015191205 -0.0007743625 -0.0011024773 8.577448e-05 4.9798065e-05 0.001035179 -0.00010495955 -0.0002072908 0.0008238323 0.0010502791 3.157738e-05 0.001582268 -0.0006159226 0.0014180365 0.0013382696 -0.0013026719 -0.0007200277 0.00096255675 -0.0013387352 0.0008439199 0.001043764 -0.0007698996 -0.0015879978 0.0007704706 0.0006351418 0.0015678521 -0.0012756013 6.195527e-05 0.0013014874 -0.00091806083 -0.0013784582 -0.00090531545 -0.0014437546 0.001072699 -0.0004181866 3.225174e-05 0.00077799836 -0.0013008325 0.0009148349 -0.0011175022 -0.001484654 -0.00016162886 0.00063430984 -0.00076442136 -0.0015475851 -0.0016156532 -0.00080550695 0.000634862 -0.0011621173 -0.00072420464 -0.00080542575 0.0012468561 0.001497256 -0.00046854827 0.0015616731 0.001264196 -0.00023816421 -0.0007753137 0.0008195035 0.0014092232 8.0599806e-05 0.0008085751 -0.00028338947 -0.0007386089 -0.0003620646 -0.00010251366 -0.0008012513 0.001126954 0.00022128684 -0.0013503324 -0.00029834895 -0.00020450294 -0.0015506393 -0.0010933849 0.00025407894 -0.000774316 0.0012003402 -0.0012283087 0.0010001136 0.0010286742 0.0006023972 -0.00090408436 -0.0013713893 0.0004362178 0.0011139071 -0.0016421482 -0.00032156653 -0.000907842 -0.0005351809 -3.6379784e-05 0.00059184834 -0.0015257259 -0.00033105403 2.439514e-05 -0.00083504815 0.0015318973 -0.00060628407 -0.0010186182 -0.00013533601 -0.0009844364 -0.00041256967 -0.0005238042 0.0010360113 0.00015232453 -0.0007798553 -0.00085746695 0.0016651361 0.00017934912 -0.0010446806 0.00036708717 0.001520105 0.00062903855 -0.00047756505 0.0007486985 -0.0015467878 0.00047637982 0.0012141166 0.00026207065 0.00027976267 -0.0010448731 -0.0015826218 0.0007720607 0.00057797285 -0.00039468694 0.00013170103 6.584922e-05 0.0005665933 -0.00075016887 -1.4857912e-05 0.00082742196 0.0012086042 0.0013679558 -0.0011988395 -0.0010289857 -0.0006217843 0.0003944816 -0.00026540115 0.00060777995 -0.00018512 -0.00043258615 0.001525903 0.001617957 -0.0006270726 0.0014380827 0.00152177 -0.0012780996 -0.00010377271 0.00038656444 0.001324951 -0.00080439594 0.0011099144 0.0012206082 -0.00017983917 -0.00036067356 0.00013001106 -0.0005714797 -0.0011632852 -0.0016502015 -0.00014892915 -0.00078702264 -0.0016151392 -0.0009611582 0.0016334794 -0.0005432534 -0.00022649419 6.6854074e-05 -0.0003785401 -0.00095414935 0.00014274835 0.00078625255 -0.0006585898 -0.00044996027 0.00032690165 -0.00035006393 -0.0015876031 -0.00025682218 -0.0008802367 -0.0008950486 -0.00071904284 4.6191144e-05 4.927546e-05 0.0014564646 -0.00082115404 0.0007449458 1.9617415e-05 0.0014452776 0.00016874126 -0.0015212215 -8.259455e-05 -0.0008092631 6.646041e-05 -0.00043343203 0.000257324 0.0015014795 0.00083535933 0.0007553419 -0.00034845623 0.0008017784 0.00057256914 -0.0015122422 0.00048678782 -6.935564e-05 0.0012165827 -0.0016198487
吃 -0.00082991755 0.0003227477 0.0012955454 0.0012954266 -0.0009188882 0.0010875185 -0.00025631103 -0.0004212626 6.940782e-05 0.0001406724 -0.001647834 0.0006445403 0.0016043864 -0.0005450394 0.00085580593 0.001097909 -0.000697259 -0.0011173357 1.5029091e-05 -0.0010173522 3.821161e-05 -0.0009034417 -0.00086599746 -3.0140875e-05 -5.337818e-07 -0.00017624006 7.663556e-05 -0.0014000474 -0.0009090769 -0.0012065909 -0.00096522673 0.0015616715 0.00029543755 0.0009917464 -0.0016611284 0.00013028893 0.0015309082 0.0015895723 -4.274275e-06 0.00059130753 -0.00047741225 -0.0003074549 -0.000424073 -0.00013882907 0.00030978696 -0.000105359315 -0.0012737871 -0.00076828967 0.0016335013 0.00031303684 0.00048382024 -0.0014426513 0.0012278687 -0.00090345374 -0.0009889724 -0.00024580242 0.00024716347 -0.0013691719 8.328582e-06 -0.0003611198 0.00081632 0.0006387573 0.0014720284 -0.0012061337 0.00042159847 8.490523e-06 0.00041498977 -0.001331045 0.0015408412 -0.0010623524 0.0013201886 8.4491076e-05 0.0012354417 -0.00040883024 0.001006914 -0.0011709838 0.0012469973 0.0002182428 0.0012517088 -2.1991758e-05 -0.00074268837 -0.00062621245 -0.0016242848 0.00079618435 0.00046665999 -0.0012661276 0.0006504184 -0.0015607075 -0.00036358487 0.0011904875 -0.0009343275 -0.001371313 -0.00028290175 -0.0008269286 -0.0014947281 -0.0016207582 -0.00067212846 0.0012520484 -0.00035930375 -0.0009949193 -0.001294862 -0.0016111654 -0.0013842941 -0.00044472175 0.0004918474 0.0014487983 0.00035594925 -0.0012280112 0.0013717129 0.0006131694 -0.0005162051 0.00066796783 0.00038898352 -0.0011248931 -0.0003592927 -0.00089008425 -0.0005245045 -0.00059860805 3.5321154e-05 -0.00094262656 -0.00054858834 0.001399756 -0.0010223712 0.000873225 0.0004120972 0.0014307344 -0.0011697809 0.00061339664 -0.0013727786 0.001313603 -0.0012446591 0.0009321902 -0.0015672464 0.0010771095 0.0009076537 0.00017574108 -0.0007875192 0.0006093964 -0.0013776505 0.0006632211 0.0016191642 0.0007375174 -0.0004309093 -0.0014135041 -0.00015486637 -0.00015522978 -6.337675e-05 0.000972027 -8.894726e-05 -0.0009085816 -0.0014707299 -4.125368e-05 -0.0015945042 0.00020543036 0.0012520654 0.001040965 0.0008636676 -0.00060377305 -0.0010766522 0.0011124901 -0.0003611541 -0.00046909213 0.00061365357 0.0011307287 -0.00063791254 -0.00034543287 -0.0016547784 -0.0009385262 9.512782e-05 -0.0005861786 0.00057400466 -0.00019554375 0.0011030919 0.0007885946 0.0005270389 0.001121811 0.0004461907 0.001343441 -0.0007099793 -0.00104771 -0.0013542408 -0.00012267368 -0.0010205586 -0.00076077634 -0.0006428583 -0.0003257035 0.0012341944 0.0015175054 0.00094390864 0.0012575287 -0.0014760543 0.0008477108 0.00081436324 -0.0011595095 -0.00057154323 -0.0004058079 0.00092734833 8.527051e-05 -0.00060914224 0.0010273299 0.0005664864 -0.00036598797 0.0005729908 -0.00076029263 -0.00037705398 0.00044531492 -0.00054660265 -0.00082531176 0.0005757448 -0.00030253708 -9.173006e-06 -0.0016387715 7.59317e-05 0.0012818875 -7.094649e-05 0.0007088192 0.0012401842 0.0005774259 0.0009297356 -0.00034997 -0.0016261964 -0.00029544428 0.0009754911 0.0009192541 0.00013455634 0.00087906374 0.0007912024 0.00024943132 0.001599229 -0.0015993867 0.0007443886 -0.001278534 0.00028929795 0.0009513659 -0.00093394035 0.00028958026 -0.0014034263 0.0014735805 -0.0014343644 -0.0004904828 -0.00089799357 -0.0014468969 0.0009801177 -0.0006430895 0.000961126 -4.344726e-05 -0.0008392735 0.00033589965 -0.0009161673 -0.00062657334 -0.0014801746 0.00075973803 -0.0013074835 -0.00083846966 -0.0016078325 0.0008565589 -0.0005101838 -0.00035321296 -0.0014418876 -0.0015565456 0.0016311388 -0.0010302156 -0.0006828501 -0.0016138806 0.00051481446 0.00070298475 -0.0009640311 -0.001110768 0.0013643861 -0.0005532605 0.00068828213 -0.0015119106 0.0011100048 -0.0005805901 0.00038953862 -0.00083182007 0.000637667 -0.001350856 0.0012889293 0.0008229213 0.0009414123 -0.0014494425 -0.00043066323 -0.00020423834 -0.0007745066 0.00017149243 0.0013646347 -0.001051756 0.0007819668 -0.0009974766 -0.0008847519 0.00064014335 -0.0005141397 0.0004119322 -0.0006275379 -0.0013836992 0.0011501571 0.00033494606 -0.0013517573 0.00059490226
行李 8.5527645e-05 0.0007902599 0.001126558 -0.0013224779 0.000987957 -0.0015751977 0.001390093 -1.3194161e-05 0.0010687803 0.00092598033 0.0006792537 0.0013004845 -0.00061944424 -0.0007780481 -0.0011131768 -0.0013008802 -0.0013288228 -0.0005717858 -0.000581138 0.0011666478 0.0010744679 0.001645725 -0.0013586523 0.0010052522 -0.0007427704 -0.0010640172 -0.0002089456 -0.00052433467 0.00079162646 -0.001100986 0.0010716565 0.00075878686 0.001130914 0.0005029245 -0.000673294 -0.0003686168 0.0011352974 -0.00013253253 -0.0007600466 0.00050035823 0.00061393523 6.5910885e-05 0.0006182511 -0.0009985546 -0.0005334266 -0.0005595597 0.001198805 -0.0007655269 0.0006840639 -0.0011476744 -0.0014719063 0.00080533675 0.0011767531 0.0013320831 0.000983854 -0.0014340949 -0.00022408245 -0.0013406004 -0.0016264078 0.00035345944 -0.001100548 -0.0005315957 -0.00029232705 -0.0013118366 0.0010300548 0.00054220366 0.001228707 -4.9693972e-05 0.0014501158 0.00045124773 -2.416317e-05 -0.00031799442 0.00038168833 0.0005910754 -0.0015424103 0.0005735889 -0.0008872025 -0.001006058 2.0790749e-05 0.00026512955 -8.482864e-05 0.00092615804 -0.0015484528 -0.0014306322 0.0014629 0.00035229092 -0.0011720188 0.0016093869 -0.0014097011 0.0012160508 0.00022958522 0.00026003088 -0.000550939 0.0007899151 -0.0005895143 0.0003603181 0.00094809895 0.0012506322 0.00044202257 0.001310956 -0.0015516268 0.00048184852 -0.0010448517 0.001662382 0.00063079497 0.00010279181 0.00079793617 0.0008698285 0.0007996234 -0.00080099644 -0.00092825363 -0.001407641 -0.00043963964 -0.0009779969 -0.0011807838 -0.00030430197 -0.0013135335 0.0007559913 0.0007097842 0.0006796573 -0.0010223038 0.0015533988 0.0012765441 -0.00012330545 0.0015125071 8.011241e-05 -0.00039228916 -0.001174365 -0.0014806894 -0.0011120244 0.00036149358 -0.00079252745 -0.0016390991 0.0007914983 0.00016802837 0.0003653725 -0.0015478029 -0.0008516462 -0.0010481079 -0.0014424336 -0.000445415 0.0010062933 -0.0012985659 0.00045708698 -0.0014301153 -0.00080452795 0.0002630201 0.0013499168 -0.00015913053 0.00063292007 -0.0014654596 0.00037551727 0.0015094797 -0.0008783167 0.00015174419 0.001489552 -0.00024822753 -0.00063449086 0.000659073 0.0012553812 0.00043056603 -0.0010055398 0.0009917096 -0.0006812265 -0.0015978166 -0.0011277379 0.0015129235 -0.00052111765 0.0013121063 -0.0009159713 0.0015954908 -0.0015750859 0.0005019514 -0.00026209452 0.00047546983 -0.0016126527 -0.001486099 0.0015436598 0.00057832286 -3.252863e-05 -0.0012729635 -5.8881382e-05 6.144658e-05 0.0010227856 0.001384024 -0.0011055056 0.0005778541 0.0009887087 -0.0009662533 -0.0016257808 0.0015917378 9.987665e-06 -0.00042875236 -0.00134211 0.0015771898 0.000710465 0.00012998882 -0.00048023672 0.0015951737 -0.0014473822 0.00087584404 -0.0004140235 0.00024025695 -0.00091035035 0.00028568716 0.0016279811 -0.00021331364 -0.00030818026 0.0001655556 -0.0013709039 0.00085969944 -0.00116176 0.0016304129 6.066108e-05 -0.0013428679 -6.262324e-05 0.00074158417 -0.00037876028 0.00021987472 -0.0011380139 0.00062152394 0.000695555 0.0010050326 -0.00027960187 0.0004976033 -0.0014211803 0.00038975646 0.0015617975 0.00021957928 -0.00094844535 -0.0008378961 -0.00052623515 -0.001096326 -0.0015912659 0.0002805327 2.4448498e-05 0.0010197487 -0.000574288 -0.00069436524 0.00075083645 0.0009942908 0.00020702314 0.00011780796 0.00063872995 -0.0010784488 1.6104967e-05 0.00090248114 0.0007322455 0.0014028896 -0.0004953851 0.0014808774 0.00050879805 0.00057519623 0.0011427578 -2.3908588e-05 0.0013685306 -0.0015641417 -0.0012547831 -0.0011753174 -0.00043491038 0.0009139401 0.0001106605 -0.0005395367 0.0010787393 -0.001248337 -0.00019089373 -0.0003546689 -0.00055496424 -8.504421e-05 -0.0011771827 0.0006965227 -5.316159e-06 0.0012001151 -0.0014431683 -0.0009186473 0.0005832466 0.0012951988 -0.00014190318 -0.0012817099 -0.00032522526 0.0012844141 0.0016400341 0.00040731527 -0.0012548242 0.001006078 -0.0001172535 0.00096633873 0.00012943144 0.0014192361 0.0013214633 0.0011622398 -0.0015651059 -0.00020767082 -0.0013260312 0.0014834581 -0.00030303316 0.0015419838 0.0005013869 -0.0012697609 0.0013565059
搭 0.0016260109 0.0010800478 0.0015457091 0.00020907033 0.00086040446 0.0012575294 -7.773508e-05 -0.0011813155 -0.00023426466 -0.00011366858 0.00029400352 -0.0012756531 5.3268694e-05 -0.0016255135 -0.00015378586 0.001312161 -0.0007008054 0.0009892461 0.0016263345 0.0013731483 0.0015418442 -0.0013444554 0.0014466216 0.00033116742 -0.00044681723 -0.00095669477 -0.0007319858 -0.0007827079 -0.0012693155 0.0014486207 -0.00067412056 0.00035253895 -0.00068750203 0.0015470448 0.0009781101 -0.0006148919 -0.0011827872 0.0007040152 -0.0012392226 0.0014768156 -0.0013020246 -0.00040458288 0.0007721624 -0.0001211965 0.0004967606 7.046019e-05 0.001166152 0.0015749295 0.0007405621 -0.0003284059 -0.00023598973 0.0011344381 -0.0016528253 -0.00051285187 0.001611669 -0.0014508219 -0.0015650428 -0.00030670754 0.0006597407 -0.0012622991 -0.0014252072 -0.0002046851 -0.0013621761 0.0007929789 -0.0013152378 -0.0009884327 0.00028236886 0.001382565 -0.0010032345 0.0016485839 0.00039203433 0.00075757346 0.0015725741 0.00067488477 -0.00035425095 -0.0010883824 0.0006568617 0.00051569287 0.0011407005 -0.000563131 -0.0016620845 0.00022320749 -0.0013717763 -0.0007941551 0.00043470578 0.0008483353 -0.00010751706 -0.0015225228 0.0010455659 0.00091657415 0.0012994151 -0.0015323887 0.0009381467 0.001598732 8.158068e-05 0.0007409118 0.00084494095 0.00065814494 -0.0012257495 0.00076739583 -0.0011113456 -0.00060855417 -0.0015984799 -0.000971886 -0.0016588205 -0.0013149375 -0.00074535207 -0.0005719892 -0.0007550666 0.0006176824 -0.001018525 -7.930907e-05 0.00045530274 -0.00048589427 0.0012827502 8.467168e-05 0.0006494409 0.0002730911 0.0013682556 -0.0001552074 -0.0005619683 0.0014534324 0.0010460719 -0.00056203606 0.0003124371 -0.00013840533 -1.03295815e-05 -0.0007670714 0.0009787752 -0.00092428236 0.0005976953 0.00014165138 0.0012494158 -0.001485222 0.00048826178 0.0005540868 0.00028075202 0.001009139 0.0006514733 0.0008011909 -0.00016996278 0.0005631678 0.0016263891 -0.00037065754 -0.00013835312 -0.00046284817 -0.0008857962 0.0015306503 -0.00014834046 -0.00076819817 -0.0014419327 -0.00061577815 0.0002862447 -0.00016767335 0.0008206936 -0.0013378471 -0.0016310306 -0.0003188914 -0.00050346344 -0.001182571 -0.00025458206 -0.0016650235 -0.0015217504 0.001094031 0.0010230939 -0.0005984464 -0.0011475278 -0.0011400961 0.00074253476 -0.00017053164 -0.000441768 -0.0013427528 -0.0006513544 -0.0016264976 0.0014583006 -0.0010350773 0.00073576305 -0.0011629837 0.0003094222 0.00058224413 3.9568953e-05 -0.0010897515 0.00091190473 0.00070134987 0.0012828202 0.0011574782 0.0005429271 -0.00061043975 -0.0003115407 -0.0015213892 -0.0016197151 -0.001311839 0.000493111 0.000477373 0.0015979194 -0.0014925423 0.0012527843 0.0002679385 -0.00013742656 0.0013658269 0.0011248057 -0.00016503515 -0.0004074749 -0.00082783884 -0.0015289582 0.0013198252 -0.00027109403 -0.00082824664 0.0007439896 0.00041260777 0.00046706302 -0.00044092184 -0.00021474255 0.00069156557 -0.00087389187 0.0013219543 0.0010992634 -0.0010602 0.00026476636 0.0008404855 -0.0008003366 0.0013430958 -0.0014060739 -0.0009373572 -0.0013652409 0.00046541417 0.00021722748 -0.0014016504 0.0010785938 -0.0005015463 -0.0011581022 -0.0015249121 -0.0016190761 2.7453309e-05 0.0015667274 0.0014027195 -0.0007641734 0.001074482 -0.0016445827 -0.00082184124 -0.001193627 -0.00064684375 0.0006930907 -0.0006743453 -0.0013182346 -0.0005352171 0.0012896785 0.00011649215 -0.0010833719 -0.00090936763 0.001326008 0.0013549995 -0.0011558523 0.0005276964 -0.0010181926 -4.1646894e-05 0.000582583 0.00034365058 0.0014121218 0.0010441841 -0.00088437553 -0.000688422 8.285795e-05 -0.0016636465 0.0006750758 -0.00036758653 -0.00016349705 -0.00012923025 -0.0014272894 0.0014282081 -0.00048364967 -0.0012083452 0.00035511897 0.0006667895 -0.001295982 -0.00066447275 -0.00033175427 0.0007806719 -0.0014887931 0.00087990967 0.0014406554 0.0009094155 0.0011155091 -0.00062272017 0.0012107437 -0.00015957604 -0.0016585728 -0.0013931066 -0.0014020947 -0.0010544676 0.0013196737 -0.00044497757 -0.0008961591 -0.0015356085 0.0008152517 -0.0010825602 -0.0015724428 0.001493901 -0.00048915297 -0.000515165
福岡 -0.0008893253 0.001014131 -1.4474927e-05 -0.00032440657 0.00036179656 0.0014617855 -0.00079583493 0.0003826291 -0.0016257024 -0.0012605488 -0.0012483489 0.00019856603 0.0015132673 0.0013967635 -0.0011709557 0.0005793566 -0.0002778105 -0.00042753908 0.0011931622 -0.0015258045 0.0014346578 8.864112e-05 0.0009823787 7.4327705e-05 -0.0003587202 -7.230361e-05 0.00076273707 -0.0008139574 0.001208864 -0.00026118555 0.0006561974 -0.0015710202 -0.0001648814 -0.0010228482 -0.00084174535 0.00085063657 -0.00044912042 0.0009633804 0.0015509123 0.0016308514 -0.00095679454 0.0011558183 -0.00078976003 0.0006615643 -0.0015231299 0.00016890597 -0.00026867702 0.0011448856 0.0012857085 -0.0016029718 0.0008490824 9.831093e-05 0.00025812373 -0.0008582251 -0.0010807986 0.00044444524 0.0015677051 0.00028398438 -0.001052352 0.0006886703 -0.0015531479 0.0013660649 -0.0005012474 -0.00042405544 0.00018174364 0.00064728997 -0.0013375165 -0.00018854276 -0.00034467864 0.0015578842 0.00070893514 -0.00076998264 -0.00078038796 0.0010583166 0.0008533311 0.0007263962 -0.00030644794 0.0015777283 -0.0011997983 0.0013788174 0.00094145973 -0.0013002753 0.00084262283 0.0002539639 0.0015337105 -0.0016347439 -0.0010194525 -0.0005353065 0.0010045698 -0.0003907941 7.7333694e-05 0.0001759186 0.0005483441 0.0009226149 0.0013769862 -0.00060208887 0.00032889203 9.689443e-05 0.00017836317 -0.0013575252 -0.000612695 -0.0003691895 0.0011278923 -0.00014718577 -0.00097505026 0.0015372871 -0.0013790157 -0.00089633575 0.0011859634 -0.00043332228 -0.0009825262 2.1271007e-05 0.00021582641 -0.0005502863 -0.0015994327 -0.0013641764 -0.00017519646 -0.0008437861 -0.0003801525 0.0006352078 -0.0011496651 -0.0013466015 0.0011963537 -0.0002877327 -0.0013981644 -0.0006232357 0.0012834605 -0.0003842531 -0.0013318214 0.00070289586 -6.282992e-05 0.0004653771 -0.0001673926 0.0005135961 -0.0010267218 0.00083364395 -6.313452e-05 -0.0007148816 0.0012388044 -0.0007232859 -0.0015754481 0.0005284358 -0.0015535551 0.00027027042 -0.0014331447 0.00046658618 0.00047267726 0.0011384392 -0.00087570323 -0.0012623988 0.0012832582 -0.001321038 0.00075055746 -0.00057070266 -0.0013725286 0.001444444 -0.0010214875 0.00095360016 0.00029720325 -0.00022209786 0.0011418088 0.00094889966 0.00050177006 -0.00018487428 0.0013841222 -0.0006042105 -0.00041306292 0.0016515093 -0.000111300826 0.0010305729 -8.5678876e-05 -0.0004160967 0.00034074843 0.00025482714 0.00020573154 0.00027592125 0.00058257673 -0.0014829974 -0.0014565786 0.0016241365 -0.0010347115 -0.0008787367 0.0014154809 -2.268906e-05 0.00049100735 0.000997892 -0.00047377034 -0.00037222847 0.0016030887 -0.0013878943 0.0003959857 -0.00073122187 0.0015366864 0.0011172117 -0.00038539112 -0.0015711191 -0.0016633179 -0.0007764513 0.00095394114 -0.0016662144 -0.00018406002 -0.0009779832 0.0007142536 -0.00081485504 0.0014960333 0.0010204926 0.0012640423 -0.0002707065 0.00070079614 -6.189413e-05 -0.0009718852 -0.0004025328 -0.000119594784 -0.0015259292 -0.0011658925 0.00021861745 -0.0007731967 0.0005223004 -0.00015839956 0.0010067899 0.00011590217 -0.001273159 -0.00013534824 -0.0013895961 -0.00026260965 -0.0006643217 -0.0013258795 0.000564617 0.0010031211 0.00090465724 -0.0010048193 0.0014241994 -2.6102629e-05 0.001322954 0.00015560625 -0.0004979212 -0.0013168103 0.0015154262 -0.0006299674 -0.00012032887 -0.00018528102 -0.0008318719 0.0013809893 -0.0013698371 0.00072229287 -0.0014977775 0.0012068407 -0.00035029152 -0.0001307874 0.00013408296 -0.00093091035 0.0014667831 0.0015037025 0.0011336843 -0.0006243999 -0.0002464523 0.0013976339 0.0012622 0.000464962 -3.152067e-05 -0.0012958022 7.2955605e-05 0.00032351274 0.00016351242 0.0005537402 0.0015188993 0.0013155737 -0.0011352665 -0.001240843 6.8713365e-05 -0.0015479788 -0.0005379666 0.00048685732 -0.0012097837 -0.00024995036 0.0009964491 -0.00079384586 -3.318777e-05 -0.0003266883 -0.0007277022 0.0005531023 -0.00072883116 -0.0009455388 -0.00093276013 -0.0007582603 -9.5110336e-05 -0.00158911 -0.0006408194 -0.00040778285 0.0014528965 -0.0010519648 -0.0014356642 0.0003419867 0.0005338999 0.000988085 0.00041200034 -7.216727e-05 -9.886821e-06 -0.0004081263 -0.0010711349
出發 -0.0006705687 -9.368661e-05 -0.0005006786 -0.0014517029 0.0012135217 0.00027725744 0.00011838857 -0.00014490272 -0.00017763441 -0.0015890661 -0.0005762174 -0.0014854626 -0.00081495673 9.54798e-05 0.00040466158 0.0010905606 0.00013547085 -0.0016555758 -0.0012117808 -0.00036324703 -0.0014345126 -0.0001425066 -0.0016142217 0.00013879164 -0.00090895133 0.0016315455 -4.2373937e-05 0.0010369377 -0.00074319605 -0.0006254365 0.00033935736 -0.0011747007 -0.00061430805 2.6254927e-05 8.149197e-05 -0.00028788022 -0.0006881408 -0.0013488508 0.00023691465 0.0013705724 -0.0015818921 -0.0009063431 0.0008933187 0.00044846215 -0.0016181488 0.00046132438 -0.00020431753 -0.00071590784 -0.000104180945 -0.0016412386 0.00036240838 -0.00010561279 -0.0006876069 -0.0003319691 -0.00030375272 -0.0013083053 0.001507486 0.00023782482 0.0004302762 0.00091035553 -0.0010684112 -0.0011147594 -0.00042810227 0.00023536725 -0.000559037 -0.0011833368 0.00029022706 -0.0010724572 -0.0016075865 -0.0013693257 0.0014494465 0.0008052322 0.001194304 -0.0010850714 0.0015743366 0.00024067682 -0.001298897 -0.00059571763 0.00019365114 0.00090072135 0.0009545221 0.0005113322 0.00026637682 0.00092233164 -0.000110977184 0.0004717555 0.0011046776 -0.0011257676 -0.00043329623 0.0011458196 -0.00046787932 -0.0009480562 -0.0005654731 -3.2846333e-06 -0.00022520013 0.000106078034 -0.0007629214 0.0011586827 -0.0005077758 0.0013672132 0.0006014119 -2.112433e-05 -0.0003641314 0.00037346108 0.0015506733 0.00046330897 -0.0006491004 0.00027440058 -0.0015559241 -0.0012020398 0.00039736007 2.4146125e-06 0.0015488032 0.00025664637 0.0013215677 -0.00066025474 -0.0005845303 0.0015066197 0.0011114889 -0.0008854712 -0.00020677745 -0.0016284704 -8.591247e-05 0.0009546912 -0.001512719 0.0013707853 0.0009941984 -0.0002172204 0.0014704813 -0.0007487986 -0.0005392698 0.0014975612 -0.00046852347 0.0005463957 -0.00032712484 0.00031684162 0.00045247082 -0.0010093228 -0.00036646094 0.00017632346 0.00048313726 -0.00058259995 0.0003867384 -0.0008063045 -8.035764e-05 0.0010229625 0.001354656 -0.0011755627 0.0003321287 0.0008469586 0.00042005262 0.00025255943 -0.001000657 -0.0004642747 -6.934143e-05 -6.2139465e-05 0.0006802875 -0.0003591015 0.00010204619 0.00036400396 0.00074305525 0.0010247146 -0.00033073744 -0.00094160874 0.0015992065 -0.0005380019 -0.0009829344 -0.0009914923 0.00095075456 -0.00027433006 -0.0015626842 -0.0010705425 0.00015099629 0.00014569644 -0.0012519726 -0.0008681425 0.0011687325 0.0003303994 2.7033275e-05 -0.0009843663 0.0015300065 -0.0008920325 0.0007763969 0.00091015344 -0.0003521187 2.901529e-05 0.0014577892 0.0005133935 -0.0012310861 -0.0007933864 0.00091919553 -0.0015268077 -0.0008860919 0.0016222519 -0.0010416609 -0.0009838821 -0.00042852113 0.0014506341 -0.0001177793 -0.0015754409 0.001336207 0.0002823857 0.0007792725 0.0011101735 -0.0012958974 -0.00077284005 0.00015622725 0.00042637615 0.00021112063 0.001658272 -0.00088351616 0.00044356604 0.0005430105 -0.00019084502 0.00064804906 0.0010099212 -0.0009879897 -0.00079965184 0.0015805757 0.0004070683 -0.0014439314 0.0011340537 0.00061629515 -0.0005241942 -0.0010050245 -0.0008864602 0.0008924131 -0.0008813244 0.0012942664 -0.0013649946 -0.0014258252 0.0013854951 0.00096756493 9.454405e-05 -0.00033306624 -0.0001224527 -4.205821e-05 0.0013295063 -0.0002282691 0.0005840492 0.00028098558 -0.0013469716 0.00051969365 0.00047575936 -0.00094655505 0.00016246705 0.0016292759 0.0012664546 0.0009320083 -0.0006501257 0.0009737702 0.0011095633 -0.00089193735 -0.0008058182 -0.0011457627 0.00017043462 -0.0010475601 0.0005484629 -0.00022715947 -0.000156434 -3.2409313e-05 2.2969793e-05 0.0016236895 -0.0010735316 0.00085844414 -5.001541e-05 -0.00035613895 0.00019704369 -0.0011631643 0.0007560076 -0.0015644826 0.0011827688 -0.0009191457 0.0014274387 0.0009226722 -0.00079903693 0.0003315156 -2.9036437e-05 0.0012695689 0.0012808669 0.0007680894 -0.0002913231 -0.0005085365 -0.0010036898 0.00062053965 -0.0001361036 -0.00018216766 -0.0010972432 0.0015262308 0.0013280999 -0.00153845 -0.0010099941 0.0007818881 -0.0014823143 0.0013894457 -0.0010277857 -0.0010595714 0.00088970223 0.0014195398 -0.0005617553
車站 -0.00072873256 -0.00062373525 -0.00085268967 0.0007986901 0.000613214 -0.001108437 0.0012430111 0.001141637 -0.0011899679 -3.1885695e-05 -0.0010236993 -0.0009804894 -0.001098506 0.00047239827 -0.00038796963 0.0014476173 0.0016276994 -0.00090430526 -0.0012823474 0.00031447396 -0.00014349111 -0.0015470507 0.0014300747 0.00076373154 -0.00088171073 0.0003236008 0.0015673015 0.00037199832 -0.0016074595 -0.0007897236 0.00019389208 0.0006876136 -0.0013318878 0.0016096566 0.00079333695 0.0012455615 9.663709e-05 -0.0015025971 0.00040063067 -0.0016513708 -0.0015533451 -2.9324889e-05 -0.00050647947 -0.00018634164 -0.0014632312 0.0012902024 -0.0012139154 -0.00033819757 -0.000886685 -0.0014875078 -0.0013466121 -0.0009083997 4.4680397e-05 -0.00039072332 0.000103245475 -0.0008877277 -0.001169545 -0.001391932 0.0003582905 -0.0013719836 0.0013968602 -0.0013310185 0.0011306853 0.0009748952 -0.0009189338 -0.0004268386 -0.0016476224 -0.0014804632 0.0014856622 -0.00067930034 -0.00096874667 -0.0013462055 0.0011019727 0.0015845909 -0.00016988488 -0.0010538058 2.3488452e-05 -0.00073346234 -0.0007286897 -0.0015272357 0.001503418 0.00095963234 9.152494e-05 -0.0011226 -8.225881e-06 0.0011047001 0.0010062173 -0.0007635204 0.00044013883 -0.0016000457 0.00085624494 -0.0015039074 -0.00079823897 -0.00062493037 6.646741e-05 -0.0007943284 -0.0013922718 -0.0013444227 0.0005169407 -0.0007005376 0.0016617711 0.0010194399 0.001521377 -0.00043048794 0.00018264056 -0.0015755402 -0.0014554326 0.00012812384 5.199287e-06 -0.001666534 0.0014512934 -0.0004683117 -0.0012179675 -0.0002173804 -0.0016354867 -0.0007276509 -0.0015219796 -0.001233404 0.0016432732 -0.001312424 0.0011365366 0.00045089488 -0.0011180012 0.00013385426 0.0014321067 0.0008726146 -0.00023191902 -0.0004057338 -0.00016576661 0.00013949722 0.00039945476 -0.0012422954 -0.00024604597 -0.0011724033 0.0012001711 0.0010662669 -0.0010952905 -0.00034241556 -0.0012387354 -0.00034409828 0.00025970038 -0.00041520747 -0.0006553547 0.0005218443 0.0010385456 0.0009416897 -0.0015636877 0.0015586235 0.0015380386 0.00026421735 -0.000814332 -3.8297134e-05 -0.0011347735 -0.0015561925 -0.0011136709 -0.0013212616 0.0016584849 -0.00082262524 0.00015345027 0.0012207879 0.00051111507 0.00010028769 0.0011640808 -0.0015315821 -0.00097031466 -0.0015248007 -0.0004472139 -0.0002567739 0.0009750501 -0.0015847137 -0.0009330315 -0.0013178211 0.00062797515 0.0011315298 0.0009706151 -0.00081371615 0.0011750113 0.0013397901 4.674009e-05 -0.00062285503 0.0008678742 -0.00018009434 -0.00047980074 -0.0013520338 0.0010230925 0.0002529021 -0.0010542534 0.000975759 0.0008967789 -0.0015396668 -0.0008023142 -0.0009062417 -0.0012681567 0.0009208809 -0.0005716579 0.00064888794 0.00013542786 -0.00014303206 -0.001110785 0.0006522633 0.0006039584 0.0015142459 0.0007903077 -1.9412715e-05 -0.00072095357 0.0013794831 -0.00045973802 0.0007488575 -0.00019884757 -0.0005012023 -0.0009868332 -0.0009247956 0.00017983082 0.000104375154 0.00079474045 0.0011929317 0.0011381496 -3.086387e-06 0.00045608648 -0.00013316459 -0.0005063753 0.0014204711 0.0015582246 -0.00044160231 -0.0012552609 -0.0013376762 -0.0008861658 0.0004323181 -0.0015819627 0.001610733 0.00021140043 -0.00062086264 0.0007054479 -0.0013369292 -0.00043586237 0.00052190945 0.0016393 0.0006120801 -0.0011006915 0.0015232613 -0.0007999351 0.0010657609 -0.00093203457 0.00061498437 -0.001034397 -0.0006231044 0.00044941745 -0.0013215631 -9.768873e-05 -0.0013257954 -9.8881304e-05 0.00019274741 -3.794652e-05 0.0005559851 0.0012026066 0.0013928503 -0.0016138547 -0.00061158644 -0.001629065 -0.00017867141 -0.00077500584 -0.00061760226 -0.0012247785 -0.00015178448 0.0003233365 8.352184e-06 0.0014343519 -0.00017897201 0.0015220258 0.0013698328 0.001252777 -3.7217353e-05 -0.0008439904 0.0009014322 -0.0004025691 -0.000297103 0.0015358304 0.00075824576 -0.00081634114 0.0014074175 -8.3805666e-05 0.0013434165 -0.0011477813 0.0010842172 0.00026408664 7.65168e-05 -0.00095613423 -0.0006011516 0.0011788491 -0.00024052794 0.0010544569 0.0011745029 0.0008807278 -6.193185e-05 -0.0016604943 -0.00036589394 0.0009324525 -0.0009845898 -0.00029278971 -0.00065330765
Gran -0.0013539195 -0.0005529929 -0.0006785428 0.00038367062 0.0016505776 0.0013455752 -0.0013798875 0.0010313457 -0.0008324097 -0.00083783217 0.0013529283 0.0010932918 0.00047045294 5.7466335e-05 -0.000667346 -0.00035100427 -1.0005572e-05 -0.0006410337 -0.00057361316 0.00055586576 0.00039417954 -0.0014701731 -0.0015734691 -0.001083529 0.00069704343 0.00014604583 0.00025394937 -0.00016794611 0.0014116451 0.0012582522 -0.00072956755 0.0008355895 -0.00022185044 -0.0010979838 -0.0011071314 0.0016015677 -0.0016601668 0.0011733593 0.0009420623 -0.001467825 -0.00043603926 0.00022569472 -0.00052169204 -0.0007218151 -0.00019771772 0.0005342351 -0.0012895521 -0.0015728432 0.0012765127 -0.0014858006 0.00094822573 0.0008849864 8.966079e-05 0.0008296446 -0.0014136725 -0.000610756 -0.001396387 0.0011663128 0.0015487553 0.0015909385 -0.001168298 0.00013298802 -0.000704236 -0.0011947515 -0.001319434 -7.438124e-05 -0.0007989217 0.0005925963 0.0010954636 0.00012119331 -0.0006277458 -0.0012785163 7.40326e-05 0.0012059354 0.00020629884 0.0010219095 -0.0013744773 -0.00081564195 -0.0011347187 0.0012927583 0.0003862533 5.564059e-05 -0.0011324096 -5.9094935e-05 -0.0010321639 0.001079594 0.00073727703 0.0011004345 0.0009475255 0.0004567632 -0.0009517571 -0.0005654283 0.00049552193 -0.0011211574 -2.1391854e-05 0.0010245296 -0.001003689 -0.0014233025 -0.000480253 0.00013181764 0.0013484795 -0.0015282236 -0.0008760614 0.0011997398 -0.00062058936 -0.00025048596 -0.0008255331 0.0015224508 -0.00034291216 0.0005367111 0.0009364381 -0.000891637 0.0013123368 0.0013596743 0.0005662067 0.00078651396 -0.0015717408 0.00048752807 -0.0012101915 -0.0013146044 -0.00091912143 -0.0011257994 0.0015739873 -0.001259061 -0.0012182225 -0.0011322399 0.0015024455 -0.0011871097 -6.1302395e-05 -0.0007185553 0.0013180502 -0.00083855196 0.00015280335 0.0014052575 4.7676498e-05 -0.001016102 0.00021854605 0.00010090918 6.2930226e-06 -0.00038169874 0.0015882578 -0.0015179042 -0.00080721336 -0.0012034151 0.0012747529 -0.0009414536 0.0014554713 0.0011276313 -0.00038860706 0.0014815575 0.0012944404 0.0005353436 0.001458634 -0.0008394536 0.0009055612 -0.00045264675 -0.0004903989 -0.0007544337 0.0009133987 -0.0012215258 -0.0005325672 0.00034185735 0.0002156711 -0.00013659036 -0.0013680219 0.0004497633 0.0006547388 -0.0015006524 -0.0005494868 -0.0013183103 0.0014234104 0.00012301825 -8.803489e-05 0.0010507645 -0.00012244166 0.00055499125 -4.9284445e-05 -0.00087435154 0.0014721182 0.0006106029 0.0012839558 0.00070483156 0.0013489693 0.0005846456 -0.0010878568 -0.0011758828 0.0013229824 -0.00012773102 0.0008320414 -0.0008399236 0.00069525297 0.0014459316 2.7555567e-05 0.0010816265 0.0013752878 0.0012627185 0.0015013288 -0.000814657 0.001201633 0.0015642244 -0.0004790927 -0.0007527531 -0.0010831316 -0.0006688864 -0.00035087953 0.0014561528 -0.0007061404 -0.0015266228 0.0014792681 0.0013981436 0.0007943913 -0.00041963466 0.0013044623 0.0006750127 -7.1956136e-05 0.000425639 -0.00019737346 -0.00011694279 -0.0010092317 0.0007372217 0.00044479792 -0.0006917712 -0.00071321987 -0.0014525767 -0.0014072331 0.0004765586 0.0009972972 -0.0012727194 0.0007894652 -0.00017381483 0.00075154647 -0.00025065758 0.00023107753 -0.0012274686 -0.0008330103 -0.00029263253 -0.00047531267 -0.00078993314 0.0015406865 0.0004228254 0.0013422142 0.0016186611 -0.0011268492 0.00019461809 -1.1760162e-05 -0.0011380621 0.0014973932 0.00073422433 -0.0009146002 0.0011868585 -0.0009170132 -0.00029608118 0.0008058816 -0.00024004 0.00012009545 0.0012910671 0.00097010913 -0.00015434263 -0.00085432385 -0.00030059958 0.0013969433 0.0011228918 -0.0008829663 0.0008714261 0.0014600857 -0.001012748 -0.0014784456 0.0013438704 0.0001349114 0.00080776046 -1.6215791e-06 0.0009246213 -0.00045496225 0.00057486334 -0.00018690749 0.00012477353 -0.00069534936 -0.00032086583 0.0007467579 -0.0015987089 -0.00047045216 -0.0012811576 -0.00016950104 -0.0016083978 0.0010758202 0.0015349238 0.0011358965 -0.0004177629 0.0016079232 -0.0015716938 -0.0014197358 -0.00066986575 -0.00035507116 0.0015167545 0.00081993797 -0.0005464088 0.00016382919 -0.0015342338 0.000100192054 -0.00019899961
好 -0.000425631 0.0016299102 0.000105698105 -0.0005138903 0.0006327967 4.699695e-05 -0.0008633008 -0.00032059106 0.0015350839 0.000793962 0.0013390987 -0.00039803432 -0.0015115609 0.0013832592 0.00091286737 -0.001409049 -0.00082124566 -0.0005655205 0.00032674006 -0.0011431784 0.0007984703 -0.00024274361 -2.4091582e-05 -0.0007906673 -0.0006434494 -0.00090173224 -0.001588863 -0.0007893636 0.0012648747 0.0011234839 -0.0009581319 -0.001245532 -0.00038288132 -0.0015437836 -2.218906e-05 -0.0015219992 -0.0005542357 -0.0010632778 0.000168639 -0.00089272636 -0.00061954546 0.0013948787 0.00044075327 -0.001476311 -0.0011362435 3.1590804e-05 -0.000816229 0.0013638703 0.0013094496 0.0008614994 0.0005127158 0.0013800573 -0.0015244507 0.0009444451 0.0010460336 0.0010919174 -0.00058782997 -0.00012847672 -0.0016398557 -0.00022562854 -0.0016142046 0.001085565 0.00059412705 0.00045418253 -0.0011378896 -0.00024311358 0.00019961821 -0.0013439996 0.00041715777 -0.00094663055 0.0005341118 0.0015587722 0.00088628405 -0.00060822535 0.00054229156 -0.0008119214 8.552226e-05 -0.00075039745 -0.0015111318 0.0015522568 -0.00053937733 0.0006323647 0.0016012051 0.0005949376 0.00044835423 -0.0010076695 0.0009252966 -0.0009700197 0.00079462404 -0.0011473236 0.00037453687 -0.00072261266 0.0001546548 -0.0011728801 0.0008748398 -0.00019292353 0.0015352359 -0.00082911836 -0.0007816774 0.00083516986 -0.0015033123 -0.0010821638 0.0015244368 0.0008644865 0.00062048045 -0.0015639871 -0.001345791 -0.0009967284 0.0015028887 -0.00163615 -0.0013887291 -0.0011112946 0.00067439774 -0.0014413972 0.0013187154 -0.0012260253 0.00022623088 -0.00089646917 -3.2827575e-05 -0.0013209761 -0.00018600954 0.001282049 -0.0015618626 0.0013451958 0.00047330753 0.0010775616 -6.0257098e-05 0.0015612601 0.0015097205 -0.0014171612 0.00078856153 0.0005313401 0.0011668509 -0.001551203 0.0011659797 -0.0013887027 0.0010068003 -0.00038316438 -0.00015325812 0.00042010486 -0.0014111217 -0.0014134943 -0.0010640066 -0.0003235373 -0.0014050467 -0.0013828003 -0.0004638953 0.00010746929 0.0005063151 0.00033906085 0.0011608616 0.00073163124 3.539237e-05 -0.0014371002 0.0005054998 -3.6113066e-05 -0.0008781523 -0.0002870576 -0.0012857125 -0.0011595517 -0.00013187843 0.00016984381 0.00051891623 -0.0012437804 -0.0015931354 0.0002219895 -0.00022146755 0.0003917851 0.0007600429 -0.00038534676 -0.0006289798 0.00039615386 -0.00016230695 0.00081766146 -0.00064045825 0.0014709623 -0.00022827537 0.0011572035 0.00045453696 0.0015228894 -0.0010257261 -0.0016195539 0.0008197063 0.00031178995 -0.00034243966 -0.0003667122 0.0007516423 0.0014881304 0.0005898403 0.0006103837 -0.0012825727 -0.0014101162 -0.0005612997 6.3316475e-05 2.3114912e-05 0.00026694586 7.564384e-05 -0.0012450498 0.0001982447 -0.0016086102 -0.0010952652 -0.0009964288 0.00055463123 0.00035111886 0.00089772674 0.0011620909 0.0011339682 0.0006046496 -0.0010226545 0.00072094897 0.0005463 -0.0008896292 0.00019970568 0.0016255558 -0.000120164 0.0013791908 0.00036174036 -2.6797636e-05 0.0005529651 0.0005076246 -6.5396475e-06 -0.00088881527 0.001428221 -0.00017644442 -0.0004001786 0.0008517248 -0.00072765874 0.0003549712 -0.00012373191 0.0014710757 -0.0012971316 0.000247087 0.0007616818 0.0011729267 -0.0015073259 -7.012968e-05 0.0005460124 0.0011089005 -0.0010559949 -0.0004805642 0.00016043187 0.00028613355 -0.0006661061 -0.0005342301 0.00057535514 0.00056564296 -0.0012674748 -0.00050248206 -0.00027310388 -0.0016004595 -0.0014796123 0.0015860783 0.0012901429 0.00014567848 -0.0005077215 -0.00021034713 0.0010285489 0.0009929845 0.00028761968 -0.00084842014 -0.00092522387 0.00091798935 0.00018562685 0.00064805645 -0.00082829903 -0.0005912438 8.585333e-05 -0.0014845893 -0.0010339227 -0.00039616396 -0.00039942717 0.0001221301 0.0003364178 0.0006237681 0.0004631173 -0.0010091187 0.001413921 -0.00055799197 0.0014245937 -7.6190256e-05 0.000911548 -0.0011079705 -0.00014503965 -0.0016027113 -0.00092686637 0.0011913475 -0.0007340946 -0.0005844257 -0.00083009433 -0.00056933565 -0.0005140419 0.00089150557 -0.0013950816 0.001554198 -0.0011736444 -0.001281876 -0.0009223339 0.0011713138 0.00022811453 0.0013530628
人 -0.00078830763 0.0008447501 0.00033882484 -0.0012940478 0.0009785851 -0.00022546481 -0.0016475596 0.001399494 0.0012109204 0.00030804658 0.00039595726 0.0010513125 -6.0784474e-05 0.0011216938 -0.0008658528 -0.0012878082 -0.0014136294 0.0014494419 -0.0007274971 -0.0015667843 0.00020066151 -3.9615006e-05 0.000114087336 -0.0008933683 0.0011439433 0.0010128373 0.0007648312 -0.00065174326 -0.0002903112 0.000909933 -0.0013783966 0.00073093385 -0.0005450028 -0.00025546437 0.0006117884 0.0009178517 0.0005012818 0.00088779174 -0.0002792583 -0.00103048 -5.619974e-05 0.0014318582 -0.0005897473 0.000988015 -0.00067102397 0.0010373169 -0.00020774058 -5.82443e-05 -0.00064772204 -0.0013568132 -0.0006129435 0.00047412005 -0.0011721443 0.0016296179 -0.0012098436 0.00025771232 -0.00050416595 -0.00014079784 0.00088964193 -0.0009956664 0.0009967576 0.0013964276 0.00053859415 2.1414979e-05 0.0004999043 6.759419e-05 -0.0014775863 0.00075714715 1.2182112e-05 -0.001243518 0.0014056175 -0.0011297469 0.0014869774 0.00039700128 0.00010612523 -0.0014361091 0.00019210279 -0.00019008879 0.001553679 0.00062610593 -0.00070523715 -0.00089081284 -3.223072e-05 0.0003320161 0.0011840558 -0.00035299145 -0.0013748195 -0.00038288484 -0.0011592248 -0.0006900981 0.0006789223 -0.0011474655 -0.00074417633 0.00013429907 -0.00019482155 -0.0008645822 0.0013968229 -0.0011644934 0.0005706842 0.0011340088 0.0015500804 -0.0014258903 -0.0008767483 0.000657365 0.00033752233 -2.7848162e-05 -0.00058542145 0.00013150109 0.0004028641 -0.0007116384 -0.00022170453 -0.0010451981 0.0010661014 -0.0013992159 -0.0005872361 -0.00070353964 -0.0009941617 0.0013854532 -0.0012617181 -0.00096740737 0.0006961583 5.60362e-06 0.00092166394 -0.0013962021 -0.0016174073 -0.00019598751 0.0005680008 0.0002610363 0.0008491219 0.0013718242 -0.001035117 -0.0011483403 0.00014163187 -0.0001689219 -0.0013450789 0.0016430775 -0.001653683 -0.0006291065 4.7000296e-05 0.0011125121 -0.000101166515 -0.00062563043 -0.00084564753 -0.00070022844 -0.00040304486 4.0898456e-05 -0.00030231292 0.00018220073 0.00043840113 0.00030603653 -0.0006263866 0.0012992055 -1.2565728e-05 -0.00021942942 -0.00068337587 0.0011402351 0.00023063296 -0.00059132866 4.6458605e-05 0.0011232407 -0.00010397298 0.0010235923 -0.00085997215 0.0014611154 -0.0014031922 -0.00036909073 -0.00039223317 -0.0014241209 0.001460813 -0.0007574103 -0.00077793485 0.0016018554 0.0013321466 -0.00079614006 -0.00043274052 3.5567726e-05 0.0014954953 0.00095447985 -0.00063955615 0.00081285305 0.0006262689 -0.00025021165 0.0015139359 -8.379776e-06 0.0015094929 -0.00093013106 0.0015472381 -0.00096377434 -0.0013779715 0.0014762826 0.00029954966 -0.00058086 0.001530415 -0.00032065273 0.0010476257 -0.0005346144 -0.0007322482 0.0009182256 0.0012200059 -0.00050638604 -0.001573758 -0.0007596284 0.00078274246 0.0006759372 0.00028828232 0.0015494905 -2.00644e-05 0.0006753794 0.0002762059 -0.00012903094 -0.0012522365 -0.0006031167 -0.0001927189 -8.581349e-05 -0.00165891 0.0011888414 -0.00015612824 0.00078782265 -0.0011409078 -0.0004890459 -0.001271171 0.00091195235 -0.00032969142 -0.0012455154 0.0009933636 6.003392e-05 0.00081329735 -0.0006228174 0.00071072596 -0.0015271679 -0.0016231195 -0.00081908936 -0.0007054705 -0.00015222056 -0.0010585391 0.00063642557 -0.00061317114 -0.00082408485 0.0014933506 -0.0012840537 0.00041327436 -0.00017438283 -0.00019077754 -0.0016606633 -0.001251053 -0.00055021956 0.001466424 -0.00051097176 0.0004130064 0.0010975276 0.0016458891 -0.0015872458 -0.0006851168 -0.00039353032 -0.00084137754 -0.00047496607 -0.001430378 -0.0015346402 0.0016126237 1.3744862e-05 0.00023024532 -0.0015330719 0.00013757918 -0.00057911396 -0.00050285674 0.0010793947 -0.0012703473 0.0003083332 -0.00044526992 0.00020158233 0.0010468649 0.0010594362 0.0007841073 0.00036252907 0.00018625722 -0.00015134648 -0.0011524323 -0.0012618054 0.0014551027 0.0014048151 -0.0016265959 -0.00063965627 7.7396886e-05 -0.00018726356 -0.000521515 -0.0015785856 -0.0015478821 -0.0011800613 -0.0015531724 0.00073278666 1.5187378e-05 5.7520996e-05 0.001007497 0.00086945563 -0.0012742447 0.0015482338 -0.00062878884 0.0012589454 -0.0010587751 -0.001103053
系 -0.0009627813 0.00071822864 0.00053520815 0.0013669278 -9.2569484e-05 0.0003483253 0.0010201315 -0.000106960586 0.0015398177 0.00042416202 0.0009109424 0.0016055375 -0.0005609014 -0.0008475626 -0.0015717405 -0.0005530824 0.00045006984 0.0008808355 0.00053319667 0.00089863496 -0.0014296502 0.0011649069 -0.00040708433 -0.00073957385 -0.0008842215 0.0004600988 -0.0007971257 -0.0012788202 0.00083328545 -0.00053659495 0.00065973506 -0.00043024667 -0.0016076018 0.0005249096 0.0014972892 -0.00016218271 0.0005148187 0.0009309694 -0.0009826252 0.0007811073 -0.0012937688 -0.0013130312 0.0010097829 0.00092606654 0.000490582 -0.00074515096 0.0008811867 0.0016409381 -0.0014535501 1.1149267e-05 0.0011840855 -0.0006779985 -0.0012883642 -0.0013507928 -0.0015485451 -0.0009661635 0.0015396922 -0.0016255379 0.0006220332 -0.0011084925 -0.0011195337 -0.0010355951 0.00028255046 0.00085045747 -0.00017103451 -0.00053410284 -0.0014731339 0.0014281124 0.0002471816 -0.00065556343 -0.00043900995 -0.0005987991 0.00017498835 0.0014294232 0.0015367852 0.00026273195 0.00031113139 -0.0014870055 0.0014972972 0.0006195575 -0.0010439169 0.0005773787 -0.000382988 0.0015438364 -0.0012669377 0.000541102 0.00036499946 0.00031142574 0.0015935652 -0.0011370012 -9.062003e-05 -0.0012654512 -0.00092968176 -0.00014023134 0.0004930708 -0.00033794425 0.0013838292 0.0009243998 0.0014485519 0.00049036375 -0.0012527284 0.001154114 -0.0005889167 0.00017819185 0.00012415793 0.00080078386 8.484481e-05 -8.62486e-05 0.0013842103 0.0004965606 0.0014156781 -0.0013716436 0.000563118 0.0003790649 0.0008432136 2.2976932e-05 0.0012945418 -0.0010745458 0.0013485355 -0.0012527815 -0.0008495269 -0.00017772478 0.00034545094 -0.00079920446 0.000116160314 -0.00098279 -0.00090640667 9.200313e-05 0.00087380956 -0.0009658939 0.0014504676 0.00012978548 -0.0014392356 0.0014568341 0.0016255444 0.00043694276 0.00022748878 0.0002492762 -0.0016455997 -0.00062616955 -0.0014017838 -0.0010505911 -0.00024742575 0.0005851469 -0.000514219 -0.00076720933 0.0008444526 0.0010633277 0.001287286 -0.0012729988 0.0011565812 -0.00096096506 0.00038625204 0.00026994658 -0.001343037 0.0010841058 0.001156531 -0.00013825008 -3.8884937e-05 -1.6472828e-05 0.00068571884 -3.415328e-05 0.0015099896 -0.0006632296 -0.0011528664 0.0016512348 5.0093626e-05 0.0014099033 -0.0015476469 0.001428866 0.0007642173 0.0005610854 -0.00015220723 0.001123228 0.0010382181 0.00019277 -0.0010638298 0.0012493996 0.00057247863 0.00024200419 0.00068362645 0.0008935314 -0.0011932983 4.1874908e-05 0.0001494239 -0.00015727831 -0.001092749 -1.7921626e-05 -0.0008435871 0.0003077312 -0.0016563153 0.00012712776 0.001537721 0.00107996 0.0015813402 0.0007302936 -0.0011541538 0.00024702496 0.00023653336 0.001439671 0.00018564671 0.0014546665 -0.0007965145 -0.00014272846 0.0015582539 -0.00166058 -0.0016511686 0.0014489106 0.0016570087 -0.0006555592 0.0015247092 0.0012753332 0.00056121673 0.00067883043 0.0015035502 -0.000833862 0.00036637232 -0.0004860461 0.00023534561 -0.0010240916 -0.0016443173 -0.0009456349 -0.0011115025 -0.000525609 0.00073356804 -0.0014983866 -0.0015881871 0.0012878056 0.00051082624 -0.0012496008 -0.0008724995 -0.0009807755 0.00067512254 0.00055071554 -0.00088576344 0.00055140187 5.629508e-05 -0.0010959867 -0.0014037382 0.0015190659 -0.00013877513 -0.0011115349 0.00093429815 0.00058735604 0.0015963307 -0.0010042451 0.000113363596 -0.0016360024 -0.0006443311 0.0013316358 0.00057221454 0.001114736 -0.0012895814 0.0014585862 0.0014956032 -0.0011872337 -0.0016365128 -0.00017482686 -0.0015433622 -0.00010851922 -0.00029206695 0.000114381335 0.0011310647 0.0002627677 0.0016129873 -0.00031786112 0.00029545935 -0.00093834975 -0.00075027946 0.00041005525 0.00030086888 -0.0012111263 0.00075998757 -0.0001936696 0.0014803726 0.0009188028 0.00040024967 0.00043264177 -0.0008352328 0.00017162612 0.0014249376 0.0011986254 0.0010331271 0.0015928383 1.0667181e-05 0.0011785494 -0.0005081827 0.0009177747 0.0011935347 0.0011766824 -0.0014138286 0.0013784892 -0.0011197407 0.0014841198 0.000483329 0.0010135868 0.000357583 0.000750223 0.00094991113 -0.0005935252
綠色 0.0005498162 -0.0001793239 0.0008110428 -0.0011368551 0.0005737612 0.00030285446 0.00071791967 -0.0010590997 6.9760164e-05 -0.001190708 -0.00031878927 -0.0004160934 -2.6799376e-05 -0.0015589031 0.0011799745 0.0008094217 0.00062084955 -0.0015444661 0.0011226867 0.00015659664 -0.0007443321 -0.0008013326 -0.0010646713 0.00038735894 0.0001502116 0.0015935687 0.0014479517 0.0006924811 5.6638724e-05 0.0015762497 -0.0009867364 -0.00095697184 0.00079458544 0.00052395614 -0.0007019045 -0.00076944544 0.0012125905 -0.0012144959 0.00051122095 0.0008595693 0.00035211744 -0.0016454989 0.00017956775 0.0015038619 -0.0008418242 -0.0015517552 0.0007095726 0.0013839164 0.00034408868 0.00038163722 0.0013178259 0.0009541618 0.0008542179 0.00066001 -2.0560808e-05 -0.0006401387 -0.00023874841 -0.00033362675 0.0008049894 -0.0010088115 -0.0012680538 0.00042189562 -0.0004789891 -0.0012287984 0.00066802645 -0.0013333893 0.00041834766 0.00045132736 -0.0008068932 -0.000576805 -0.00023266331 -0.001405529 0.00058868824 -0.0009761329 0.0009670085 0.0014754802 0.0010577845 -0.0014137102 -0.0009518519 -0.0013558174 -0.00065141235 -0.001340292 -0.0013645508 -0.00087423023 7.8675774e-05 -0.0004532759 -0.00029655758 -0.0015011856 0.0016167306 -0.0008270448 0.0015184627 -0.0006965783 -0.0009720194 0.0007868985 0.00017371221 0.0010119465 0.0009688028 9.095043e-05 0.001091752 0.0012756224 -0.0016611499 -0.0008152249 -0.0005089564 -0.0010163961 -0.0015871453 -0.001659113 -0.001630278 0.0009832848 -0.0014155344 -0.0008200376 -0.00014467833 0.000562409 -0.0008370153 -0.0012007463 7.476352e-05 -0.0012050655 0.0010349394 -0.0013207042 0.001581276 -0.0002487062 0.0005107654 0.00010390477 -0.00014035201 -0.0012234645 -0.00052364974 0.0003688068 -0.0015252113 -0.0009795814 -0.0007695062 0.0009661481 -0.0014926597 0.00036955398 0.00095215265 -0.00093732297 -3.808773e-05 0.0006748875 0.00090602826 0.0011743774 -0.00020153122 0.00011711772 -0.0005034313 0.00059359573 -0.0013905426 3.5008437e-05 -0.0005939961 -0.0015880789 0.00018621836 0.00036486884 -0.0011507871 0.0015609465 0.0010308368 -0.00045174157 -0.0010289787 -0.0013972194 0.0005639325 0.0008221051 0.0007372859 0.0014999972 -0.0006582085 0.00033488518 -0.00047754345 -0.0005691893 -0.00033227136 -0.00021778858 -0.00021874555 -0.0013224477 0.0011264513 0.0013225387 -6.119468e-05 0.0009715657 0.0011690458 0.0011984741 -0.0008268804 0.0012708555 -0.0013312639 0.00092965097 0.0015689929 -0.00038861448 0.00014839495 -0.0014796052 0.0010261248 -0.0002611508 -0.0009988891 0.0014716202 0.0014459819 0.00035472887 -0.0010725869 -0.0013099883 1.1779482e-05 0.0007133063 0.0014152081 -0.00038709168 0.001475059 -0.00045991005 0.00045060544 0.0015119193 -0.0012024739 0.001596047 0.0012880679 0.00057727704 -0.0009835328 -0.00077212835 0.00018275091 -0.001187781 -0.0015236313 0.0012106458 -0.0011976952 -0.000103388214 -0.0010104857 -0.0013288787 0.0009156768 0.0010304919 0.00012009819 -0.0013352127 0.00013406973 0.0003645019 -0.00017282461 0.0012367875 0.0005017883 -0.0009239722 -0.00015172263 -7.31411e-05 0.0015203609 -0.00120686 0.001111233 0.0011732933 -0.0012160018 -0.00040490582 -0.0005379383 0.00080842286 0.0005943678 -0.0012163775 -0.0009165872 0.0014211516 -0.0004986485 -0.00092271145 0.0005287553 0.0005457724 0.0012621266 0.00028488465 0.0005611521 0.00010054044 0.00074705324 -0.0015338005 -0.0006044384 -0.0016603841 -0.0014720078 2.892392e-05 0.00021226502 0.00131194 0.0006974201 -0.00032316253 0.0015235675 -0.0013656098 -0.00055025186 -0.0014955685 -0.00030256915 -0.0007774752 -0.00063413684 -0.00059168704 0.0014543239 -0.00067850837 0.00046775228 0.0010800877 -0.00053379725 0.0006607252 -0.00059468666 0.0008462506 0.00041927476 -0.00044645113 -0.0015788625 -0.00091382186 -0.00013037717 0.0012843775 0.0009555754 0.0009949832 -0.0013187135 -0.001509471 0.0005376325 -0.00079504633 -0.0008291667 -0.00059384597 0.0012718859 0.0009438231 -0.0014681057 -0.00030194107 7.3939256e-05 0.00014570075 -9.7089185e-05 -0.0011902116 -0.00015323126 0.001007902 0.00093260297 0.00012915781 -0.0012757371 0.0006013082 0.0013845278 -0.00033893247 -0.00054622575 0.00162895
想 0.0016624503 -0.0005721828 0.00016568821 -0.0008052568 7.118874e-05 -0.0002089191 -0.0006016921 0.00073512597 -0.0012650568 -0.0002465431 0.00095887383 0.00022795208 0.0010113651 -0.00040438143 -0.0012200061 -0.00034393734 0.0013968869 -0.0010866842 0.0009300984 -0.0004075095 0.0012640902 -8.9485045e-05 -0.0012315593 -5.067186e-05 0.00107282 -0.000120592274 0.0011510266 0.00017688471 -0.00036938314 0.0013829318 0.0010786825 0.00015337665 -0.0011726622 -0.00032918822 -0.00095154194 0.0013309423 -6.653696e-05 0.00022070351 -0.0006050187 -0.0013972763 0.00087098195 0.0015214462 -0.0013000203 0.0012121428 -0.00072951784 0.00035305688 -0.00017409722 -0.0002510909 5.9978367e-05 0.0007440299 0.0013979074 8.782303e-05 0.0003647361 -0.0014454378 0.0013830109 0.0006668249 0.001274614 -0.00053061446 -0.0012314486 -0.0010227244 -0.0013301105 -0.000752796 0.0006460754 -0.0006963743 0.0014514128 -0.0011903578 0.00048258822 -0.0006328854 -0.0016140711 -0.0015756319 -0.0014513572 0.00087906764 0.00043168836 0.0008431092 0.0014894898 0.00023327435 3.596199e-05 0.0007606741 0.0015463503 -0.00069145096 0.00022671671 0.0007382733 0.000987801 0.0015525782 -0.00082178914 -0.0008328347 0.0007411071 0.0014673388 -0.0012300693 0.00044008016 0.001396055 -0.0014586025 0.001007752 -0.0014991766 0.00090393936 -0.0002042305 -0.0014929587 0.000259979 -0.0016553949 0.00059003616 -0.0005227029 -0.0007161426 0.0014976274 -0.0014783632 0.00022316539 0.0011825059 0.0007564355 0.00082589325 0.001428584 0.00074175285 -0.0007035722 -0.0011872641 0.00077418354 0.00042582166 0.0007766454 -0.00063710054 3.9037463e-05 7.288089e-05 -0.001267514 0.00028142228 -0.0012778887 0.0012510037 0.0012006827 0.0010447055 0.0015613844 0.0010614524 -0.00067751395 -0.0012690609 6.874576e-06 0.001393779 0.0008653989 -0.0013695993 -0.00049348315 0.0014531356 -0.0006187721 0.0015680562 -0.00019265142 0.0016446165 -0.0010977235 0.001397311 -0.00043030156 -0.00043166688 -0.00073716225 -0.0012271449 -0.0001889561 -0.00039448714 -0.0005472434 -0.00054046226 0.0011443726 0.0015341406 -0.0011483557 0.0013251739 0.000294062 -0.00020993933 -0.0014270012 0.0011496065 -0.0014726091 0.00018327418 0.0011209338 0.0008699652 -0.00023155771 0.0005027066 0.0013786214 0.00038763022 0.0015753913 -0.00048134904 0.0006588274 -0.0014046687 -0.00015953336 -0.00073552335 9.042097e-05 -0.00025439032 0.00015370287 -0.0014112818 0.0014769782 -0.00056775764 0.00096067117 1.0425361e-05 -0.0011907297 -0.00020376123 -0.0011317973 -0.0001415828 -0.00057218666 -0.0005880614 -0.00078006356 0.00013456216 -0.00021857522 -0.00029051118 -0.0016173549 0.0006710893 -0.001296454 -0.0015109844 -0.0006424525 0.0009056068 0.0005408054 0.00014634649 0.0011900916 -0.001478108 -0.0006772074 -0.0014858894 -0.0011187203 -0.0015597915 0.0012065152 0.00032832782 0.0007984349 0.00046246508 -0.0015594626 0.0009025495 0.00035394917 -0.00018362151 -0.00019286065 0.0015975094 -0.0010783317 0.001045759 0.00094666536 0.0008408065 -0.00065842655 0.0014369217 0.0009527508 0.0013218581 -0.001208678 0.00068190333 -0.0005780244 0.0003072645 -0.0006610481 -0.00058244047 0.0013108109 6.99253e-05 -0.00028959056 -0.0016050012 -0.00018060955 -0.0004059875 0.0011134659 0.0004390371 -0.0004483496 0.0003747113 3.0337296e-05 0.0007306949 0.00015275882 0.0014188983 0.0011292679 -0.00043141347 -0.000106739775 -0.00022666343 0.0009940465 0.0004126202 0.0006344131 -0.0011139227 0.0008574032 0.0004217522 4.2543383e-05 -0.00075958 -0.00011197116 0.00026867213 0.00085907616 -0.001608266 0.0014357502 0.0013017991 0.00041618454 -0.0013059324 -0.00095726864 3.6744626e-05 0.00029486208 -0.0010925254 0.001239185 -0.0016257691 0.000879073 1.6622722e-05 8.268185e-05 2.5211371e-05 -0.00036168483 -0.00060844916 -0.0013232707 0.0008973917 0.0006551899 -0.0009136 -0.0009061878 0.00030228673 -0.00019360661 -0.0015008781 0.0010495153 0.0012579106 0.00034408335 0.0009713261 -0.00088928384 -0.0010653565 -0.00045884214 -0.00059257465 0.0015410295 -0.0010086617 0.0006061324 -0.0012480253 0.0016326424 0.0006058894 -0.00086447346 -0.0011382888 -0.0010040744 0.00032897556 -0.00069428975 -0.00051005057
放 -0.0007819056 0.000813888 -0.0010699136 0.0007371061 0.0002956236 0.0007568293 -0.001588237 -0.001521497 -0.00066705653 0.0006533291 0.001009886 -0.00021274431 -0.00050797337 0.00043696907 0.0012819694 -0.00010871497 -1.1748026e-05 0.00052727596 0.0010328589 -0.00078744214 -0.0015293595 0.0011516447 -0.0006794324 0.0011078983 0.0015534315 0.0005853212 0.00028253856 -0.0014908949 0.0007876356 -0.0010009634 0.0008224508 0.0016507935 -0.00010882784 -0.0014233455 -0.0005822188 -0.001214282 -0.0008753739 0.00029375314 -0.00046622966 -0.0013868755 -0.00046597476 0.0002517119 0.0015881716 0.0013920193 -0.0011678636 -0.00084298046 0.00018369938 0.000507555 -0.0009680645 -0.00070987735 0.00127339 0.0014349363 0.0011914686 -0.0010135216 0.0015075619 -0.0005337378 0.0003392883 -0.00014894997 0.00041031596 0.00072050025 -0.00032809493 0.001504962 -0.0012884028 -0.0013771111 -0.0008470868 -0.0007841599 0.000802265 0.000577781 0.0014393847 -0.0014931713 -0.0012837935 0.0010379059 0.00037764583 0.00042670136 -0.0003121588 0.0012933617 -0.0015455659 -0.001349179 -0.00050962006 0.00093849306 -0.0012698214 -0.0011824756 -0.0015768132 -0.0009748065 -0.0010699155 -0.0014987381 0.00093596993 -0.0013987313 0.0009972274 0.00077290484 -0.0009874611 -0.0011672624 0.001645528 0.0012817611 -3.7237336e-05 0.00047344522 -0.00070170214 0.000104029925 0.0014521718 -0.0007348864 0.0013132308 0.00014526921 -7.9764985e-05 -0.00028090365 -0.0016256971 0.00084471016 -0.00059697934 -0.0002830764 0.00021741624 0.0015399265 0.00068852626 0.0012214945 0.0007233743 -0.0014952708 -0.0006161194 -0.0014773316 -6.174141e-05 -0.00025758456 0.0010637436 0.0002738899 -0.0015982796 0.0009984552 -0.00053438905 -0.00033335804 0.00044134384 6.346974e-05 0.0012385437 0.0009114359 8.7806984e-05 0.0011200602 0.0015344408 0.0013349525 0.001420021 -0.0015046163 0.00015409733 -0.0012467507 -0.0002771325 -0.0007860925 -0.0013062181 -0.00053093676 -4.6191002e-05 -0.0004087681 -0.0010230785 -0.0014646765 -0.0013936809 0.000915471 0.0016317522 0.00050431094 0.00049934 0.0015429659 0.00032467698 0.00041761843 -0.0013846672 0.0010310749 -0.0010064071 0.0012626084 -0.0015055262 0.0016085871 0.00088048534 0.0013721548 8.8047396e-05 -0.0009435672 -0.0010490126 -0.0006395533 -0.00046456695 -0.00058987056 -0.00078194303 -0.0004767456 0.0016611976 -0.00057445094 -0.0009953603 -0.0013320065 6.280694e-05 -0.0011634462 -0.0014239632 0.0005893373 -0.000801821 -0.0005765044 0.0008878124 -0.0007976058 0.00041062833 -0.00030276552 0.0012641542 -0.00073848985 7.0564034e-05 -0.00012720023 0.001557852 0.0004559237 -0.00044548578 0.0011178277 0.00096273655 0.0015450245 -0.0005326405 -0.0010674585 -0.00033589252 0.00014024056 -0.00035132436 -0.00044854783 -0.00026005492 0.0016453022 -0.0009936183 0.0007209872 -0.0010582913 -0.0002735209 5.683601e-05 0.0011238658 0.0013924523 0.0011686237 -0.0005793368 0.00045239067 0.0009425407 -0.00089125487 0.00064979156 -0.0013204366 0.00047417174 0.0010046912 -0.00029662604 0.0007094307 0.00050166395 0.0009556118 0.00013217409 -0.00065815984 -0.0012531015 0.0013357726 -7.289715e-05 0.00040300193 -0.0015463931 0.0008431344 -0.0005859056 0.0009837182 0.0006611973 0.0012510864 0.0013421136 0.0009428179 -0.0011995662 0.0012201398 -0.00012318871 0.00020667799 -0.00031797992 -0.0004980364 0.0007249535 -0.0014241703 0.0008847123 -2.9201019e-05 7.996126e-05 0.0010123673 -2.2871716e-05 -0.0005066731 0.001203862 -0.0013327185 0.0013865347 0.000995216 -0.0010102162 -0.0016510747 0.0006307934 0.00045105396 0.0006151522 -0.00075516914 0.000791669 -0.00049718824 0.00047043822 0.0010723125 -0.0014284112 0.0006764 0.00041281487 -0.00065656274 -0.0014395989 -0.0014999211 -0.0006083804 0.0005044389 0.00018227658 -0.00034383888 0.0007499845 0.0006579881 0.00071357185 -0.00094390847 -0.0005745617 0.0014741758 -0.00035397187 -0.0014363215 -0.00055477227 0.00018253372 0.0008819165 -0.0007283855 -0.0008073275 0.00018744955 -0.0013227615 0.0013521891 -0.00024557792 0.0011397346 -0.001631351 0.000871569 -0.0016412364 -5.1836618e-05 -8.0663165e-05 0.0013704634 0.0004318523 0.0005450117 -0.00076149305 0.0004560183
感覺 2.6483196e-05 -0.0005507302 -0.0016422711 0.001219501 0.0009016292 -0.00025994572 0.0011136138 -0.0016095567 0.0011745335 -4.2301937e-05 0.00018855605 -0.00031416325 0.0015244783 0.00047335288 -0.0007164299 -0.00078938965 -0.0016266747 0.0015535665 -0.000617598 -0.0009852 0.0009601337 -0.0012419148 0.0005901417 -0.0015075562 -0.0011135625 0.0012872703 0.0005063007 -0.0012194098 0.0012910328 -0.0010617984 0.0014292682 -0.0008094468 -0.001565092 -0.00060793443 -0.00097612984 -0.00050822017 -0.001570837 0.0011698037 0.0015138328 -0.000363363 0.00020754765 0.0001720576 -0.00029940385 0.00026990354 0.0006038012 -0.00151329 -0.0001160092 0.00053931074 -0.0012891433 0.0005473014 0.0013133977 0.00039322342 -0.0012515433 0.0013919875 0.0004993745 -0.0005158026 -0.00045628828 0.00070675975 -0.00010250167 -0.0006224517 -0.0014742797 -0.00072064355 0.0007194508 0.0014557505 -0.0011725437 0.0011938075 -0.0012606576 0.0010581884 0.00020279706 -0.00020161469 -0.0009929194 -0.0009089288 0.001316592 0.0010196927 -0.0014130118 -0.0016096861 -0.0013242125 0.0012797064 0.0008428378 -0.00010364646 -0.0011866207 0.0004079367 0.0010032422 0.00025270288 -0.00020539749 0.00084704655 -0.0016650475 0.000956859 -0.0010025701 -0.000836224 -0.000248367 1.6512675e-05 0.00045064333 0.00045458594 0.00047114442 0.00050619367 0.0015761598 -0.0007656238 0.0007936008 -0.0009970135 0.0014135264 -0.0014630813 -0.00074305816 0.00050119666 0.00081129716 -1.7905386e-05 0.0003375306 -0.00029380433 -0.00055892207 0.0015377211 0.00086063996 0.00070164015 0.000639635 0.0009136467 0.0010145851 7.508514e-05 -0.0015767298 -0.0016260231 -0.00019645203 0.00031592135 -0.0016147271 0.0014128656 -0.00074592646 0.0003656404 0.00047217243 0.00023387457 -0.0009828742 -0.0008610064 0.0005806878 8.231533e-05 0.0012868366 -0.0013301831 0.0003591066 0.00045278776 0.0014991144 0.0007987041 -0.00027397092 -2.4624074e-05 0.0014870262 -0.0001712857 0.000674636 -0.001509359 -0.0005931722 8.919486e-05 -0.0014750574 0.00048343022 0.0001182043 0.000912004 0.0007235058 -0.0009365684 0.0007316742 0.00030558094 0.00037050075 -0.0010260864 0.0008132081 0.0014585272 0.00014572563 0.0009822306 0.00029746265 -0.0008457461 -0.0009102802 -0.001565772 -0.00044788446 0.0007502607 -0.0005692455 0.0007388018 -0.0012530935 -0.0006461191 -0.0005085873 0.0014076862 -0.0004303619 -0.0016106255 0.0015193447 0.0011739908 0.0010999875 -0.00039059322 0.0015816959 -0.0011131915 -0.0015956146 -0.0013896521 -0.0013405149 0.000802088 0.0014739762 -0.0014123878 4.1622236e-05 -2.5532101e-05 0.00037749627 0.00069784984 -0.00069825473 -0.00074129703 2.772832e-05 0.0010625921 8.57327e-05 0.00083365926 -0.00041041762 -0.001478407 0.00041690102 0.0011945342 -0.00084753893 -0.001395049 0.001111924 0.0013941062 -0.0015126889 -0.0008813119 0.0006851254 0.0013616354 -0.0014604965 0.0014614209 -0.00042482698 -0.0009426379 -0.0014054822 0.0012064253 0.00095233484 -0.00031850635 0.0004525504 0.001329298 -0.0016166494 -0.0008698007 0.0007129962 3.0562967e-06 0.00050282985 0.0012572815 0.000349722 0.0009184141 -2.3261211e-05 0.0016276854 0.00038748112 -2.7950213e-05 0.000997071 -0.0014484009 0.00076592265 -0.0006437927 0.0010411277 -0.0009214464 0.000893004 -0.0006265039 0.001408796 0.00034719676 -0.00022505053 0.0016624314 0.0015222123 -0.0013386713 -0.00066682533 0.0011706639 0.0015617989 0.00042310622 -0.00060804246 -0.000107537264 0.00042062454 -0.00012781874 0.0014713773 -0.0002604466 -0.0004553609 -0.00072196923 0.00042229128 -0.0009936338 -0.00068665727 0.0013103934 0.00026059782 0.0016575914 0.0015851775 0.0012570529 -0.00058366545 0.00012676646 0.0012409948 0.0006547322 0.0009781391 -0.00095072726 -0.0012761944 -0.0015063802 -0.00041896413 0.0007864104 0.0008699756 -0.0006581689 -0.0009959255 -0.0013084173 -0.0012871635 -0.0016310523 0.0009044681 -0.0007671826 0.0007417251 0.0008919454 0.00043511047 -0.00083151396 0.00020698013 -0.00054977403 0.00089663034 0.00036861398 -0.00087336154 -0.00035811964 0.0010070236 1.2874288e-05 0.0012004734 -0.00076735666 -0.0011258187 0.00024120216 -0.0012212811 0.00053844764 0.0009391141 0.00078523514
站 0.001609693 -0.00096784526 0.0014645738 -0.00025894234 0.0014986901 0.0016205553 0.0011571933 0.0006033298 -0.000291207 -0.00066452695 -0.0011996028 0.00033572747 0.00022830346 0.0012823386 -0.0003121418 0.00060327054 -0.0015291357 0.001649561 -0.0013513697 -0.0010847802 0.00016671838 -4.5418736e-05 0.00032891025 -0.00017401758 0.001260639 0.0007484415 0.00010680318 0.00084347423 0.0009121074 -0.0012806637 -0.0009589566 0.000589737 -0.0012598371 0.0012201231 0.00016372273 0.000518723 -0.001099429 0.0010118168 0.0016383673 -0.0008112374 -0.00077173597 -0.0013559496 0.0012488181 -0.001021254 -0.0014807205 -0.00050202466 -0.00092699693 -0.00099901 -0.00018140016 0.00083703804 -0.0014558723 0.00091999985 0.0015144974 0.0012150566 0.0010748967 -0.0005158547 0.0011120371 -0.00054010865 -0.0014646073 -0.0006596634 0.00011114305 -0.000104617415 -0.0006511966 0.0010715064 0.00087149086 -0.00091284415 0.001535328 0.0015807782 -0.00031745966 0.0016556425 -0.0011185791 0.0012321065 -0.00043537052 -0.00032971473 -0.00059792283 0.00083615223 -0.0016234028 -0.0010624818 0.0012052535 -0.0012287024 -0.0013186976 -0.00026094596 -0.0009284616 -0.00050184986 0.00046891914 -0.0014805653 0.00025392204 -0.0010087361 0.0005235052 -0.000414159 0.00041402172 -0.0010783661 0.0009082341 0.00059390813 7.182557e-06 0.0016212468 0.0008720715 0.0003382685 4.5905308e-05 -0.0012386491 0.00012596119 -0.0009406575 6.47983e-06 -0.0008957883 -6.8735215e-05 -0.0011941948 0.0016619762 -0.0014860125 0.00093417265 0.00015659416 0.0013879569 -0.0016133304 -0.00018651504 0.00022904949 0.0011217216 -0.00010157402 -0.0010153456 0.00043485215 -3.1357595e-05 0.0013963532 0.0013776087 -0.000912741 -0.0014878629 0.0013453816 1.4710341e-05 -0.0007556586 -0.0014888388 0.00015580429 -0.00081867067 -0.0010541981 0.00032172317 -0.0014184779 0.0014900388 0.0010347591 0.00087231817 0.0015888567 -0.001218284 -0.0004107029 -0.0006907956 -0.00037743134 0.00051512854 0.0006332892 0.0015592885 -0.0009929794 0.0013201374 0.00076824054 0.0009485392 0.0015381395 -0.00019626603 0.0007473826 0.0011518407 0.0006528135 0.0009196501 -0.001567282 0.00051783014 -0.0009066449 0.000109809516 0.0009006131 0.0015561542 0.00082583504 -0.00021644603 0.00015101644 -0.00032072642 -0.00019230647 -0.00038787973 0.00037058713 -0.00033386992 -0.00093810214 0.0012170133 -0.00043564115 -0.001326786 3.7909114e-05 0.00038894176 0.0009147451 0.00054104254 -0.0014775273 0.001380402 0.0002908269 0.0014721445 7.239032e-05 -0.00017986255 0.001040255 0.0011460591 -0.0008454183 0.00026254592 0.0001051844 0.0010933238 0.00038607945 0.0014765629 -0.0011118178 -0.0014157234 -0.0014981604 0.0015595517 -0.0014009989 0.00065469596 -0.0003140518 -0.00097432244 -0.0006507533 -0.0002062492 -0.00053048006 0.00026908124 0.0010449803 0.0011062077 -0.00083791686 -0.00034318556 -0.0011550189 -0.0015865895 -0.00028497897 0.0005209295 -0.00094034645 0.00084287755 -0.0011288478 -0.0011322966 0.00030954258 -0.00011627471 -0.0013032381 -0.0013442049 -0.001230872 0.0001663936 6.690203e-05 -0.00010839013 0.0010794243 0.00062808156 0.0012300147 -0.0014261144 0.00091043056 0.0015775285 -0.0010047604 0.0007688913 -0.00066779787 0.0012731138 9.498111e-05 0.0015103834 0.0006196051 0.0005603524 -0.0013987562 0.00048880413 0.0006333811 -0.0014069334 0.0005737755 -0.0007974826 -0.00014522269 0.0007879418 -0.00095810357 0.00044283975 -0.0010959108 -0.00043700752 0.0015258567 -0.00059042254 -0.0013867907 0.000749333 -0.0011275666 0.00042020984 -0.0010750593 0.0011313079 0.001113857 0.001438867 0.0009691087 0.0014867522 0.0008561847 0.00030041966 0.0010384753 0.0013767134 -0.0005637934 -0.001554858 0.0011808344 -0.0015164855 6.5897475e-05 0.0012632586 -0.0013211346 0.00043533175 0.001401114 6.0312093e-05 -0.0009726109 6.5004075e-05 0.0010030423 -0.0011188224 -0.0013522032 -0.00024035023 0.0008360909 0.0011318979 -0.0010994424 -0.0005591324 0.0014145172 -0.00036982846 -0.0010197395 -0.0005769488 0.0012230575 -0.0014368461 0.0006571587 -0.0014041355 -0.0016401852 -0.00053701387 0.0016060936 0.00080178975 0.0001616698 -0.0013003573 -0.0014032162 0.0004467384 -0.0002728473
再 6.024581e-05 0.0015983424 -0.0003551418 -0.0010521652 -0.0010721276 0.0010652931 0.0014904917 0.00048212957 -0.0012605857 -9.101851e-06 0.0006617688 -0.0010149514 0.0005162063 0.0013169148 0.00034523464 1.1206393e-05 -0.0007372196 -0.0007740254 0.0011040572 0.00096241664 0.000795401 -0.0014470903 -0.0004023349 0.0012517943 0.00023330923 -1.4227021e-05 0.0005712865 0.0012291959 -0.00023597786 0.00014997562 -0.0012920398 0.0006231483 0.0009666777 0.0013969464 -0.0013905906 0.0005632148 -0.00039318227 0.00094115967 -0.00030773238 0.001300345 -0.0010978535 0.0006421798 -0.0001224991 -0.001060161 -0.0006881838 0.0012648004 0.00017394201 1.6078016e-05 0.0003000325 -0.0015681662 0.0012887024 0.0008374485 0.00024153439 -0.00023472833 3.9208648e-05 0.0003724547 -0.00027653552 -0.0008476613 -0.00034991847 0.0012184987 -0.00015329958 -0.0009170363 0.00054995855 -0.00035319605 0.0006302818 -0.0016227426 0.0011159963 0.0002409427 -0.00117322 0.0009827347 0.00012132061 -0.00103415 4.1578855e-06 0.0012537295 0.0005132218 -0.00020170095 -0.0009913126 -0.0014361788 0.0007444786 0.0002657052 0.0010479158 -0.00046062836 0.00013492523 -0.00091155735 -0.000678525 -0.001244592 -4.971739e-05 0.0014897789 0.000872374 -0.00093317236 0.0003176984 0.00037377398 -0.0009902266 0.00042071246 -0.0001557286 -0.0010035704 -0.0010098465 -0.00095237937 -0.0008145384 -0.00063812436 -0.00067514926 -1.0370086e-06 -1.951571e-06 -0.0009063407 0.0016097696 -0.0011049693 0.0004245743 0.0010784107 -0.00020093091 -0.0006472376 -0.0004461203 0.0007229852 0.0005749208 4.762838e-05 0.0015375115 -0.00045767942 -0.00035700467 2.1622547e-05 0.001087948 0.001576632 0.0014415402 0.00058366 -0.0004345617 -1.6711905e-05 -0.0008315028 0.00011942676 -0.00037878857 0.0016519635 0.00029219428 -0.0010706423 0.0013536899 -0.0009571316 0.00014526451 -0.0005213333 -0.001190467 0.00021305722 0.0007478094 -0.00028846858 0.00080050086 -7.7666395e-05 0.0009731929 0.0004916035 0.000272477 -0.00016704487 0.00041377518 0.00046176498 -0.00062272785 0.00047578354 0.00054913067 -0.0009851318 0.00054604467 -0.0008001949 -0.0010142016 -0.0006240442 0.0009488729 -0.001624811 -0.00016430169 -0.0005446897 0.00046382553 -0.00013906346 0.0014282968 -0.001222179 0.0005693087 -0.0012107467 0.00076116645 -0.0009164919 -0.0014135974 0.0008256881 -1.8434712e-05 0.00062190933 0.0014902635 -6.7733046e-05 -0.00016332928 0.0014698015 -0.00020676797 -0.0015438182 0.00044181707 -0.0010907195 -0.0005516788 -0.0007571454 0.0011424745 -0.000599137 0.0012298706 -0.0015026224 2.1650746e-06 0.0010753629 -0.0007282204 0.0011319041 0.0009740638 -0.0003392785 0.00020769349 0.001337414 -9.3544935e-05 0.0010859427 -0.00010986277 -0.0005194517 0.0011497292 -0.0006105839 0.00053554086 0.00079679093 0.00018606243 -0.0010861054 0.0004221468 0.0004608642 -0.0007354581 -0.00078350806 -0.0008851874 -4.8471586e-05 -0.00073132454 -0.00018958941 0.0013037832 0.001160005 -0.0011977593 -0.00067411666 -0.00035620717 0.0002561238 -0.0011250618 -0.0014874109 -0.00028942185 0.0016370101 0.00067164085 0.00076342147 -0.0010980718 5.5775687e-05 0.0015397387 -0.00060443825 -0.0011177752 0.0015157404 0.0009715686 -0.00015496435 0.001176174 -8.577078e-06 -0.0015234178 -0.0012346405 -0.001128526 -0.0005667889 0.0013735415 -9.133645e-05 0.0010537112 7.937021e-06 0.0015751235 0.0015449058 0.0005787317 -0.0016302356 0.00043882057 -0.0014387774 0.0004233742 -0.0006867426 0.00061151705 -0.0015187305 -0.0009999899 0.00015762771 -0.00045773524 0.0012901746 -0.00043311223 -0.00047572382 0.00060289353 -0.000862667 0.000409459 0.0002662924 0.0012191301 -0.001202372 -0.0007262652 -0.0008622287 0.00021951513 0.0010034523 4.879198e-05 0.0007875959 0.0006822643 -0.00026777753 -0.00077385217 -0.0008105345 -0.0014577893 -0.0008807524 -0.00021526254 -0.0006781279 -0.001210725 0.0012595988 0.00035103978 -0.0016427548 0.0016540582 0.0003040356 -0.0010320842 0.0009987472 -0.001662778 -0.0004902316 0.00017867249 0.0011229857 0.0011407544 0.001589625 0.00093084725 0.00023366255 0.0006586812 0.0016480143 0.0012296609 -0.0016616429 0.000889743 -9.96476e-05 0.00057332095 -0.0003458198
