124 100
飯店 0.003862828 0.0015052455 -0.00243924 0.0047983713 -0.0041009313 0.0029932987 0.003175786 -0.0021014707 0.0042754635 0.00071146345 -0.0041648117 0.0039058742 -0.0034001525 -0.0035091655 0.0049515525 0.004004682 0.0016238015 -0.0018748988 -0.0041991235 -0.0026711489 0.0014254652 -0.0017678832 -0.0005708707 -0.0013040088 0.0004271761 -0.004151244 -0.00014722586 0.0007364077 -0.0033475917 -0.0018416039 0.003607465 -0.004852517 -0.0014237966 0.003232163 0.0034977829 -0.0034205317 0.002484288 -0.00047974644 0.002427482 0.0029952754 0.0041166293 0.0027886955 0.0040562456 -0.00023659339 0.0033741742 0.0013028103 -0.0019456153 0.0047261235 0.0044509596 0.004202509 -0.0013159381 0.003438897 -0.0008681659 0.0033573788 -0.0011571746 -0.0036954212 -0.0038727392 -0.00094729324 0.004042721 -0.001638362 0.0005169421 0.0040466543 -0.0022848276 0.0010710242 0.0038562466 0.0038758586 0.003232737 -0.0033797421 -0.0016276309 -0.0044259964 0.0043709883 -0.0002723629 0.0016689159 -0.00043383575 0.0014106805 0.0049695238 0.0035763686 0.00043207424 0.004736197 0.004264083 -0.0048551825 -0.0028884967 -0.0004568446 -0.0014231212 -0.0040639155 0.0031460167 -0.003801598 0.0010684491 -0.0025700948 0.0007970448 0.002883632 0.0029967686 0.0008481867 0.0034361714 0.0008060817 -0.0039740186 0.0012403121 0.0035090847 0.0019882957 -0.0013050006
前往 -0.0031263859 0.002323261 -0.00065517024 0.0034636678 5.2491632e-05 0.004758799 0.0018250558 -0.0027781588 0.0029834618 0.0030994099 0.0013168937 -0.004587872 -0.0021568688 -0.0026650755 0.0022083076 -0.0015053817 0.0021491013 0.0044049625 0.00038374477 0.0042061675 0.0024703187 0.0024798538 -0.0020948513 -0.0043085534 0.0042465245 -0.00403653 0.0025174716 -0.003587983 -0.0001791134 -0.00020848797 -0.002189357 -0.0040042684 0.0042500137 0.002711035 -0.0041212225 0.0034143394 0.0023669594 -0.00399246 -0.0024588485 0.0038755725 0.0037426436 -0.0002240292 -0.003928839 -0.0007306076 -1.7464436e-05 0.0019811494 -4.862516e-05 0.0034026157 -0.003239901 0.0010317459 -0.0046953815 -0.0039271894 0.0022979775 -0.0044623725 -0.0016917541 0.00018249449 0.0044896547 2.4535402e-05 -0.002556676 -0.0034054178 -0.00050432765 -0.003958662 -0.00020448746 0.003763446 0.0028551468 -0.0010656277 -0.0017846959 0.004231758 0.003957273 0.0018155074 -0.004383869 -0.0030196866 -0.003104492 0.0018887215 0.0035848983 -0.0034265046 0.003958029 -0.004317123 -0.0030380522 -4.78859e-05 0.00051387964 0.0014880426 0.004660458 0.003977104 -0.004830733 0.00029479866 0.004196507 -0.0044834465 -0.001495578 -0.0029678277 0.0025313823 -0.001851894 0.0019102268 -0.004996931 0.0013307346 -0.00277231 -0.0018925811 0.0029219894 -0.0019744365 0.0026943793
E7 0.0009733791 -0.0046850652 -0.00075231254 0.0038496929 0.0019449019 0.004456289 -0.004015876 -0.0033413246 -0.0021388587 -0.0028488573 0.0017476155 0.0029917096 -0.004536648 -0.004038977 0.0015637305 0.002160439 0.0030929784 0.0031432281 -0.0027822333 -0.0026007155 0.0018923469 -0.0047028777 0.0039860043 0.0012673922 -0.0021392587 -0.0038260962 -0.0025636079 -0.0044273036 0.00054263894 0.0036039683 0.000518724 -0.0021131274 -0.0014275779 0.0011700345 0.0033223422 -0.0003497309 0.0035324777 0.0015417892 0.0021934137 0.0037600908 0.0021569212 0.003139472 -0.004797213 0.0026574314 0.0037258486 -0.00020360184 0.0019324024 -0.0002563067 -0.0012635083 -0.0041175187 -0.0018642517 -0.0002555082 -0.0025702466 -0.00069094554 -0.0020115736 -0.004089314 -0.00064692786 -0.0012984589 -0.0045520104 0.0045058164 -0.0029648007 -0.0027124744 0.0016315491 0.0046382574 0.0031383266 0.0028291193 -0.0020216 0.0041939584 -0.0014498918 -0.0022389928 0.0007839541 0.0008576554 -0.0033678785 0.002225295 -0.004388718 0.0017174423 -0.0022618028 0.00338994 -0.0034827902 0.0016408531 -0.0044468096 -0.004658141 -0.004396734 -0.0031242077 0.0025112873 -0.0005685243 0.0022039206 -0.00026863025 -0.004183919 0.00067034486 -0.00073138275 -0.00377063 0.0028286413 -0.0014149548 -0.0009644146 -0.001233718 0.004863043 0.0029767815 0.0040497677 -0.0047333525
博多 -0.0015885459 0.0014009121 0.00010675574 -0.00055339665 0.0031500375 0.0020451578 -0.0048047146 -0.00142335 0.00467879 0.0006389333 0.003731181 0.0008918176 -0.0041607926 0.0014485263 -0.00037156692 -0.0026422138 0.0038636557 -0.0012514296 -0.00086082885 -9.435425e-06 0.0025840388 -0.0040322053 -0.0049648667 0.00062459015 0.004834808 -0.0046794335 0.0019093145 -0.0046555614 0.004313293 0.00017935946 -0.0030221466 0.0015719761 0.0016002283 -0.0017095675 -0.002864563 -0.0038314986 -0.0032455388 0.004415952 -0.0003677912 0.004367176 0.00035430904 0.0033244411 0.0045306967 -0.0049767583 0.0020163462 -0.0033995705 0.0014352318 0.0009232706 -0.0004274815 0.00041468415 0.004444318 -0.0021948635 0.0048679844 -0.003202228 -0.0009484032 -0.0039399094 -0.0031659817 -0.0046442496 -0.0018477353 -0.0026016296 0.0036239736 -0.0021240767 0.0027471285 0.0007204345 0.0024601314 -0.004100796 0.004973864 0.002408857 0.0003439003 -0.0049964385 -0.004849046 0.0002715202 0.002134088 0.0035069787 -0.0005388674 0.003864406 0.0027692863 -0.0044433293 -0.004129365 0.0016750889 -0.004732481 -0.003180892 0.0007473298 -0.0028447162 0.002787085 0.0046993396 -0.0034036185 0.0011267201 -0.0011560268 0.0009688384 0.0047623822 0.0010292779 -0.0016157859 0.0017591913 0.0036397227 0.0021087728 -0.00090604427 0.0014057154 0.0024486256 -0.004655488
自由 0.0022300798 0.0034375216 -0.0040412336 -0.0038377293 0.0008814836 0.0038120395 -0.0022503792 -0.0014900777 0.004572945 0.0014363688 -0.0010108921 0.0005786071 -0.0037313632 0.0013997777 0.0035376933 0.0044024074 -0.00091283425 -0.002845077 0.0023373347 -0.002190656 0.0038721608 -0.0021481472 -0.0026616757 -0.00034667458 -0.0049659163 -0.0023806528 0.0026786162 0.00076145306 0.0012888586 -0.0017627743 -0.0022763293 -0.0019987992 -0.002684445 0.0026943386 0.0015788149 0.0015938354 -0.0026413016 0.0025703069 -1.6707068e-05 0.0020954865 -0.000939076 0.0022895595 -0.00018074387 -0.0021280285 -0.0038968006 -0.0025257198 -0.0049169282 -0.0025540753 -0.00090704125 -0.0011558325 0.0029934715 0.0008160978 -0.0011988878 -0.0039353203 0.002835569 0.00013080871 0.0016604976 0.0021717858 0.0023134148 -0.0048902277 -0.0035606408 0.004785836 -0.0004237871 0.0027635328 0.003020608 -0.0025486115 0.0018465538 0.004287332 0.0012666613 -0.002829777 0.0009279236 -0.0020959154 0.00087750325 -0.00064166065 0.0008400804 0.0012714574 0.00060436246 0.0046720314 -0.004817108 0.0048238095 0.00091064564 0.0010655555 0.002326292 0.0048238733 0.0045270566 -0.00018677424 -0.002234904 -0.0012552987 -0.0034541534 0.002911204 -0.002153971 -0.0017355208 -0.0009837475 -0.0042412435 0.00486656 -0.00499737 0.0049790833 0.0036348468 0.004042862 -0.0017817081
行動 0.0018630485 0.003001121 -0.0014474624 0.0009816795 0.0045271534 0.0017982541 0.001975605 0.0013586124 0.00068128377 0.0048510544 0.0023536645 0.0017086987 -0.0018496114 0.004488443 -0.0049880445 -0.0024390467 -0.003548463 0.0042452756 -0.00047056735 0.0015348549 -0.001457678 0.0027065398 -0.004336633 -0.003725552 -0.0049886187 0.0041161454 -0.00078687025 0.00172449 -0.0009985456 -0.0019205032 0.0013054138 0.0035954113 0.0013321055 4.71396e-05 -0.0012801088 0.002847157 0.0021319308 0.0043300656 0.0022588694 -0.0049028057 0.0027555688 0.0006407652 -0.0045800563 -0.0027946818 0.002736509 -0.0016586996 -0.0026003034 -0.00086353533 -0.00057138683 -0.002806577 0.0012442463 -0.00040584002 0.0037984753 0.0031757976 -0.0020075052 -0.0016622178 0.0040541105 -0.0019852424 -0.0007309198 0.002132979 0.004393876 -0.0022416 -0.0028234702 -0.004802062 -0.0044611855 -0.004959107 0.002578554 0.0038880508 -0.0015327042 0.0015186858 -0.0041710427 -0.0010410589 -0.0036276178 0.003986162 -0.0029199198 -0.0034231273 0.0015338357 -0.0042330236 0.0018417833 5.131071e-05 0.004355326 0.00030166196 0.0034293674 0.0014043496 0.0011081874 -0.0036920595 0.0017287537 0.0010090801 -0.003290327 0.004043821 -0.0033272316 -0.0029131407 -0.0037411388 0.0023508929 0.0049456195 0.0023954434 -0.00097806 -0.0049651205 0.0018702965 -2.3998236e-05
新幹線 0.0039641396 0.0031780507 -0.003976466 0.0044338605 -0.0013003874 0.0034721778 0.0006685858 0.0026925341 0.0025455141 -0.0026220207 0.0022837021 -0.0008300817 -0.002471711 0.0026017656 0.004716288 0.0016648968 2.550943e-05 0.0043369173 0.0032351015 0.002510697 0.0018839447 0.0035516701 -0.002758357 0.0015793045 -0.0035725425 0.000640346 -0.0019891472 -0.0012250161 0.0045893644 0.0027011987 0.0011203357 -0.0009910271 -0.0014173575 -0.0032426757 0.004991326 0.0025846956 -0.0017496332 -0.002943557 -0.004725118 -0.0024593964 0.00025900832 -0.0044419914 0.0021504236 -0.0015648379 0.0045409827 -0.0015210018 -0.0036121223 -0.0044162543 -0.001259344 0.0032847682 -0.0005211957 -0.001150786 -0.0022938955 -0.004537243 -0.0018937003 0.0012505021 0.0046837367 0.0034104602 0.0045243255 -0.0014248276 -0.004289768 0.0019133085 0.0014002265 -0.0011973535 -0.002832609 0.0046819393 -0.00092324696 0.00074583787 0.004965739 0.0045564217 -0.0034082204 0.0032761334 0.0022662256 -0.0041545844 0.0027501567 -0.0025054447 0.00054596877 -0.0049186554 -0.0048610982 -0.0019624787 0.00023770372 -0.0026354284 0.004618103 -0.0043681767 -0.0025202676 -8.576082e-05 -0.00023946904 0.004870072 -0.0016719645 0.0049897796 -0.002953188 -0.0011582312 0.0012345827 0.004224049 0.00068629056 0.0022914053 0.0049803336 0.0030819147 -0.0029949646 0.00026145592
車廂 -0.0026861005 0.0034989144 0.0048955902 -0.0015796286 -0.0039491523 0.0037254672 -1.7473651e-06 0.0036771053 0.0049216975 -0.0026831375 0.0005694688 -0.0011319738 -0.0016885884 0.003120022 -0.004443102 0.00102963 0.00015726236 0.004567408 -0.0047972063 -0.002690909 0.0008411689 -0.00018643888 0.0010893069 0.0027897328 -0.004271728 0.0029875266 0.0047655157 0.0006454317 -0.0037773736 -0.0018473286 -0.001822525 -0.0013143601 0.0048922165 -0.003644312 0.0004922424 0.0015625589 0.00062150625 -0.0015449509 0.0037676545 0.0018925372 -0.0043431483 -0.00028957575 -0.0009651503 0.004402976 0.0018014628 -0.0030306051 -0.004412553 0.0038205485 -0.001159335 -0.0045884578 -0.003501569 0.0026038531 0.004136883 0.004761649 0.0048981667 -0.0035673946 0.0020901915 0.002538014 0.001675501 -0.0009017045 0.0027711664 0.002577628 -0.0009490099 0.0032365804 -0.0024801183 -0.0016202753 -0.002483904 -0.00050722936 0.002129791 0.0043980135 -0.004875698 0.00261224 0.0021014712 -0.004560736 0.0025943667 0.0003321578 0.002495164 0.0038927444 -0.000468828 0.0007587186 0.0011980381 0.0037015746 -0.003266651 0.0014625196 1.2324839e-05 0.003507866 0.00465227 -0.00027970606 0.002191209 0.0015141228 -0.0011006172 -0.0041182917 0.00021841282 0.004978555 0.0023800256 0.002617873 0.0045573614 -0.0023230873 -0.003307432 0.00025732347
吃 -0.0024897528 0.00096824317 0.003886636 0.0038862799 -0.0027566648 0.0032625555 -0.0007689331 -0.0012637879 0.00020822344 0.0004220172 -0.0049435017 0.0019336208 0.0048131594 -0.0016351184 0.002567418 0.0032937268 -0.002091777 -0.0033520071 4.5087272e-05 -0.0030520565 0.00011463482 -0.0027103252 -0.0025979923 -9.0422625e-05 -1.6013455e-06 -0.00052872015 0.00022990667 -0.0042001423 -0.0027272308 -0.0036197726 -0.0028956803 0.0046850145 0.0008863126 0.0029752392 -0.004983385 0.00039086677 0.0045927246 0.004768717 -1.2822825e-05 0.0017739226 -0.0014322367 -0.0009223647 -0.001272219 -0.00041648722 0.00092936086 -0.00031607793 -0.003821361 -0.002304869 0.0049005034 0.0009391105 0.0014514608 -0.004327954 0.0036836062 -0.002710361 -0.0029669171 -0.0007374073 0.00074149034 -0.004107516 2.4985748e-05 -0.0010833595 0.0024489602 0.001916272 0.0044160853 -0.0036184012 0.0012647954 2.5471569e-05 0.0012449693 -0.0039931345 0.0046225237 -0.0031870573 0.0039605657 0.00025347323 0.0037063248 -0.0012264907 0.0030207417 -0.0035129513 0.0037409917 0.0006547284 0.0037551266 -6.597527e-05 -0.0022280652 -0.0018786372 -0.0048728543 0.002388553 0.0013999799 -0.0037983826 0.0019512553 -0.0046821227 -0.0010907546 0.0035714626 -0.0028029825 -0.004113939 -0.0008487053 -0.0024807858 -0.0044841846 -0.004862275 -0.0020163853 0.0037561452 -0.0010779112 -0.0029847582
行李 0.00025658295 0.0023707799 0.0033796742 -0.0039674337 0.002963871 -0.004725593 0.004170279 -3.9582483e-05 0.003206341 0.002777941 0.0020377613 0.0039014535 -0.0018583327 -0.0023341444 -0.0033395304 -0.0039026407 -0.003986468 -0.0017153574 -0.0017434141 0.0034999435 0.0032234036 0.0049371747 -0.0040759565 0.0030157568 -0.0022283113 -0.0031920515 -0.0006268368 -0.001573004 0.0023748793 -0.003302958 0.0032149693 0.0022763608 0.003392742 0.0015087734 -0.002019882 -0.0011058504 0.0034058923 -0.00039759759 -0.0022801398 0.0015010746 0.0018418056 0.00019773265 0.0018547532 -0.002995664 -0.0016002797 -0.0016786791 0.0035964153 -0.0022965807 0.0020521916 -0.0034430232 -0.004415719 0.0024160102 0.0035302595 0.0039962493 0.0029515622 -0.004302284 -0.0006722473 -0.004021801 -0.004879223 0.0010603783 -0.003301644 -0.0015947871 -0.0008769812 -0.00393551 0.0030901642 0.001626611 0.003686121 -0.00014908191 0.0043503474 0.0013537433 -7.2489514e-05 -0.0009539832 0.001145065 0.0017732262 -0.004627231 0.0017207667 -0.0026616075 -0.0030181739 6.2372244e-05 0.0007953887 -0.00025448593 0.002778474 -0.0046453583 -0.0042918967 0.0043887 0.0010568728 -0.0035160566 0.0048281606 -0.004229103 0.0036481523 0.00068875565 0.00078009267 -0.001652817 0.0023697454 -0.0017685429 0.0010809543 0.0028442969 0.0037518966 0.0013260677 0.0039328677
搭 0.0048780325 0.0032401432 0.0046371273 0.000627211 0.0025812134 0.0037725882 -0.00023320524 -0.0035439467 -0.000702794 -0.00034100574 0.0008820106 -0.0038269595 0.00015980608 -0.0048765405 -0.0004613576 0.003936483 -0.0021024162 0.0029677383 0.004879004 0.0041194446 0.004625533 -0.004033366 0.004339865 0.0009935023 -0.0013404518 -0.0028700845 -0.0021959573 -0.0023481236 -0.0038079463 0.0043458617 -0.0020223616 0.0010576168 -0.002062506 0.0046411343 0.0029343304 -0.0018446756 -0.0035483618 0.0021120457 -0.0037176677 0.004430447 -0.0039060737 -0.0012137486 0.0023164873 -0.0003635895 0.0014902818 0.00021138058 0.003498456 0.0047247885 0.0022216863 -0.0009852176 -0.0007079692 0.0034033142 -0.004958476 -0.0015385556 0.004835007 -0.0043524657 -0.004695128 -0.0009201226 0.001979222 -0.0037868973 -0.004275622 -0.0006140553 -0.0040865284 0.0023789369 -0.0039457134 -0.002965298 0.00084710657 0.004147695 -0.0030097037 0.0049457517 0.001176103 0.0022727202 0.0047177225 0.0020246543 -0.0010627529 -0.0032651473 0.001970585 0.0015470786 0.0034221017 -0.0016893931 -0.0049862536 0.0006696225 -0.0041153287 -0.0023824654 0.0013041174 0.0025450056 -0.00032255118 -0.004567568 0.003136698 0.0027497225 0.0038982453 -0.004597166 0.0028144403 0.004796196 0.00024474203 0.0022227354 0.002534823 0.0019744348 -0.0036772487 0.0023021875
福岡 -0.0026679758 0.0030423931 -4.342478e-05 -0.00097321975 0.0010853896 0.0043853563 -0.0023875048 0.0011478873 -0.004877107 -0.0037816465 -0.0037450464 0.0005956981 0.0045398017 0.0041902903 -0.003512867 0.0017380699 -0.00083343155 -0.0012826173 0.0035794864 -0.0045774137 0.0043039736 0.0002659234 0.0029471363 0.00022298312 -0.0010761606 -0.00021691083 0.0022882111 -0.0024418721 0.0036265922 -0.00078355666 0.0019685922 -0.004713061 -0.0004946442 -0.0030685447 -0.002525236 0.0025519098 -0.0013473612 0.0028901412 0.0046527367 0.004892554 -0.0028703837 0.003467455 -0.00236928 0.0019846929 -0.0045693894 0.00050671794 -0.00080603105 0.0034346567 0.0038571255 -0.0048089153 0.0025472473 0.00029493278 0.0007743712 -0.0025746753 -0.0032423956 0.0013333358 0.004703115 0.00085195317 -0.003157056 0.002066011 -0.0046594436 0.0040981947 -0.0015037422 -0.0012721663 0.0005452309 0.00194187 -0.0040125493 -0.0005656283 -0.0010340359 0.0046736524 0.0021268055 -0.002309948 -0.0023411638 0.0031749497 0.0025599934 0.0021791887 -0.00091934385 0.004733185 -0.003599395 0.004136452 0.0028243791 -0.003900826 0.0025278686 0.0007618917 0.0046011317 -0.0049042315 -0.0030583576 -0.0016059196 0.0030137096 -0.0011723823 0.00023200107 0.00052775576 0.0016450323 0.0027678446 0.0041309586 -0.0018062666 0.0009866761 0.0002906833 0.0005350895 -0.004072576
出發 -0.0020117064 -0.00028105982 -0.0015020359 -0.004355109 0.003640565 0.0008317723 0.0003551657 -0.00043470814 -0.00053290324 -0.0047671986 -0.0017286523 -0.004456388 -0.00244487 0.0002864394 0.0012139848 0.0032716817 0.00040641252 -0.0049667275 -0.0036353425 -0.0010897411 -0.004303538 -0.0004275198 -0.0048426655 0.00041637494 -0.002726854 0.0048946366 -0.0001271218 0.0031108132 -0.002229588 -0.0018763095 0.001018072 -0.003524102 -0.0018429243 7.876479e-05 0.0002444759 -0.0008636407 -0.0020644225 -0.0040465523 0.00071074395 0.004111717 -0.004745676 -0.0027190293 0.002679956 0.0013453864 -0.0048544463 0.0013839732 -0.00061295263 -0.0021477235 -0.00031254283 -0.0049237157 0.0010872252 -0.00031683836 -0.0020628208 -0.0009959072 -0.00091125816 -0.003924916 0.004522458 0.00071347447 0.0012908287 0.0027310667 -0.0032052337 -0.003344278 -0.0012843068 0.0007061017 -0.001677111 -0.0035500107 0.0008706812 -0.0032173716 -0.0048227594 -0.004107977 0.0043483395 0.0024156966 0.0035829118 -0.003255214 0.0047230097 0.0007220304 -0.003896691 -0.001787153 0.00058095343 0.002702164 0.0028635664 0.0015339965 0.00079913053 0.002766995 -0.00033293155 0.0014152665 0.0033140327 -0.0033773025 -0.0012998887 0.0034374588 -0.0014036379 -0.0028441686 -0.0016964193 -9.8539e-06 -0.0006756004 0.00031823412 -0.002288764 0.0034760484 -0.0015233274 0.0041016396
車站 -0.0021861978 -0.0018712056 -0.002558069 0.0023960702 0.0018396418 -0.0033253108 0.003729033 0.003424911 -0.0035699038 -9.565708e-05 -0.0030710977 -0.0029414683 -0.003295518 0.0014171948 -0.0011639089 0.004342852 0.004883098 -0.0027129157 -0.003847042 0.0009434219 -0.00043047333 -0.004641152 0.004290224 0.0022911946 -0.0026451321 0.00097080244 0.0047019045 0.001115995 -0.0048223785 -0.0023691708 0.0005816762 0.0020628409 -0.003995663 0.00482897 0.002380011 0.0037366843 0.0002899113 -0.0045077913 0.001201892 -0.004954112 -0.0046600355 -8.7974666e-05 -0.0015194383 -0.0005590249 -0.0043896935 0.003870607 -0.0036417462 -0.0010145927 -0.002660055 -0.0044625234 -0.004039836 -0.002725199 0.00013404118 -0.00117217 0.0003097364 -0.0026631833 -0.0035086349 -0.0041757957 0.0010748715 -0.004115951 0.004190581 -0.0039930553 0.0033920559 0.0029246856 -0.0027568012 -0.0012805158 -0.0049428674 -0.00444139 0.0044569867 -0.002037901 -0.00290624 -0.0040386165 0.003305918 0.0047537726 -0.00050965464 -0.0031614176 7.046535e-05 -0.002200387 -0.0021860693 -0.004581707 0.004510254 0.0028788971 0.00027457482 -0.0033678003 -2.4677645e-05 0.0033141007 0.0030186519 -0.0022905613 0.0013204165 -0.004800137 0.0025687348 -0.0045117224 -0.002394717 -0.0018747911 0.00019940222 -0.002382985 -0.0041768155 -0.004033268 0.0015508222 -0.0021016127
Gran -0.0040617585 -0.0016589786 -0.0020356285 0.0011510118 0.0049517327 0.004036726 -0.0041396623 0.003094037 -0.002497229 -0.0025134964 0.004058785 0.0032798755 0.0014113588 0.000172399 -0.002002038 -0.0010530129 -3.0016716e-05 -0.0019231011 -0.0017208394 0.0016675973 0.0011825386 -0.0044105193 -0.0047204075 -0.0032505868 0.0020911302 0.00043813747 0.0007618481 -0.00050383835 0.004234935 0.0037747568 -0.0021887026 0.0025067683 -0.00066555134 -0.0032939513 -0.0033213939 0.004804703 -0.0049805003 0.003520078 0.0028261868 -0.0044034747 -0.0013081178 0.00067708414 -0.0015650761 -0.0021654451 -0.0005931531 0.0016027053 -0.0038686565 -0.0047185295 0.0038295381 -0.0044574016 0.002844677 0.0026549592 0.00026898237 0.0024889337 -0.0042410176 -0.0018322679 -0.004189161 0.0034989386 0.004646266 0.0047728154 -0.0035048937 0.00039896404 -0.002112708 -0.0035842543 -0.003958302 -0.00022314372 -0.0023967652 0.001777789 0.003286391 0.00036357992 -0.0018832375 -0.0038355489 0.00022209779 0.0036178061 0.0006188965 0.0030657286 -0.004123432 -0.002446926 -0.0034041558 0.003878275 0.0011587598 0.00016692177 -0.0033972284 -0.0001772848 -0.0030964916 0.003238782 0.002211831 0.0033013034 0.0028425765 0.0013702896 -0.002855271 -0.0016962849 0.0014865658 -0.0033634722 -6.417556e-05 0.0030735887 -0.003011067 -0.0042699073 -0.0014407589 0.0003954529
好 -0.0012768931 0.0048897304 0.00031709432 -0.0015416709 0.0018983901 0.00014099084 -0.0025899024 -0.00096177316 0.0046052514 0.002381886 0.0040172962 -0.0011941029 -0.0045346823 0.0041497773 0.002738602 -0.0042271474 -0.0024637368 -0.0016965613 0.0009802202 -0.0034295353 0.0023954108 -0.0007282308 -7.227474e-05 -0.002372002 -0.0019303482 -0.0027051966 -0.004766589 -0.0023680907 0.003794624 0.0033704517 -0.0028743958 -0.0037365956 -0.0011486439 -0.0046313507 -6.656718e-05 -0.0045659975 -0.0016627071 -0.0031898336 0.000505917 -0.002678179 -0.0018586364 0.004184636 0.0013222598 -0.004428933 -0.0034087303 9.477242e-05 -0.0024486869 0.0040916107 0.0039283484 0.0025844981 0.0015381473 0.004140172 -0.004573352 0.0028333352 0.0031381005 0.003275752 -0.0017634899 -0.00038543018 -0.004919567 -0.0006768856 -0.004842614 0.0032566949 0.0017823812 0.0013625476 -0.0034136688 -0.0007293407 0.0005988546 -0.004031999 0.0012514733 -0.0028398917 0.0016023354 0.0046763164 0.0026588521 -0.0018246761 0.0016268747 -0.0024357643 0.00025656677 -0.0022511922 -0.004533395 0.0046567703 -0.001618132 0.0018970942 0.004803615 0.0017848128 0.0013450626 -0.0030230084 0.0027758898 -0.0029100592 0.0023838722 -0.0034419708 0.0011236107 -0.002167838 0.00046396442 -0.00351864 0.0026245194 -0.0005787706 0.0046057077 -0.0024873551 -0.002345032 0.0025055096
人 -0.0023649228 0.0025342503 0.0010164744 -0.0038821434 0.0029357553 -0.00067639444 -0.004942679 0.0041984823 0.003632761 0.0009241397 0.0011878718 0.0031539376 -0.00018235343 0.0033650813 -0.0025975585 -0.0038634245 -0.004240888 0.0043483255 -0.0021824914 -0.004700353 0.0006019845 -0.00011884502 0.000342262 -0.002680105 0.00343183 0.0030385118 0.0022944936 -0.0019552298 -0.0008709336 0.0027297991 -0.00413519 0.0021928016 -0.0016350085 -0.0007663931 0.0018353653 0.002753555 0.0015038454 0.0026633753 -0.00083777483 -0.00309144 -0.00016859922 0.0042955745 -0.0017692418 0.002964045 -0.002013072 0.0031119506 -0.00062322174 -0.0001747329 -0.0019431661 -0.00407044 -0.0018388305 0.0014223602 -0.003516433 0.0048888535 -0.0036295308 0.00077313697 -0.0015124978 -0.0004223935 0.0026689258 -0.002986999 0.0029902728 0.004189283 0.0016157824 6.424493e-05 0.0014997127 0.00020278258 -0.004432759 0.0022714415 3.6546335e-05 -0.003730554 0.004216852 -0.0033892405 0.004460932 0.0011910038 0.0003183757 -0.004308327 0.00057630835 -0.0005702664 0.004661037 0.0018783179 -0.0021157113 -0.0026724385 -9.669216e-05 0.0009960482 0.0035521674 -0.0010589744 -0.004124459 -0.0011486546 -0.0034776744 -0.0020702942 0.0020367668 -0.0034423966 -0.002232529 0.00040289722 -0.00058446464 -0.0025937466 0.0041904687 -0.0034934802 0.0017120526 0.0034020261
系 -0.0028883438 0.002154686 0.0016056244 0.0041007833 -0.00027770843 0.0010449758 0.0030603944 -0.00032088175 0.004619453 0.001272486 0.0027328273 0.0048166127 -0.0016827042 -0.0025426878 -0.0047152215 -0.0016592471 0.0013502095 0.0026425067 0.0015995901 0.0026959048 -0.004288951 0.0034947207 -0.001221253 -0.0022187217 -0.0026526644 0.0013802963 -0.002391377 -0.0038364609 0.0024998563 -0.0016097849 0.0019792053 -0.00129074 -0.004822805 0.0015747288 0.0044918675 -0.00048654812 0.0015444561 0.0027929083 -0.0029478755 0.002343322 -0.0038813062 -0.0039390936 0.0030293488 0.0027781997 0.001471746 -0.0022354529 0.00264356 0.004922814 -0.00436065 3.34478e-05 0.0035522566 -0.0020339957 -0.0038650928 -0.0040523782 -0.0046456354 -0.0028984905 0.0046190764 -0.0048766136 0.0018660997 -0.0033254775 -0.0033586011 -0.0031067852 0.0008476514 0.0025513724 -0.00051310356 -0.0016023085 -0.0044194018 0.004284337 0.0007415448 -0.0019666904 -0.0013170298 -0.0017963974 0.00052496506 0.0042882697 0.0046103555 0.0007881958 0.0009333942 -0.0044610165 0.0044918917 0.0018586725 -0.003131751 0.0017321362 -0.0011489639 0.004631509 -0.0038008133 0.001623306 0.0010949983 0.00093427725 0.0047806953 -0.0034110039 -0.00027186007 -0.0037963535 -0.0027890452 -0.000420694 0.0014792124 -0.0010138327 0.0041514873 0.0027731995 0.0043456554 0.0014710912
綠色 0.0016494485 -0.00053797173 0.0024331284 -0.0034105652 0.0017212835 0.00090856344 0.0021537591 -0.003177299 0.00020928051 -0.003572124 -0.0009563678 -0.0012482802 -8.039813e-05 -0.0046767094 0.0035399238 0.002428265 0.0018625486 -0.0046333983 0.00336806 0.00046978993 -0.0022329963 -0.0024039978 -0.0031940138 0.0011620768 0.0004506348 0.004780706 0.0043438547 0.0020774435 0.00016991618 0.004728749 -0.002960209 -0.0028709155 0.0023837562 0.0015718684 -0.0021057136 -0.0023083363 0.0036377714 -0.0036434873 0.0015336629 0.0025787079 0.0010563524 -0.0049364967 0.0005387032 0.0045115855 -0.0025254725 -0.0046552657 0.0021287177 0.004151749 0.0010322661 0.0011449117 0.0039534774 0.0028624854 0.0025626537 0.00198003 -6.1682425e-05 -0.001920416 -0.0007162452 -0.0010008803 0.0024149683 -0.0030264345 -0.0038041614 0.0012656868 -0.0014369673 -0.0036863952 0.0020040793 -0.0040001683 0.001255043 0.0013539821 -0.0024206797 -0.0017304149 -0.0006979899 -0.0042165867 0.0017660648 -0.0029283988 0.0029010256 0.0044264407 0.0031733536 -0.0042411303 -0.0028555556 -0.004067452 -0.001954237 -0.004020876 -0.0040936526 -0.0026226908 0.00023602734 -0.0013598277 -0.0008896727 -0.004503557 0.004850192 -0.0024811341 0.0045553884 -0.002089735 -0.0029160583 0.0023606955 0.0005211366 0.0030358394 0.0029064082 0.0002728513 0.003275256 0.0038268673
想 0.004987351 -0.0017165486 0.0004970646 -0.0024157702 0.00021356622 -0.0006267573 -0.0018050764 0.002205378 -0.0037951702 -0.00073962926 0.0028766217 0.00068385625 0.0030340953 -0.0012131443 -0.0036600186 -0.001031812 0.0041906605 -0.0032600525 0.0027902953 -0.0012225285 0.0037922706 -0.00026845513 -0.0036946777 -0.0001520156 0.0032184601 -0.00036177682 0.0034530798 0.00053065416 -0.0011081494 0.0041487953 0.0032360475 0.00046012996 -0.0035179867 -0.0009875647 -0.002854626 0.0039928267 -0.00019961089 0.0006621105 -0.0018150561 -0.004191829 0.0026129459 0.0045643384 -0.003900061 0.0036364284 -0.0021885536 0.0010591707 -0.0005222917 -0.00075327273 0.0001799351 0.0022320896 0.0041937223 0.0002634691 0.0010942083 -0.0043363133 0.0041490328 0.0020004748 0.0038238422 -0.0015918433 -0.003694346 -0.003068173 -0.003990331 -0.002258388 0.0019382263 -0.0020891228 0.0043542385 -0.0035710733 0.0014477647 -0.0018986561 -0.0048422134 -0.0047268956 -0.0043540713 0.0026372029 0.0012950652 0.0025293275 0.0044684694 0.000699823 0.00010788598 0.0022820223 0.004639051 -0.002074353 0.0006801501 0.00221482 0.0029634028 0.0046577347 -0.0024653673 -0.0024985042 0.0022233212 0.0044020163 -0.0036902078 0.0013202404 0.004188165 -0.0043758075 0.003023256 -0.00449753 0.002711818 -0.0006126915 -0.004478876 0.0007799369 -0.0049661845 0.0017701086
放 -0.0023457168 0.002441664 -0.0032097409 0.0022113181 0.00088687084 0.0022704878 -0.004764711 -0.004564491 -0.0020011696 0.0019599872 0.003029658 -0.0006382329 -0.0015239201 0.0013109073 0.0038459082 -0.00032614492 -3.5244077e-05 0.0015818279 0.0030985766 -0.0023623265 -0.0045880782 0.003454934 -0.0020382972 0.0033236952 0.0046602944 0.0017559638 0.00084761565 -0.0044726846 0.0023629067 -0.0030028902 0.0024673524 0.0049523804 -0.0003264835 -0.0042700362 -0.0017466564 -0.003642846 -0.0026261217 0.0008812594 -0.0013986889 -0.004160627 -0.0013979243 0.00075513567 0.004764515 0.004176058 -0.0035035908 -0.0025289415 0.00055109814 0.0015226651 -0.0029041935 -0.002129632 0.0038201702 0.004304809 0.0035744056 -0.0030405647 0.004522686 -0.0016012136 0.0010178649 -0.00044684994 0.0012309479 0.0021615007 -0.0009842848 0.004514886 -0.0038652085 -0.0041313334 -0.0025412603 -0.0023524798 0.002406795 0.001733343 0.004318154 -0.004479514 -0.0038513802 0.0031137178 0.0011329375 0.001280104 -0.00093647646 0.0038800847 -0.004636698 -0.0040475368 -0.0015288602 0.0028154792 -0.0038094642 -0.0035474268 -0.0047304393 -0.0029244195 -0.0032097464 -0.0044962144 0.0028079099 -0.004196194 0.0029916822 0.0023187145 -0.0029623832 -0.003501787 0.004936584 0.0038452835 -0.00011171201 0.0014203357 -0.0021051064 0.00031208977 0.0043565156 -0.0022046592
感覺 7.9449586e-05 -0.0016521907 -0.0049268133 0.003658503 0.0027048877 -0.0007798372 0.0033408417 -0.00482867 0.0035236005 -0.00012690581 0.00056566816 -0.0009424898 0.004573435 0.0014200587 -0.0021492897 -0.0023681691 -0.004880024 0.0046606995 -0.001852794 -0.0029556 0.002880401 -0.0037257446 0.0017704251 -0.0045226687 -0.0033406874 0.0038618108 0.001518902 -0.0036582295 0.0038730982 -0.0031853954 0.0042878045 -0.0024283403 -0.0046952763 -0.0018238033 -0.0029283895 -0.0015246606 -0.004712511 0.0035094111 0.0045414986 -0.0010900891 0.000622643 0.0005161728 -0.0008982116 0.0008097106 0.0018114037 -0.00453987 -0.0003480276 0.0016179321 -0.00386743 0.001641904 0.003940193 0.0011796702 -0.00375463 0.004175963 0.0014981235 -0.0015474078 -0.0013688649 0.0021202792 -0.00030750502 -0.0018673551 -0.004422839 -0.0021619305 0.0021583524 0.0043672514 -0.003517631 0.0035814224 -0.0037819727 0.003174565 0.0006083912 -0.00060484407 -0.0029787584 -0.0027267865 0.003949776 0.003059078 -0.0042390353 -0.004829058 -0.0039726375 0.003839119 0.0025285135 -0.0003109394 -0.003559862 0.0012238101 0.0030097268 0.0007581086 -0.00061619247 0.0025411397 -0.0049951426 0.002870577 -0.0030077104 -0.002508672 -0.000745101 4.9538026e-05 0.0013519301 0.0013637578 0.0014134332 0.0015185811 0.00472848 -0.0022968715 0.0023808025 -0.0029910407
站 0.004829079 -0.0029035357 0.004393721 -0.000776827 0.00449607 0.004861666 0.00347158 0.0018099893 -0.00087362103 -0.0019935807 -0.0035988085 0.0010071824 0.00068491034 0.0038470158 -0.00093642547 0.0018098116 -0.004587407 0.004948683 -0.004054109 -0.0032543405 0.00050015515 -0.00013625622 0.0009867307 -0.00052205275 0.0037819173 0.0022453244 0.00032040954 0.0025304228 0.002736322 -0.0038419908 -0.0028768699 0.0017692111 -0.0037795114 0.0036603694 0.0004911682 0.0015561689 -0.003298287 0.0030354504 0.004915102 -0.0024337121 -0.002315208 -0.004067849 0.0037464544 -0.003063762 -0.0044421614 -0.0015060739 -0.0027809907 -0.00299703 -0.0005442005 0.002511114 -0.004367617 0.0027599996 0.0045434926 0.00364517 0.00322469 -0.0015475639 0.0033361113 -0.0016203258 -0.004393822 -0.0019789902 0.00033342914 -0.00031385224 -0.0019535897 0.0032145192 0.0026144725 -0.0027385324 0.004605984 0.0047423346 -0.00095237896 0.0049669277 -0.003355737 0.0036963194 -0.0013061116 -0.0009891442 -0.0017937684 0.0025084566 -0.0048702084 -0.0031874455 0.0036157605 -0.0036861072 -0.003956093 -0.0007828379 -0.002785385 -0.0015055495 0.0014067574 -0.0044416958 0.0007617661 -0.0030262081 0.0015705156 -0.001242477 0.0012420651 -0.0032350982 0.0027247022 0.0017817245 2.154767e-05 0.0048637404 0.0026162146 0.0010148055 0.00013771592 -0.0037159473
再 0.00018073742 0.0047950274 -0.0010654253 -0.0031564955 -0.0032163828 0.0031958793 0.0044714753 0.0014463888 -0.003781757 -2.7305552e-05 0.0019853064 -0.0030448542 0.001548619 0.0039507444 0.0010357039 3.3619177e-05 -0.0022116587 -0.0023220761 0.0033121717 0.00288725 0.002386203 -0.004341271 -0.0012070048 0.003755383 0.0006999277 -4.2681062e-05 0.0017138595 0.0036875876 -0.00070793356 0.00044992683 -0.0038761192 0.001869445 0.002900033 0.0041908394 -0.0041717715 0.0016896445 -0.0011795468 0.002823479 -0.00092319713 0.0039010348 -0.0032935604 0.0019265395 -0.0003674973 -0.0031804831 -0.0020645515 0.0037944014 0.00052182603 4.823405e-05 0.0009000975 -0.0047044987 0.003866107 0.0025123456 0.0007246032 -0.000704185 0.00011762595 0.001117364 -0.0008296066 -0.002542984 -0.0010497554 0.0036554963 -0.00045989876 -0.002751109 0.0016498757 -0.0010595882 0.0018908455 -0.004868228 0.003347989 0.0007228281 -0.0035196599 0.002948204 0.00036396182 -0.00310245 1.2473656e-05 0.0037611884 0.0015396653 -0.00060510286 -0.0029739377 -0.0043085366 0.0022334359 0.00079711556 0.0031437476 -0.0013818851 0.00040477567 -0.002734672 -0.002035575 -0.003733776 -0.00014915217 0.0044693365 0.002617122 -0.0027995172 0.0009530952 0.0011213219 -0.0029706801 0.0012621374 -0.00046718578 -0.003010711 -0.0030295395 -0.002857138 -0.0024436153 -0.001914373
別府 0.0016222752 -0.0006426609 -0.004985808 -0.0039892043 0.00060723926 -0.00366747 0.0024829083 0.00094376266 0.0019865069 -0.00036586873 0.001578436 0.0046501956 -0.0017314784 0.0036938277 0.0034943912 -0.0034142963 -0.0024555281 -0.004084009 0.0021644793 0.0021914023 -0.001343379 0.004231626 -0.00076232397 0.0031289419 0.00094575615 -0.002874161 0.00087346096 -1.670916e-06 0.0021470273 -0.0009709835 -0.0031538405 -0.004612897 0.00030213819 0.0027239877 -0.0029143223 0.0014851025 -0.0033125305 0.0022654603 -0.0016327952 0.0013717192 0.0017097667 0.00082305295 0.0031989776 0.00013764955 0.004779754 0.0015934274 -0.0014758598 0.0018016077 0.0028489607 0.0033893564 -0.003503153 0.0026146525 0.004905047 -0.0035492356 5.546198e-05 0.0038041833 -0.0007721204 0.00043523093 -0.0046281028 0.004912858 -0.0031717252 0.0010835985 -0.0011196674 0.0026815329 -0.003013293 -0.0035622881 -0.00077417266 -0.0013013828 -0.003280568 -0.0028847128 0.0025864828 -0.0004644888 -0.0040819095 -0.0023972415 -0.00489609 0.004504883 -0.0039361585 0.0027531935 0.0006086534 0.004667225 -0.00311686 0.0030009702 0.0006149324 -0.0044391723 -0.00302352 0.0006444123 0.004534196 -0.0030765175 0.004849044 -0.00353428 0.0024505828 -0.0014601895 0.0046121404 -0.0004946717 0.0018617413 0.0028357548 0.00024204268 0.0031820883 -0.0007243219 -0.004176789
小倉 -0.004433097 0.003415329 -0.003297546 0.004139387 -0.00060414174 0.00061485387 0.0038170235 -0.0010129502 -0.0006967808 -0.0006885483 -0.0028943128 -0.0048395307 0.0011544669 -0.0034232193 0.0015154496 0.00025815007 -0.002101203 -0.004301312 0.0038596618 -0.00015657526 0.00046664232 0.0019668066 -0.004469885 -0.0016115154 -0.0020685913 -0.00269574 0.0044616647 -0.00096221495 0.0032257552 -0.0017672403 -0.004792547 0.00064484036 -0.0045795958 -0.0022295692 0.0004879831 -0.0010289273 0.002854297 -0.002451436 -0.003323395 0.0013193063 0.0044449 0.0028243735 0.0019431894 -0.00015786556 -0.0041884123 -0.0026419433 0.0038881123 0.00029045923 -1.2987646e-06 -0.000746509 0.004865831 -0.0013866847 0.0028761483 0.00078581437 -0.003497449 -0.0006585204 0.001440625 -0.004218704 0.000997174 0.0041358564 -0.004837308 0.0029793824 0.0017356228 0.0013344351 -0.0015422779 -0.0018508525 0.003000013 -0.0018156547 -0.002333764 0.0032079753 0.00047397483 0.00034114317 -0.0035071226 -0.0040760846 0.0017862135 0.00057614746 -0.0012444641 -0.0034548515 -0.003616799 -0.0009921611 0.004032725 -0.003925856 0.0039968616 0.0030760493 0.004831803 -0.0001347048 -0.0033939541 0.0017022408 0.0018051286 -0.0036403534 0.0047920966 0.0021506154 -0.0010234491 0.004402662 0.0023072758 0.0007422135 -0.0032812734 0.0010168095 0.004921047 0.0015495106
行程 -0.0021635587 0.00123692 0.00447845 0.0037978548 0.002751371 -0.004468121 -0.00284753 -0.0047026025 -0.00079352333 -0.0029401388 0.0041806404 -0.004383934 0.0039455276 0.0019791264 -0.0015144057 0.004059335 -0.0009995095 0.0017466997 0.0014284842 -0.0042471914 0.0021321375 -0.0036360626 0.0034686516 -0.0041894326 0.0008759569 0.0002463542 -0.0021046293 0.0039331242 -0.0038992635 0.0032215635 -0.00014210817 -0.0028586194 -0.0035282883 -0.0021786634 0.0014905408 -0.0014000948 0.0002215371 0.0020592245 0.0030746446 0.0049302354 -0.0035539914 0.004235298 0.004014423 0.003192754 -0.0039049806 0.00051717577 -0.004640677 0.0019998476 -0.0011899788 -0.0025905708 0.0032583575 0.0042311 -0.0017875233 0.0032402866 -0.0020990048 -0.0010170247 -0.001348018 0.004422473 0.0004097552 0.0017600281 -0.0015037316 -0.0003915067 -0.0010800787 -0.0017934656 0.0034631982 -0.001555402 0.0010987066 -0.002796614 -0.000489929 -0.0039917836 -0.0015069934 0.0035585167 0.0027387694 -0.0020293898 0.0049420577 0.0040857745 -0.0016055293 -0.0006589278 0.0031981845 0.0009803443 0.004325515 -0.0024910765 0.0022108117 -0.003663794 0.0044751056 -0.0035159662 0.00048706745 -0.0011044181 -0.00474345 -0.0045655505 -0.0007801943 -0.0023569502 0.0041259094 -0.00089341146 0.0022916016 0.0046996055 -0.0036869834 -0.0045580505 0.0036946281 -0.0049450914
房間 0.00079527404 0.003028911 0.0034653288 0.004692684 -0.0043600784 -0.0033966475 -0.00286144 0.002490599 -0.00075023615 0.0038295256 0.0046456335 -0.0022047637 0.0006592197 -0.003232234 -0.0034822188 -0.0004916982 -0.0047974186 -0.00090301863 0.0031307004 -0.002399902 -0.0016797337 -0.0015901324 -0.0035451206 -0.00035856842 0.004164815 0.0047483277 0.0022358806 0.0045840805 -0.0017770382 -0.0006294789 0.00062245986 0.0032985269 -0.0038927665 5.3224958e-05 0.004948499 -0.0038099738 -0.0020703925 -0.0011820236 -0.0035299086 0.0017399376 0.0040487223 0.0024409005 -0.0029076622 -0.00090525975 -0.002036686 0.0045216847 0.00017256534 -0.0014902039 -0.0017022785 -0.00330931 -0.0016208093 -0.0049774153 0.0037060017 0.001460975 0.0016854524 -0.0008633281 0.002442227 0.00023576342 0.0030038373 -0.0012397303 0.0019327266 -0.0019601341 -0.0038032199 -0.0021928141 0.0022496798 -0.004816327 0.00019533126 -0.00438482 0.0032690326 -0.0039831367 -0.0014300182 -0.0016309303 0.004312724 0.004141319 0.0039283717 -0.0017586005 0.00017109286 0.0030006731 -0.003790786 0.0016619887 -0.003239774 0.0048211818 0.0034826566 -0.0029764469 0.0001865218 -0.0043098805 -0.0044629676 0.0025761714 8.452774e-06 0.004151299 -0.004416249 0.0017945863 0.004950061 -0.001011519 0.0013604811 0.0038793026 -0.002332139 -0.00067815004 0.0041387156 0.0037323665
今天 -0.0032276749 -0.00053851324 0.0030787545 -0.0040110634 0.0023420192 0.0049650935 -0.0017600475 -0.001429288 0.0005316161 0.0044623953 -0.0022753568 -0.0041488274 -0.0030105684 -0.0010124133 0.0023180004 -0.0025923108 -0.0015344544 0.004368277 -0.0039250944 -0.0034939928 2.0496322e-05 0.00017573537 0.0008386535 0.004695464 -0.0043723234 0.00016415461 0.0033532076 0.001876378 0.0023951568 0.00049616257 -0.0010021721 0.003949036 -0.001793745 0.001972626 0.0027368749 0.0024307626 -0.00043625475 0.00032692016 -0.001026123 -0.00050549227 0.0029188578 0.0021003543 0.0006569742 0.003554466 -0.0006636481 0.0034113054 -0.0018824348 0.004202564 0.0031462833 -0.002634875 -8.0800535e-05 -0.0044108224 0.001333069 -0.00248346 0.0020594646 0.0010345401 0.0027667026 0.0032390016 0.0006771348 -0.003269138 0.004692276 -0.0011907121 -0.0011327075 0.0021540103 -0.0012502071 0.0005151533 0.0049109813 -0.0045486195 0.004316233 -0.00082118774 0.0049154526 0.0042977817 -0.004972985 -0.0044938433 0.00068273343 0.003115496 -0.0002635268 -0.0040873857 0.002036971 0.00023039023 0.00034830588 -0.00028042277 -0.0023569907 0.00078718894 -0.0046049748 -0.0036558032 0.0019755373 0.0021815086 -0.002351619 0.002601498 -0.002673758 -0.0012600373 -0.00032128685 0.0020253328 -0.0011630533 -0.0034042757 0.0027725187 -0.0011618121 0.0029657916 -0.0011826496
TOKI 0.003510276 -0.004140317 -0.0028580804 0.0030667877 0.001099015 -0.0034001989 -0.0037628713 0.0023978772 0.002167887 0.0040838723 -0.0034120046 0.001135389 0.0027625856 -0.0026586892 -0.0016651961 0.0012511036 -0.0042951205 0.002881164 -0.0015324736 -0.0045515597 0.00033974182 0.0009892809 0.0021610556 0.0020976816 0.003031136 0.003604743 -0.0006070173 0.0013181792 0.003354016 -0.0025324444 -0.0007306183 -0.0027839441 -0.001744338 -0.0017215145 0.0037543457 -0.004248179 -0.0042489707 0.004088142 -0.002410303 -0.0049005304 -0.00040289544 -0.0024809723 0.004303853 -0.0019056465 -0.0022974138 -0.003880745 0.004371127 0.0017236442 -0.003999231 0.0046204044 -0.002186158 0.001097524 0.003100852 -0.00449502 -0.0035577922 -0.0009598585 0.0028349755 -0.004106129 0.0044642664 -0.0023212743 -0.000741113 0.003108893 0.0031967724 -0.0017294327 -0.00013576898 0.004144787 -0.004787742 0.0034878813 -0.004672144 0.004855066 -0.002710119 0.004509405 0.0039596455 -0.0026217762 0.00039849075 0.0041769915 -0.004409857 -0.0028524431 0.0020278965 0.0021778713 0.0016759145 0.00011489385 -0.0042147194 -0.0015687922 0.00045400875 -0.004825521 0.0008452422 0.0024829481 -0.0023789548 0.0037704168 0.0038651503 -0.0020895768 -0.003632086 0.0025448378 0.0029521547 -0.0028942544 -0.0041511976 -0.0005993721 -0.004083714 -0.0011555658
時 -0.0011114648 0.0035942094 0.0016343716 0.0006836546 0.003910711 -0.0010209869 0.0006913897 -0.004496591 0.0029928521 0.0039485553 -0.001235863 -0.0038371386 -0.00430017 -0.0029940852 -0.0022873357 0.00478634 -0.0028453232 -0.0029207983 0.0038566387 0.0041941158 -0.003148678 0.003887674 0.0023294038 0.0018866927 -0.0030360536 0.0018389684 0.0017434086 -0.004109383 -7.195231e-05 -0.003288975 0.0020102807 0.00062500074 -0.0029566677 0.003598087 0.00026497568 -0.0037865476 0.0020503968 -0.004534578 0.0010042918 -0.000522548 -0.0024607547 -0.001261917 -0.0006188565 0.0039044286 0.0026811482 0.00378218 -0.0035101434 -0.0010643945 0.00029079747 -0.0018809388 0.0015643777 -3.775963e-05 0.0049653146 0.0017402342 -0.0045282827 -0.0005378613 -0.00037039764 0.00036822006 0.0037856814 -0.0017838362 0.0011946389 -0.00059743185 0.0049002906 -0.0027085189 -0.0015408027 0.0024825968 -0.00058749435 0.0014140611 -0.0035025845 0.0036028766 0.003852179 -0.0022420606 0.0016879609 0.0042376975 0.0026412038 0.0039035787 -0.0040653427 0.0034706492 -0.0005810958 -0.0007125357 0.0006881081 0.004918239 -0.0042743078 0.0028351971 0.003785412 -0.0019532985 0.00088879716 -0.001119695 0.0018558042 0.0028615876 0.00081467204 0.0014446509 -0.0022074948 0.003528758 -0.0036254162 0.0015953945 0.00018848844 -0.0009954016 0.0006627901 0.004918163
最後 0.0006522876 -0.00027619928 0.004780091 -0.00406445 -0.001837833 0.002933469 0.0042254464 0.00088386255 -0.0028142612 0.004819859 0.003518871 0.0026145328 0.0005922012 -0.0017645386 0.002636745 0.0026352312 0.0025651555 0.0028246178 0.0011334834 0.0028063827 0.0036637487 -0.0026532835 -0.0046262746 -0.0025463733 -0.0037828574 0.0014021915 0.0040897224 0.0027709492 -0.004085636 -0.002195207 0.00496916 -0.0015993568 0.0016185092 0.0030829613 0.00042289126 0.004899672 0.0033576214 0.0047211056 0.0029993951 0.0011365514 -0.0030570743 0.0007544576 0.0028882765 -0.002881931 0.001947339 0.002611977 0.0014411083 -0.0025266574 -0.0030605213 0.0021525535 0.004157379 0.0041644364 0.0020652907 -0.0040517678 0.0012127149 0.0020435266 0.004241773 0.0021769218 -0.0018182916 -0.002578886 -0.004664506 0.0019535548 -0.00095596426 -0.00018133252 -0.004786183 0.0015387717 -0.0012711314 0.003486475 -0.004367399 -0.0026007385 -0.004371755 -0.0006993852 -0.0010014636 -0.004999881 0.002470003 -0.001446644 -0.0018600479 0.0046623047 -0.00057002326 0.001202433 0.0009218469 -0.0012073964 -0.0030705514 -0.0042564175 -0.003629669 -0.0018527647 -0.003966938 -0.0029940992 0.004186511 0.002109619 -0.0008941442 -0.004353043 -0.00037007823 -0.0038112167 -0.0018607966 -0.0031718055 9.936325e-05 0.0026101528 -0.0026552654 0.0035876662
吵架 -0.0025493316 -0.0046388013 -0.0021488066 -0.0012743174 0.0026010005 0.003099007 -0.001961694 0.0014966913 -0.004021298 -0.0018205452 -0.0047570285 0.0006867879 -0.00020007792 0.0027601868 -0.0020012371 0.003186992 0.0040494553 -0.0010179073 0.0033262514 -0.0044402145 -0.0030758409 -0.0011471234 -0.0030939141 -0.00084699714 0.0012012445 -0.00017728122 -0.0029027127 0.00023344993 0.0030916638 -0.00133162 0.0016580698 -0.0011222536 -0.004620698 0.00041627433 0.004091104 0.00019690835 0.000925548 0.0011782002 -0.0019543194 -0.002421054 0.0043138852 0.0005841651 0.0013199559 0.0044590347 0.0010456659 -0.0025305538 -0.0028995022 -0.002710912 -0.000991417 0.0046271845 0.004571929 0.0046112617 0.0018854017 0.004636102 0.0031176913 0.00043317277 -0.00018444611 0.002836185 0.0037016878 0.003940736 -0.003027133 0.003632137 -0.004288781 0.004445855 -4.258644e-05 0.0034711866 0.0026079135 -0.0016540469 0.0011183361 0.004760092 -0.0007384243 -0.004002227 0.0031852785 -0.0033430858 -0.0013367787 0.0038733361 -3.8033722e-05 0.004965761 0.003619631 -0.0013678031 -0.003046106 0.0037073712 0.0026386944 -0.0034924466 -0.0010399632 0.0013827966 -0.002993046 -0.0040709022 0.0015037314 0.0006808906 0.002587555 -0.001720878 0.0022481135 -0.004656044 -0.0044004526 0.0026922459 0.001111574 -0.0030981372 -0.004390865 -0.0039739627
結束 0.003330914 0.0032578502 0.0014790241 -0.003762334 0.0039335066 -0.0024952886 -0.002905147 -0.0048686685 0.00064376334 0.002804354 -0.003412192 0.00026775573 -0.0020447387 -0.0016317663 0.0047844867 6.252987e-05 0.0032777376 -0.0017944359 0.003420063 0.00470901 -0.0032152424 -0.00046970494 0.0049495352 0.0032151341 -0.00026433225 0.00067517225 -0.0034075617 -0.0040951776 0.001726078 -0.0012955504 -0.0036754382 0.004756733 0.0010707643 0.00013533037 0.0019166288 0.0004778195 0.00013142228 -0.00085942406 0.004630471 -0.003624265 -0.0029230309 -0.0025477628 -0.0026587353 0.0007838094 0.0015950095 -0.0026524845 0.004369713 -0.00041783886 -0.004124087 -0.0009037791 0.00021625089 -0.002811219 0.0012874327 0.0005707432 0.0020967857 0.00395424 -0.00064384687 0.00415478 0.0042794943 0.003001679 0.002742687 -0.00044671405 0.002187829 -0.00019515134 0.0039747143 0.002505093 -0.00084637455 0.0038633307 -0.0033991619 0.0001773191 0.003258319 -0.0007648025 0.0011942841 -0.003363682 0.0022317201 -0.0006467448 -0.00491066 0.0042788195 0.0017648088 0.0016466638 0.0010176598 0.001807384 0.004193301 -0.0043633543 -0.0021803 0.0040258034 -0.0011348836 -0.0033294281 0.00334788 -0.0033420017 0.00033218216 -0.0010764883 -0.00033167316 0.0038050436 -0.00069151365 -0.0030348003 0.00086622336 0.003970076 -0.001752148 -0.0017234355
巴士 -0.00066416006 -0.001019154 -0.0003558592 0.0033263944 -0.0041382792 0.0005666923 0.0028153853 0.0032540956 0.004527569 -0.0035306942 0.0032553768 -0.0017673933 -0.0025051297 0.0042770533 -0.0027232224 0.0016113803 -0.0026435181 -0.004046046 0.0042977883 -0.0040035313 0.0029900498 0.0042995736 -0.0031680155 -0.0048519936 -0.0026217953 -0.0038868985 -0.0011137923 0.0008426581 -0.002099253 0.0049996497 0.0032923704 -0.0026696615 0.004112152 0.0020213248 0.0021353893 -0.003000183 0.002144218 -0.0047850106 0.0040557845 0.004216996 0.0010886792 0.0036213521 0.004982463 -0.0036030964 3.4863322e-05 -0.0025914544 0.0039613494 -0.004288254 -0.004180958 0.0015929142 -0.0033240293 0.0022851964 -0.0032167877 -0.00095920404 -0.0016437894 0.0012303581 0.0003278936 -0.0029934116 -0.0045450237 0.0021190634 -0.0007224089 -0.0022993397 0.0035487285 0.00036867632 -0.004916878 -0.0036235922 0.0013654395 -0.00042535062 0.0015404668 0.0040566283 0.004452626 0.0015762142 0.0040332666 -0.00313083 -0.0007465528 -0.004646686 -0.003717855 -0.0035814184 0.0023344865 0.0011813791 -0.003704314 -0.001397403 0.003197978 0.004638629 1.3780235e-06 0.00081915024 0.0024159122 0.0043999217 -0.0018194282 -0.0015515147 0.0003173453 -0.0005791308 0.00064578484 -0.0012218691 0.0034713112 -0.0038648194 -0.0004989686 0.00063596654 -0.00083576894 0.0013171574
介紹 -8.262007e-05 0.0010532116 -0.0005052863 0.0034037451 -0.0017243398 -0.0013003007 0.00057680876 0.0019414445 -0.0040463395 0.0029344303 0.004161164 0.0005230811 0.004771108 0.0019791697 0.0049360394 0.0043861726 0.0047708424 2.3727009e-05 -0.0017454167 -0.0046308795 -0.0005256654 -0.0032900232 0.001079664 -0.0023813865 0.0025027774 -0.0001212763 -0.0016483637 0.0009992411 -0.004472143 0.004473645 -0.002461155 0.0020671836 0.0022421025 0.0046353354 0.002814466 -0.0025064347 0.0022964075 0.0025572767 -0.0011222867 0.0012061305 0.003974342 0.0035192638 -0.001376677 0.0034865423 0.00019690568 -0.00055778155 0.0019234421 0.0013674932 -0.0015395561 -0.004666453 -0.0035643154 -0.0005944085 -0.00018475948 0.0034887798 -0.004761068 -0.00056101475 -0.004337201 0.0008879097 -0.0027674676 0.0010096185 -0.0042746924 -0.0011349978 -0.0018667878 -0.0037692594 0.0011337344 -0.004264161 0.0023462174 -0.00065589865 0.003982381 0.002752121 -0.0031542268 0.0030574587 0.0017271684 0.004078165 -0.004101145 -0.003478177 0.0020995506 -0.0013460136 0.0024598571 -0.003991527 -0.0020975915 0.0004052115 0.0021186376 -0.00037173944 -0.00032501234 -0.00019973305 -0.0035228017 -0.0026547522 -0.004986142 0.0004731543 -0.0036126056 -0.0019568899 0.0026277828 0.0011561215 -0.002495691 0.0015633091 0.00392517 -0.0018135431 0.0046928776 0.0026731659
中洲 0.0023327009 -0.0035207393 0.00048420118 0.0014007796 -0.0021223594 -0.0034282408 -0.0023211965 -0.004771486 -0.0025359176 -0.0043595284 0.0040366966 0.004320815 -0.0033633336 0.0018689737 0.0031006986 0.00031451948 -0.0039688065 -0.0030088369 -7.198822e-05 -0.0014312459 0.0046072975 1.7593247e-05 8.818385e-05 -0.0026783098 -0.0033833412 0.00079077174 0.00257956 -0.004557251 0.0044387453 -0.000839091 -0.0026849555 -0.004759935 -0.0048346245 -0.0022770113 0.004852395 -0.0020308893 0.00037447145 0.0011533942 0.0034972907 0.0036387274 -0.00046799533 0.0014661996 -0.002784196 0.003128173 -0.00038850322 -0.0038594613 0.0031563567 0.0028199202 0.0030947141 0.0008688002 -0.0008900998 -0.0032890998 0.00088270026 0.002346622 -0.00090603327 0.004933662 0.0043839784 -0.002658818 0.0045082737 -0.0046989378 -0.004208454 0.004337366 -0.0028311335 0.0015454855 0.0030427352 0.0011032122 0.0046552913 0.0009143516 -0.0018662373 0.0030192786 0.0005601439 0.0018390402 -0.0011823914 -0.0012300152 0.0022950107 -0.004605797 0.0038311887 -0.0034139056 0.0028574036 0.0015303146 0.0024723313 0.0022042687 -0.00366207 -0.0035641417 -0.0020218794 0.0024925675 4.4447712e-05 0.002287786 -0.0027834969 0.0038026199 0.0033985463 0.0003703661 0.0022370794 -0.004469225 -0.0006822498 -0.0018215292 0.003738785 -0.004435655 0.0029186867 -0.0017895869
西鐵 7.5301487e-06 -0.0016453617 0.0040029706 6.1268445e-05 0.004875464 0.004985554 0.0013756362 -0.00025686863 0.0018673098 -0.0024653613 0.00041317072 -0.0038271304 -0.0023968776 -0.0010080581 0.003113069 0.001767521 -0.00079770194 -0.0004997748 0.0020998868 0.0042136363 -0.0021472657 0.0035702726 0.0021286123 0.0030486928 -0.0043459265 -0.0030319924 -0.0012419668 0.0015271052 -0.0028601529 0.0038628874 0.0033312226 -0.004546987 0.004750281 0.0014162393 0.004297318 0.0034410413 0.0011809409 -0.0023281295 -0.004572907 -0.0042663473 8.5326355e-05 -0.002827063 0.00011221394 0.0042243646 0.00054742594 -0.0023697715 0.00035200838 0.0024679725 0.0006003428 -0.0025557217 0.002149295 -0.0037124164 0.003196248 -0.0008705608 -0.004041399 0.0041190507 0.0016028844 0.004857839 0.0038196999 0.0031322585 0.0025880202 3.378488e-05 0.001884636 -0.0029728934 0.0014904056 0.0027008224 0.00034451403 0.0029664172 -0.0026073037 -0.004918481 -0.0019676108 -0.0017869073 -0.0034754141 0.004024884 0.0007755901 5.162645e-05 0.0010703115 0.0031086062 -0.0044328207 -0.00242899 0.001870545 -0.0010647319 0.004857198 0.0049501993 -0.002340878 -0.0030591656 -0.00084339984 0.00409553 -0.0037290924 -0.00017841047 -0.0003644 0.0013593785 0.00038261205 0.0017855047 -0.001851018 -0.0043051154 -0.0026630713 0.0008508227 0.0017949422 -0.0011990184
INN -0.0019665917 -1.5751066e-05 -0.0033183466 0.0017022489 0.0028744896 0.0013544932 0.003266981 0.004758553 -0.00051496166 0.0033311325 0.001851599 -0.0026220016 0.00032079575 0.002348264 -0.0018731357 -0.00091790693 -0.0023835923 0.0047158175 -0.0012050299 0.0012813136 0.0037890528 -0.0013873656 -0.0041830973 -0.0032482743 0.0019056024 0.0036224732 0.0017004446 0.00086275337 -0.004725317 -0.00087524124 0.0026920557 -0.0019778677 -0.004632672 0.0038083242 -0.0009052848 0.0040237973 -0.004881481 -0.0027421175 0.0023978306 0.003167837 -0.0045172987 -0.00027953886 -1.2577669e-06 0.0048831813 0.0004725368 -0.0026536158 -0.001635684 -0.00017417026 -0.0015144756 -0.0034556806 -0.0030482104 -0.0031314 -0.004794495 0.0023088309 -0.00428245 0.0015547175 -0.004121327 -0.0036949099 0.0020469625 0.0023479618 -0.0035528457 0.0043871817 -0.0020289773 0.0019150672 0.0027836931 0.0027893847 -0.0015517178 -0.0029131249 -0.0003186992 -0.003368943 -0.002826246 0.0047601964 -0.004983954 -0.0015805159 -0.002646617 -0.004007242 0.0048816055 0.0019682855 0.0037428853 -0.0043574017 0.004943229 -0.0049441583 0.002286572 -0.0012572887 -0.0025976854 0.004285222 -0.003653406 0.00086466933 0.00074555946 -0.0044374703 0.001400166 0.0041137543 0.0006649235 -0.0016466401 -0.0008138612 0.0014908983 -0.004387681 0.0020983308 0.0042043254 -0.0013855895
天神 0.0018858277 -0.0017880205 0.0028377762 0.0018340443 -0.0019265763 -0.0007218413 -0.00058742415 -0.0006049592 -0.004866881 0.0047957134 -0.0021795963 -0.0037591255 0.0049137413 -0.0036284542 0.0047174254 0.0025346403 -0.0039731134 -0.00020732767 -0.0008346015 -0.004213263 -0.0031759916 -0.0047664437 -0.0006407536 0.0027258063 0.0010209412 -0.0016826651 -0.0027172707 0.003645191 -3.570476e-05 -0.0043199533 0.00017606157 -0.0027468372 0.0041430625 -0.0029207482 0.0034188807 0.00092169025 -0.0031967654 -0.0032991334 0.002451072 0.0036331231 -0.0014804002 -0.004729323 0.0020841237 -0.002603724 0.003894161 -0.0017416922 0.00068212266 0.0020970025 0.0007269931 0.0022481156 0.0025746957 -0.0022991342 0.0049025062 0.0036447113 -0.0043210024 0.00092859956 -0.0014461298 -0.00482813 -8.794332e-05 -0.0039257235 0.001950999 0.0010516334 -0.0035638849 -0.0026012503 0.0008273199 0.0036930756 -0.0024663527 -0.0009769887 -0.0043389197 0.0036265135 0.004308913 0.0031119902 -0.004269336 -0.004004 0.0036948093 0.002183792 0.0030428392 0.0041982075 -0.0031433282 0.0035669985 -0.001286191 0.0017618948 0.0032016924 0.0018709648 -0.0012882556 0.004598064 0.0035003065 -0.0011598279 -0.0040388694 -0.00027324993 0.0029479917 0.0031518922 0.002110509 -0.0027950434 0.004788708 -0.0035321543 8.910763e-05 -0.0031652215 0.002118172 -0.0031393524
排隊 -0.00069214485 -0.0023287872 0.00066165143 0.0025645203 -0.0020632606 -0.004333906 0.0041111456 -0.0039884187 -0.0028632474 -0.0018144523 0.00088812585 -0.0041585844 0.004329635 0.002583573 0.0011026734 -0.0028391897 -0.0020069121 0.000115366645 -0.0003853101 -0.0037269471 0.0028422675 0.0027507232 0.003969523 0.004897449 -0.0027842342 0.00093226304 0.002235546 -0.0034552272 0.003277938 0.00240688 0.00021769023 -0.0018860153 -0.002578897 -0.0002032384 -0.0034863758 0.0006373709 -0.0001993898 -0.004579574 0.00080267695 -0.0037229015 0.0027548575 0.0015293416 -0.004156095 0.0040905164 0.0018198865 -0.0002535225 -0.00062640256 0.0033314454 -0.004837468 -0.003175994 -0.0024558355 -0.0018047431 0.001692898 0.00088644965 0.0008803013 -0.004224732 7.930837e-05 0.0022737102 0.0033045635 0.0036579452 0.0032182871 -0.0023657975 0.000376669 0.0030399263 -0.00027166193 0.0018449307 -0.0030928603 0.004316056 0.0047968365 0.0043652477 -0.00014345009 -0.002567424 0.00022399964 0.0012345602 0.0001561302 0.0042716837 0.0041667386 -0.0038841015 -0.0018830083 0.0025699113 -0.0028401597 -0.0039148577 -0.001630962 0.0005615534 -0.0016563602 0.0015797439 -0.0036974102 0.0027081717 -0.004646602 0.0010996388 0.0015512896 0.002685223 0.00013238276 -0.0035084304 -0.0049676877 -0.0015917604 -0.0017121035 0.0024455583 0.0029085402 -0.00497419
環境 -0.0037191738 -0.0014198876 0.0031536918 -0.0036730133 0.004306779 0.0007205767 -0.0022827822 0.002765638 -0.002923352 -0.0004899376 0.0016957644 -0.0017261683 -0.0041815094 0.002931105 -0.0037880722 0.00495713 0.0006002211 -0.0022307066 3.1195166e-05 -0.0041270987 0.000540942 -0.004883961 -0.0022595888 0.0038370332 0.0011882412 -0.0026180022 -0.0011563597 -0.00066674245 0.00048249625 0.0048561017 -0.0018469464 -0.00062717486 -0.0034361938 -0.004808799 -0.0044568977 0.0043333108 -0.002799582 0.0028957804 -0.0001690481 -0.0015719818 -0.0037067893 -0.0049282024 0.004535589 0.0026117458 0.000166446 0.0010394456 0.0025316197 -0.00074931525 0.00481123 -0.0037201834 -0.0020071594 -0.0004647964 0.001977258 -0.0034294405 0.00042776167 0.00088097935 0.0018338754 -0.0020681885 -0.00025323394 -0.0030595446 -0.003285353 -0.0041641844 0.004725708 0.003438494 0.0006053946 -0.004347309 0.0033688357 -0.0020813006 0.0018169703 0.0005575036 0.0031923233 0.0034407962 -0.00054631406 0.002220199 0.0026135435 5.923913e-06 -0.0023693584 -0.0018964331 -0.00059125636 -0.0038284801 -0.0020059769 0.0007397152 0.00031216143 -0.002924936 -0.002255115 -0.0040621636 0.0012463398 -0.00015468468 0.00018415334 0.0015882435 0.0047570625 -0.0024071878 -0.0047573005 -0.0018198157 -0.0014673157 0.0027780032 0.0010878341 -0.00064853765 0.00047473112 0.0007824539
部分 -0.002363141 0.0031137457 0.0020677845 0.0014102616 -0.0037349605 -0.004231291 0.003142739 -0.0039703907 0.0036466457 -0.0034231395 0.0006959227 0.00010305564 0.004479724 0.0011285675 0.0027085948 -0.0019760202 -0.003619595 -0.003794889 0.00044821049 -0.0021508033 0.0013546658 0.004530116 -0.004775216 0.003012608 -0.0019587053 0.0013688523 -0.0028570911 0.0006747269 0.0012676503 -0.004869706 -0.0046112044 -0.0022589096 -0.0003295137 0.0010662101 -0.003992453 0.0019767017 -0.0035126235 0.003407813 -0.0027658732 -0.0010554213 -0.0006964448 0.0046552764 -0.0008214452 0.004511563 -0.001252055 0.0016834794 -0.0039674533 0.001999803 -0.0039435704 0.002233708 -0.0041833892 -0.0023848938 -0.0037410231 0.0039359187 -0.0045918054 -0.0026782372 0.0016404282 -0.004039961 -0.004434213 0.004755784 -0.00055616733 0.0023836072 -0.0031058998 0.004894249 0.0022082138 -0.004933933 0.0034951167 -0.00044165473 0.0036354004 0.0020221309 0.0006226198 0.0021381304 -0.0020693447 -0.0010595844 -0.0004974224 0.0029531573 -0.001971997 -0.0026755326 0.0010077165 0.0034623027 -0.00043945762 0.0011343352 -0.0049842605 0.004927909 -0.004357449 -0.004214002 -0.0030540323 -0.0009450942 0.0029784015 -0.004700366 -0.0016767593 0.004943238 0.00271159 0.001961786 0.002361842 0.0027023768 -0.0016471245 -0.0036871247 -0.0003639731 -0.0029344775
回程 -0.0020909228 0.0033450373 0.0045481096 0.001212715 -0.0022859627 0.0043470827 0.0012203858 -0.0042478666 -0.0028600362 -0.0034446851 -0.001330542 -0.0033427393 0.0041861865 0.0017248784 -0.002679737 0.0037136602 -0.0024541742 0.0018218429 6.640799e-05 -0.0010121012 0.0009432791 -0.0033437028 0.003443347 0.004526759 -0.0046806806 -0.0019779322 0.0045591714 0.0043971217 0.004810732 -0.0028797935 0.0030340196 0.00037796065 -0.0019152036 0.0035977247 0.0049947784 0.00441284 0.0018558465 -0.0039320523 0.0023158367 -0.0009958993 0.0020286418 0.0033195787 -0.0022773677 -0.0034631565 -0.0014034101 0.004418701 -0.0013710218 -0.0048073293 -0.001914645 0.00404605 -0.004687027 0.0042628255 0.0042516445 -0.0037642494 -0.0030021758 0.0046877475 -0.004630627 -0.0019084195 -0.0037886254 -0.0005548496 -0.00012847426 0.00012443373 -0.0018859464 -0.00040062386 0.004593022 -0.002335805 0.001825037 0.0045275944 0.0044081956 -0.0017623731 0.00013273071 -0.0014194234 -0.00034577056 -0.0019019508 0.0005786848 0.00054504635 -0.0042814827 0.0045756297 0.0014292119 0.0039856536 0.004842073 -0.0014698557 0.0013377756 -0.0033827631 0.0023710595 0.002153352 0.004174362 0.003908458 0.00021257029 -0.00096184935 -0.002286725 -0.0013561043 -0.0041938806 -0.0047184844 -0.0044235983 0.0013695208 -0.002499663 -0.001401575 -3.820951e-05 0.0048310193
先 0.00021981573 -0.0014235215 0.0025300959 -0.004480387 0.0017080781 0.00030162308 0.0021483353 -0.004635868 -0.000894536 -0.0035652805 0.00059075654 -0.0030176071 0.004040947 0.003860465 3.5549012e-05 0.0024737727 0.0033796374 -0.00351865 -0.00016760436 0.0022311904 0.0037645123 -0.0017939892 0.00052441546 -0.003700072 -0.0030069186 -0.004860389 -0.0049859304 -0.0006797937 -0.0043008626 -0.0047906097 0.0023691596 -0.0014796064 0.0037947127 -0.002448943 0.0023348057 -0.002604843 0.0038737615 0.0006598125 0.001216566 0.0035240853 0.001220134 0.003990525 -0.002493492 -0.002795144 0.003640374 -0.0006444271 0.002427306 -0.0012068211 -0.0049373894 0.0035718025 -0.00024581252 -0.0011456215 -0.004380688 -0.0025449125 -0.0041053053 0.0005765743 0.0025016174 0.0014963041 0.0005870459 -0.00091564195 -0.0008029928 0.0026045504 -0.0047258143 -0.002371381 0.0015690675 -0.0022582156 -0.00029695086 0.003868384 -0.0004597932 0.003885851 0.0039845733 0.0046938327 0.002266719 0.0030702585 -0.0038765846 -0.004627065 0.0015733041 -0.0024799856 0.0041130036 -0.0036211864 -0.0029371306 0.0018875385 0.0023058828 0.003707249 -0.001996062 0.00012918297 0.0011186509 0.0009710332 0.003063023 0.004189323 0.0048238714 0.0043004304 -0.0029056466 0.0004927683 -0.002816915 -0.0046069105 0.0041715326 0.0012999097 -0.0016973924 0.0033600577
回到 0.0038243148 0.003986172 0.0028921203 0.0015930319 0.0004947758 0.00028965026 -0.003639822 -0.0023785473 -0.0030656545 0.00025730772 0.0016799127 0.002869245 0.004823859 0.00026612813 0.0017361256 -0.0047018547 0.0030152649 9.663402e-05 0.0025984258 -0.001662976 0.0025115968 -0.0039818445 0.0005356018 -0.0036372573 0.004093372 -0.0025437218 0.0033451128 0.0032833058 0.00012500909 0.0044536605 0.0046869456 -0.0001363481 0.00061757973 0.0003256704 -0.0006716426 -0.0036219365 0.00054974 0.0027939167 -0.0045128157 -0.0045611495 -0.0010956507 -0.004703292 -0.0034720425 -0.0047513507 0.003967625 -0.0006864 -0.00019739095 0.00075851724 -0.0014725794 0.0002545239 -0.00166894 -0.0006523421 0.00089635927 -0.0011245235 -0.004072856 -0.0034555984 0.0002762876 0.0010610237 0.00017741956 -0.0015211314 0.0037034058 0.0024832312 0.002295242 -0.0005232529 -0.0033159168 0.0013954588 0.0014844525 -0.0019447915 -0.0014219197 -0.0011097761 -0.001217674 -0.0010541165 0.0039063958 0.0023301048 0.0018604135 -0.004397291 0.0047978773 0.00014717305 -0.0044951416 0.0019886706 0.0019699112 -0.0048870114 -0.0031734728 0.00059772265 0.001972664 -0.002425973 -0.0043268977 -0.0018002429 -0.003804531 0.001459476 0.004507549 0.002380727 0.0012571877 -0.0042246026 0.0036976072 -0.0005944518 -0.0039646123 0.0045300084 0.004896227 0.0043288395
喝酒 -0.0007124733 0.0019151764 0.0030613462 0.0014063354 -0.0018398636 -0.0022751326 0.004359878 -0.0011285123 -0.00050919794 -0.0036019662 0.0044058342 -0.0036174955 -0.0020504007 -0.0002983511 -0.0004591432 -0.0014960082 -0.00052322383 0.004204687 -0.00011187181 -0.000270018 0.0035437113 0.00064166484 -0.0025830178 -0.0028069871 -0.0005140015 -0.000127139 -0.0033316868 0.00253899 0.0047412985 0.0005980302 -0.0026101186 0.00059197954 -0.004083969 -0.00395443 0.001278565 0.0041381666 -0.0035704144 3.9629016e-05 -0.004481552 0.0029352782 -0.00490481 0.0033948414 -0.0031020702 -0.0002936265 -0.001910613 0.002482137 0.0028311997 0.004559308 0.0038501685 0.0047739595 -0.0036730184 0.0045210784 -0.004771133 0.00021113454 0.0026695195 -0.0019662164 0.0027145585 0.003936819 0.003330192 -0.0034396374 -0.0006978245 -0.0026207927 0.0041187955 -8.043188e-05 0.0017168014 0.0019190187 -0.00472525 -0.0017241648 0.0016019203 0.003422266 -0.0004958506 -0.0007662785 0.0035194322 0.0026093621 -0.00045225563 0.00027089674 0.00088384986 0.00063975167 -0.00087188947 0.0021671122 -0.0017990926 0.004517893 0.0005479079 -0.0020174559 0.000101143494 -0.0007059123 0.0021443784 0.00357562 -0.0036805368 0.003839545 -0.0014240904 0.0006591375 0.00019924785 0.00049448 0.0040709 -0.0009811658 -0.0011285011 -0.0026294182 0.0048260554 0.0013134155
蝦 0.0038674814 0.0009496111 -0.002799179 0.0024261666 0.0011146013 0.001014603 -0.0012902664 0.0011574195 -0.00048585655 0.003598026 -0.004218521 -0.004902186 -0.001533325 -0.0035420225 -0.0047474215 -0.004932943 -0.004056651 0.00028098118 -0.0014144423 -0.004141002 0.0003689046 0.0029828541 0.00053295796 -0.0043751146 -0.002372671 0.0019009246 7.192709e-05 0.0018954062 -0.0032390675 0.0049263816 -0.003688433 -0.0024702735 0.00031171096 0.00426051 0.0031405159 -0.003906751 -0.0043551526 0.00017134486 0.002294922 0.0035936222 0.0035171506 0.0038762563 -0.00286845 0.0033397858 5.2861674e-06 0.00250399 0.0025975339 0.00040230458 -0.003040101 -0.001591206 0.00059280085 0.003636762 -0.00019210906 -0.002887672 0.002532444 -0.003233886 0.002355659 -0.0006691831 0.003503648 0.0022227073 0.001996081 -0.00010616676 -0.00091168506 -0.0019489946 -0.0006817425 0.0009844544 -0.00053045363 0.0027089682 0.0013685884 0.0023646096 -9.876647e-05 9.120637e-05 -0.0047941767 0.0013449743 0.002125772 -0.0046329657 0.0049579656 0.00065534265 -0.0021445325 0.0018259556 -0.004830825 -0.002947307 0.003056175 -0.004878821 -0.0041876226 -0.0048192493 -0.0017525957 0.0030069198 -0.004905362 -0.003665413 0.0019153067 -0.00039861092 0.0028949198 -0.0043046707 0.0042533325 -0.00036360172 -0.0020641834 0.0010303275 -0.0017341994 0.0028256804
倉山 -0.0046533067 0.0027003987 -0.00197442 -0.0035057566 0.0035467006 0.0038137408 -0.0008857565 -0.0010170591 -0.0038369456 -0.0009891663 0.003498214 -0.0014405319 0.004941384 -0.0049231015 -0.00044201835 0.0003342626 -0.0043933205 0.004201762 -0.001284568 0.00027964683 0.00075386645 0.003870121 -0.00010604863 -0.00013128456 0.0024546834 0.004938355 0.001149929 -0.0042341496 -0.004452947 0.00094346254 0.0007308875 0.0008638125 -0.0010520394 -0.0034681722 -0.0018304175 -0.002554433 -0.00023526263 -0.002212185 -0.0040420755 0.0044314414 0.0029314212 0.0043173265 0.004521008 0.0009004864 0.0014651744 -0.0048921197 -0.002794458 0.004914813 0.0017441431 0.0036490809 -0.0010686779 0.0043706014 0.0016703093 -0.0024490175 -0.0005348901 -0.0045256256 0.0026567236 -0.00012483308 0.0032646018 0.0034644336 -0.0030264119 -0.002209392 -0.004661607 -0.000775833 0.003931323 0.00028856425 0.0013752539 0.0046737674 0.0039138016 0.00087455125 0.004010812 -0.003453062 0.0013622204 0.00018160959 0.001266339 -0.0046706274 -0.0023186014 0.0043518287 -0.002749819 0.0036260616 -0.0029612735 0.0019488872 0.00029215444 -0.00087572617 0.0049654506 -0.00445039 0.002579209 0.0015185067 0.004670739 -0.0012917414 0.003477349 0.0023303942 0.0013134982 0.0003239186 -0.004044246 0.0014837421 -0.0012788128 0.00096379087 0.0032266139 -0.0028338588
早點 -0.0009701037 -0.004557843 -0.0026439985 0.0035339727 -0.0025326838 -0.000612526 -0.0040660296 -0.0018324084 -0.0005111476 -0.0021544953 0.00229316 0.0037644333 -0.0024061294 0.0022025805 0.0048811627 0.002456386 0.0039380067 -0.0021104822 -0.0031745776 0.00068200554 0.0021296127 -0.0045704166 -0.0045351717 -0.0033699127 -0.0014562272 0.0006578259 -0.00086813944 0.0027788365 -0.0043556327 0.0013822018 0.0004737384 0.00086269324 0.004689206 -0.00011254272 0.0029720943 -4.7739497e-05 -0.0018186168 -0.0039636977 -0.0039844415 0.0022200344 0.0030772649 -0.0015418484 -0.0013297878 0.0020122037 0.0008222513 0.00082568935 -0.0028451574 0.0020124759 0.0003504936 -0.00061935006 0.001858461 -0.0047274334 0.0018500896 -0.0011931427 0.001640089 -0.004793084 -0.0032855354 -0.003993821 -0.004227833 -0.0034937744 -0.003478595 0.0045259786 -0.0015659896 -0.0030104711 0.0008329082 -0.0028296849 0.00233672 -0.003898659 0.00074355263 -0.004948529 -0.004221521 0.0037256517 0.0019732784 0.0006457389 0.002278572 -0.0011501828 0.004296515 -0.0021756855 0.0043307273 -0.0008499026 0.0047812634 0.0001152457 -0.0011700543 0.00051088736 0.002391645 -0.0006405808 0.004566236 0.0021783246 0.003863468 0.00059087505 0.0006912185 0.0022675453 0.00090634194 -0.0036897864 -0.0025484588 0.0037663004 -0.0010070364 0.0016920366 0.00087028096 0.0016468095
新鶴田 -0.0027376194 -0.003236385 -0.0049961475 -0.003404428 -0.0044212923 -0.0036010635 -0.001889353 -0.0011079918 0.002618757 0.002636375 0.0011092344 -0.004483445 -0.0045551457 -0.0036849831 0.00010277073 -0.001325658 0.0046156365 0.00089192064 0.0036214709 0.003911852 -0.0006487865 -0.001309642 0.004759418 -0.0012773661 -0.0013681172 0.0014386069 -0.0020352132 -0.003882489 0.0049343887 -0.0016228715 0.0014523525 0.004252446 -0.0040946114 0.002315525 0.0011073495 -0.0020409015 0.0028300418 -0.002800716 0.00032283505 0.0020362418 -0.0032954228 -0.0026393796 0.0022994007 -0.0034673626 -0.0008156719 -0.0027901784 -0.0029441332 -0.002907882 0.00019223576 0.00071762525 -0.002594186 -0.0036661336 -0.00078534614 0.0030815764 -0.004821062 0.0030252326 0.0034433072 -0.0025392934 -0.002269259 -9.2015085e-05 0.004028051 0.0034947754 -0.0040389528 0.00092107506 -0.002588061 -0.00413022 0.0009700479 -0.0024916593 0.004716032 -0.0028192513 -0.00015204538 0.003597601 0.0020727075 -0.0010433436 -0.0028529526 0.0046378695 0.002178877 0.0033386692 -0.00029469538 0.0021482757 -0.0030928387 0.00343602 0.002157961 0.0047658337 0.0004903794 0.0047390508 0.0014772764 -0.002676369 0.0016617291 0.0046803327 -0.0039521307 0.00079431024 0.00027460308 -0.003641415 -0.00054899295 0.003240626 -0.002381273 0.003312153 -0.0012566372 -0.0014632955
溫泉 0.0009771258 -0.0029523256 -0.0025702587 -0.004318599 0.0042302455 0.0015848873 -0.00034232333 -0.0036573708 0.0035863922 0.0022880025 -0.0002378497 -0.002626328 0.00015593965 -0.003020358 -0.0048219915 0.002352325 -0.00391517 -0.002324085 -0.0013154334 0.0034185888 0.002854045 0.002746372 0.0019786658 -0.0020175849 -0.00019497541 -0.0038665666 -0.0047627096 -0.002344438 2.1996977e-05 -0.0018239768 0.0024144133 0.0011901342 -0.0011804989 -0.004579742 -0.0022955039 0.00343541 -0.004467749 0.0030710232 0.00014090182 -0.0012404517 0.0026785992 -0.001820428 0.0009969765 -0.0020941691 -0.0038666208 -0.00330453 0.00031362326 -0.0017881428 -0.0012489889 0.004693416 0.0026687565 -0.0017599525 -0.0038281586 -0.00070625934 -0.002391732 -0.0013624582 -0.00426865 -1.0639033e-06 0.00049888506 0.0013951246 0.0016839306 -0.0027642075 -0.0026047411 -0.000396378 0.001825896 -0.00398117 -0.00016762663 0.001844498 4.722072e-05 0.0030973738 -0.0007633828 -6.775701e-05 0.0005861491 0.0034045463 0.0004476215 0.0012221044 0.0007038583 -0.002269204 0.0038364667 0.0015474503 -0.001086498 0.00225712 -0.00072341214 0.004252944 0.00014497006 -0.00019946582 0.00015039065 0.0022853764 0.0032984174 -0.0027628075 -0.003992259 0.0003160236 0.0034740025 0.0019829993 0.0003197181 0.002241873 -0.00032727304 0.0002631038 -0.004012461 0.0034891327
房價 0.0007704003 0.00051629706 -0.003295657 -0.00268189 -0.00079237006 0.002005216 0.002422477 0.004048359 -0.0016414855 0.004406754 0.00043298004 0.002076376 0.002213343 -0.003469548 -0.0032609806 -0.0034083894 -0.0031747837 0.0011452145 -0.0012821311 -0.003871738 0.00042678122 0.003065032 -0.0043520723 0.00047442247 -0.0032947992 0.003235065 0.0019945235 0.0027261851 0.0039192606 0.0007687118 0.003634105 0.00343961 0.0036239314 -0.0014049213 -0.0022429407 -0.0032059797 0.0017443262 -0.0017629827 0.0007937411 0.0019682692 -0.00276072 0.00071141246 -0.0028775092 -0.0043607964 0.0018990599 0.003957139 -0.0036601205 -0.00049470714 0.0021292127 0.0011737766 -0.002410546 0.00086679775 -0.0014119239 0.002873767 0.0030698087 -5.474538e-05 0.002256182 -0.0048850123 -0.0043944707 0.0042855246 0.0023418998 -0.00083664374 0.00060501584 8.9455665e-05 -0.0022719204 -0.00022461367 0.0003921269 0.0007237874 0.002423361 0.0020308674 0.00051041757 -0.0008884897 0.0044092136 -0.004979524 -0.0026206546 0.0046816864 0.0038442488 0.0025204376 -0.0015276438 -0.0023285276 -0.0020220394 -0.0010097891 0.0031767597 -0.00011594077 0.001898161 0.0033019097 -0.0013632732 0.0015970906 -0.0038154263 0.0008523087 -0.0012865427 -0.003257378 0.0045333495 -0.0008594611 -0.00077771314 -0.0003578284 0.00083125004 -0.0005257191 -0.003344288 0.0048044547
便宜 -0.0002724047 -0.0024543277 0.00033981327 -0.00079696014 -0.00082531903 -0.0024138566 -0.0012666831 0.0005845824 -0.001858563 -0.0011247301 0.0018988206 0.0024879763 0.004872945 -0.0020802715 0.0037970203 -0.0016598359 0.0029425074 -0.0005823446 0.0045781415 -0.00027046382 -0.0040461295 -0.0019927076 -0.0011024099 -0.000534413 0.002379166 -0.00027049513 0.0026133035 0.0028826022 0.004146691 0.0034051016 -0.0047856383 -0.00069481385 -0.0030807806 -0.004905069 -0.00013355343 -0.0004267687 -0.0014747934 0.00033491963 -0.0037446248 -0.0012894239 0.0013799788 0.00029939497 -0.0011542173 -0.0026154101 -0.0008757153 0.0008908316 0.0019257002 0.00249722 -0.0032047592 0.0019112717 -0.0017500476 -0.0010508687 -0.00043942075 0.000532186 -0.004515407 0.0015917188 -0.004238885 0.0030018173 -0.00018668686 -0.0022136837 -0.0027255726 0.002148161 -0.0014329157 -0.004879478 -0.0010491159 0.0012202421 -0.0015655326 -0.0017141418 0.0026544605 -0.004198708 0.0018633615 -0.004259567 -0.002666044 0.0039755492 0.002155949 -0.0016000171 -0.00021457746 -0.0003723871 -0.004214488 0.0011734813 -0.0043450645 0.00026940284 -0.0030146644 -0.002848318 0.0047926735 0.0036884292 0.0049813134 -0.00065580953 0.004691103 -0.00040043562 -0.0013460894 -0.0032742324 -0.004824127 -0.002185855 -6.0536844e-05 0.00082452287 -6.6107794e-05 0.004424945 0.0015489196 -0.0003614955
上越 0.0010716221 0.0018240074 0.0043178294 -0.0011266329 0.0023258692 -0.0023722923 -0.0033055372 0.004846123 -0.0008009347 0.0015520012 0.0048805824 -0.0049402486 0.002222093 0.0049370374 -0.0028688556 0.0046034553 -0.0027944224 -0.0048119617 -0.0023074301 -0.0038670946 0.0048419763 0.0019957465 -0.003693461 0.0014790964 0.00058213575 0.0039266427 -0.002484434 0.0044576093 0.004740455 0.0046689226 0.004136958 0.000983642 0.001075474 0.004119444 -0.0040179607 -0.0030294121 0.003932359 -0.0014820596 0.002000434 -0.0040582027 0.0038541767 -0.0007348254 -0.0038090902 -0.0027349924 -0.0036418904 0.002082466 -0.0049558314 0.001270911 -0.0020454593 0.002237793 0.0017350063 -0.003955278 -0.0003663109 0.004760245 -0.0025636184 -0.0010761764 0.0028310735 -0.0003019665 0.0040455004 -0.0043369746 -0.0037100313 0.004102051 -0.0011896532 -0.000898687 -0.0028516715 0.0043381043 -0.0007108559 0.0035986542 -0.0023982218 0.0009898352 -0.0012035796 -0.0038433108 -0.004517123 0.002741607 -0.0005766053 -0.0015657006 -0.0033844616 0.00015495384 0.0034553998 0.00028673382 -0.003112741 -0.00381839 0.0041277516 2.7522594e-05 -0.0010517954 0.0008417379 -0.0017560503 0.0005192354 0.0045766337 0.0024926404 -0.0035148768 0.004857863 -0.00159594 0.0013998041 -0.0036012528 0.00423429 0.00094608037 0.0008089727 0.0018611351 -0.0048251147
新潟 0.00059136364 -0.0010312953 0.0020016634 -0.002054153 -0.003419998 0.0035487877 0.0029099472 -0.0015320334 0.004133121 -0.0014683716 0.000108606706 0.0049450225 -0.0032211598 -0.0037789287 -0.004439507 -0.0045023276 -0.002108793 0.0010280492 -0.004163502 -0.0011846274 0.004648717 -0.0046736565 -0.0027407121 -0.0028101536 -0.0019027042 -0.0026665982 -7.265122e-05 0.0012177652 -0.003389904 0.0015096868 -0.0010807856 0.0006294956 -0.0049309065 -0.0011791541 0.0029714825 -0.0041739647 -0.0012711616 -0.0017367977 0.003983283 0.00477455 0.004061168 -0.0036792946 -0.0012095749 0.0006784476 0.0019962597 0.002927191 -0.0018531041 -0.0011551393 -0.0035936835 0.00014881864 0.004550674 0.004356464 0.0033123393 0.0019728069 -0.0015445524 -0.0030957547 -0.003079089 0.00016797752 0.0040463675 0.0038524996 0.0013410746 -0.0042658853 -0.0009922145 -0.003140549 -0.0009313508 -0.0017673397 -0.0040080245 -0.0045695966 0.0011523049 -0.0019981011 0.0041768076 -0.0043254048 0.004725533 0.0012493876 0.0045221956 0.0018316241 -0.004609032 -0.00025797664 -0.0017897787 -0.0030152476 0.0048726024 -0.0046165395 0.0018249605 -0.0010706893 -0.0009913746 -0.0015938629 -0.0033507838 0.003553155 0.0024812361 0.00090444396 -0.0036031036 0.0024704766 0.00024148781 0.0037962978 0.0038701645 0.0040396466 0.003006334 -0.002094165 -0.00034634623 -0.0032566716
Class 0.0028025892 -0.0014118525 0.0038105173 0.00357393 0.002803762 -0.0038394372 0.0032806322 0.0045326613 -0.0030320948 -0.0011579208 0.0037476956 -0.004515797 -0.0040337243 -0.002920896 0.002807436 0.0014479975 -0.0024405764 0.0011929984 0.00041691953 0.0023545998 0.0031364458 -0.0011071302 9.4488874e-05 0.004125697 -0.0049071326 -0.0040742466 -0.0037598612 0.0007210463 0.00065201253 -0.0018881815 0.00095137145 -0.0034855686 0.0045419545 -0.0036139558 -0.0029557713 0.0047300556 -0.0041248705 0.0025924689 0.0016800876 0.0004560254 0.0011525506 -0.0005844438 4.48697e-06 -0.0031941696 0.0020834198 0.0032927904 0.0018334317 -0.0022972007 0.0037869874 0.0042420374 0.0035454647 -0.0035597896 0.0007938655 -5.9597085e-05 0.00063045055 -0.0030099 0.003811874 0.0007186038 1.21590765e-05 -0.0028470543 0.004023867 -0.0040631983 5.8557776e-05 0.0018414707 0.0014530981 -0.0028200627 -0.004460049 0.0025721453 0.0020201309 0.0035160494 -0.0038077654 0.004211902 0.0034549606 0.0034861907 0.0017905335 -0.0040237545 -0.0024662083 -0.0039196834 0.0013244228 0.0009507125 -0.004398933 -0.0019135495 -8.155218e-05 0.0027521376 -0.0002331727 -0.0012154401 0.004267838 0.00068380754 -0.0023126618 0.0047235116 -0.002638441 0.0004895939 -0.0011038824 -0.0049582003 0.0047615482 -0.0033743712 -0.0023349074 -0.0024467472 0.0019095304 -0.0037952312
同事 0.0009060151 -0.004457485 -0.0018437365 -0.003468573 -0.00015493199 0.003294166 0.0012237115 0.0011631745 -0.0022238223 -0.004792565 -0.00093728845 -0.001970094 -0.0037464371 0.004459152 -0.0015205423 -0.00088144006 0.00026110184 0.0009522731 0.002089142 0.0015380289 0.0017574175 -0.0035639133 -0.001021033 -0.0030239613 -0.002186583 0.0049090614 -0.0044588293 -0.0030865213 -0.0004699096 0.0012632149 -0.0006341375 -0.0014184647 0.0033824453 0.0022813366 0.0026256475 0.0025583995 0.001280811 -0.0007585589 -0.0020415965 0.0012429936 0.00018809267 0.000115638555 -0.0012671851 0.0021704105 0.004460411 -0.0017212641 -0.003961294 -0.0006941572 0.00053787016 0.0015283412 -0.0049617845 0.0012282351 0.00094613887 0.00037394345 -0.0018161244 -0.0027754288 -0.0045664613 -0.0031258427 -0.0038573563 0.004185186 0.004612182 -0.0021092773 -0.0039351373 0.002978528 -0.0027261525 -0.0009186753 0.002015458 -0.0036104152 -0.0036015084 -0.0006222445 -0.0009585579 -0.00013017717 -0.0005253413 0.00035022973 -0.0030364802 -0.0044710096 -0.0033811931 0.0023623784 0.00025813762 0.003822352 0.0020433466 0.003117927 -0.0020754463 -0.0041473457 0.0046176882 -0.0005402503 0.0026133922 -0.0035683105 0.0020756794 -0.003404369 -0.000506085 -0.0028223626 -0.0012244015 0.0003030126 0.0026361856 -0.0015721477 -0.0022156509 0.0007079398 0.0037885415 -0.004133199
北九州 -0.0023727035 -0.0010204654 -0.0023767932 0.0027390574 0.004066293 -0.0015734194 0.0017798073 -0.0038708486 -7.40829e-06 0.0005839878 -0.0029550155 0.0018131324 0.0016061248 0.0027873102 -0.002619827 -0.0005474592 -0.0011816788 0.00037838187 0.002707425 -0.0042990693 -0.0030940953 -3.86099e-05 0.00054893945 -0.0004513525 0.0018594874 -0.0032880332 -0.0033706233 -0.00058776553 0.0002686068 -0.0011808692 -0.0022303516 0.0017692469 -0.0037902633 -0.001609935 0.0047552455 -0.0019658396 0.0033795412 0.00276888 0.0038842617 -0.0034544168 0.0016807249 0.0025059718 -0.0004667513 -0.0032799144 -0.0016473675 0.004518703 -0.0025526893 0.002054726 -0.0019262984 -0.002767904 0.0012819184 -0.0003466696 -0.0019937672 0.0038259777 0.0049623144 0.0019099675 0.0007000084 0.0020291063 5.5833123e-05 0.0015748113 0.0040023522 -0.0011869265 -0.0040870826 0.0019380893 -0.0027073368 -0.0003751823 0.0017566902 0.0043071723 0.0016856296 -0.0032726016 -0.0035694272 0.004706434 0.00025484993 0.0015147126 0.0004870808 0.0029726634 0.0037484933 0.0014467761 -0.0033809326 0.0034130733 -0.003649586 -0.004709599 0.0046628406 0.002316956 -0.0039916197 0.0029131428 0.00085034716 0.00011042081 -0.0009861321 0.0024908166 -0.0037643712 -2.2529917e-05 -0.0033036864 0.0040444224 0.0001360105 -6.272001e-05 0.0025759242 -0.0013188627 0.0045935637 0.004829156
增加 -0.0021660964 0.0005768029 0.0030605206 -0.0030632545 -0.0018021684 -0.0040019513 -0.0008904274 0.0043275678 0.0039192955 -0.0019577486 0.00410115 -6.0201583e-05 -0.0014546264 -0.0015558891 0.0045147287 0.0019187913 0.0022689458 -0.0012656981 -0.0025799975 0.0015193627 0.0016124167 -0.0023329197 0.0029077744 -0.0048400373 -0.0044591897 0.003335028 -0.0033670727 0.0032020623 0.0032776077 -0.0037204914 -0.0020302923 -0.0025229272 0.00458759 -0.0011309749 0.004345745 -0.004586445 -0.00036011354 0.0041818763 -0.001251322 0.0013506091 0.0012207536 -0.0017181116 -0.0006274235 -0.002612322 0.0033186572 -0.0020937154 -0.0042458572 0.0049482086 -7.984177e-05 -0.0031960637 -0.0016587601 0.002157396 -0.0043790042 0.0036031972 0.004639526 -1.8787879e-06 0.0045995424 -0.0036760564 0.00060272444 -0.0025420664 -0.0019453481 -0.00248432 0.0049761725 0.004255567 0.0028725946 -0.0025963138 -0.0014158731 -0.0036804934 -0.0025231806 -0.0047635543 -0.0033253653 0.00022933076 0.00087736873 -0.0025306523 -0.0041020643 0.0042218664 -0.001859932 -0.003846391 0.0043629333 -0.0019665733 0.0047574793 0.00024731993 0.004571995 -0.002953825 -0.00056078954 -0.0041974317 0.0017226874 -0.0026394716 0.0026327241 -0.004970068 -0.0039570015 0.002331692 0.0016788323 -0.0019014154 0.0028302006 0.0021883706 0.0034468847 -0.0034000555 -0.0034513632 -0.0026145845
說 9.488672e-05 0.0041264743 -0.0033193345 -0.00171272 -0.003026729 -0.0026690816 -0.0001458718 -0.0016182744 -0.0019534952 0.002341456 -0.0017414674 0.0036815167 -1.3236739e-06 -0.0013871199 0.0048950007 0.0027992052 -0.0036973897 -0.0014924571 -0.0013364133 7.576059e-05 -0.0043416587 0.00071723614 0.0012767628 -0.0022172192 0.0007435256 -0.0019820975 -0.0019982671 -0.0042678374 0.004411869 -0.0007954689 -0.0009566659 -0.0048981714 -0.0032245736 0.0034318806 -0.0025738499 0.004802563 -0.0010376561 0.00013714991 0.0017728236 0.0027814093 -0.0041111223 -0.004558487 -0.0014099813 -0.0022218009 -0.0023913935 -0.0009433658 -8.596989e-06 -0.004503935 0.0020260091 0.0007297233 -0.0025943464 0.0032561535 -0.0038970357 0.0040429863 0.0029798117 0.0044031204 0.0014050938 0.001103712 -0.0047064987 -0.003160371 -0.00018514754 0.0039836895 -0.0036823987 0.00036319884 -0.00018809154 -0.0036220485 0.0040608975 0.0024904867 0.0022239734 0.0033060974 0.0015655016 -0.0021002046 -0.00019289205 -0.0037795953 -0.0017483205 0.0043170294 -0.00038882036 0.004354263 -0.0020776019 0.0030724837 -0.0021216543 0.0045084013 0.0014220919 -0.0033400387 -0.0048436825 -0.0006975186 -0.0025390238 0.0032403402 -0.00309656 -0.0045250533 -0.004729116 0.002457972 0.0008429742 -0.0005083695 -0.0035548778 -0.004331958 0.0020112852 0.0023936706 0.0013354339 0.004572918
真的 0.004444945 0.00470378 -0.00030823727 -0.004708446 0.002229248 -0.00094918977 -0.0027492333 -0.002347157 -0.004363932 -0.002948223 0.003790434 -0.00054760044 -0.004353379 0.0020142945 -0.0012071223 -0.003391053 -0.00041842385 0.0033080375 0.0046261447 0.004507882 0.0039500757 -0.0009167465 -0.0037909078 -0.002376884 0.004484973 -0.0019984941 0.0005818231 0.00017975428 0.0048739645 -0.0044946535 -0.003371836 -0.0025732918 -0.0014412632 0.0029572751 -0.002826246 0.0033036773 0.003780453 -0.0032511782 0.0027770814 -0.0023079554 0.0016857915 -0.0047819573 -0.004486843 4.8707614e-05 0.00026271777 0.00043858957 0.003754376 0.0036357297 -0.0033177563 -0.0021091523 0.00019159091 0.002762306 0.0010578064 -0.0026260908 0.001810947 8.358358e-05 -0.0036582456 -0.0049286587 0.0042106574 -0.0026213517 -0.00400441 0.0019389702 0.0026286966 -0.002791225 0.0017471142 -0.0033430273 0.00011963431 -0.0027354811 0.0043116002 -0.0023970823 0.003010541 -0.0008739267 -0.0005347899 -0.0023046848 -0.004609055 -0.0015038932 -0.0005943352 0.0049304166 -0.0043572825 0.001424141 -0.0025415488 0.0012249018 0.0043325573 -0.0039740233 -0.004324539 -0.00023875016 0.0007760167 -0.001747483 -0.0011136425 -0.0038069843 -0.0030636445 -0.004784871 0.0035449218 -0.0018076793 -0.0048003937 -0.003663687 -0.0032138564 0.0006057121 -0.0013439065 -0.0037084422
20 0.0033209955 0.0029178278 -0.0025804648 -0.0010729397 0.0014676923 -0.0044395765 -0.0031313507 -0.0003279081 0.00084479386 0.004581956 0.0031094295 0.0033804623 -0.003255232 0.00097551965 0.00037039915 -0.0023712027 0.0026983249 -0.0031142398 0.0032410612 0.004530148 -0.001339758 -0.0042427112 -0.003060396 -0.0007664237 0.0033254065 0.004679504 -0.00043434819 0.0042181206 -0.0015236548 -0.004385945 0.00295698 -0.0043158014 0.0046423953 0.004082884 -0.0036230597 0.0038235069 0.0002950515 0.0039312537 -0.002480485 0.0024834701 -0.0023011519 0.004959505 0.0020740628 -0.002494533 -0.0018740628 -0.002027844 -0.0011215712 -0.002593429 0.0013393393 -0.0027528775 0.0034137517 0.00025739628 -0.0008733858 -0.00080744264 0.00024163714 -0.0038034506 0.0005705377 0.0022027844 -0.0027022026 0.004076473 -0.001223605 0.0014892055 0.0024641636 -0.0028830124 -0.0038288208 -0.0036414184 -0.0022006405 -0.0046114163 -0.0002635861 -0.0037753 0.0019171514 0.0033517783 0.0031900133 -0.001505373 0.0046810205 0.0003840656 0.0047727395 -0.0024172259 0.0024713413 0.0020571442 2.3276896e-05 0.0029940917 -0.003998234 -0.004121633 -0.0014325547 0.0018556115 0.00061367266 -0.002541227 -0.0022880442 0.003458385 0.0022012244 -0.0017783858 0.0031457713 -0.0030632736 0.004925113 -0.0012864419 -0.0026543778 0.0033091577 0.003973653 -0.0041598165
1000 0.0015682585 -0.0037661223 -0.0029960363 0.0036051886 0.0017937884 0.00404417 0.0026512188 0.0020860557 0.004760407 0.001942672 0.0040289033 -0.0025465554 -0.0049660215 -1.1336812e-05 0.0008032268 -0.0006158903 -0.0029630281 0.0029435186 0.0037181764 0.0043792324 0.0014150753 -0.0034221692 0.00038287122 -0.0035423278 -0.00013117261 0.00344088 -0.004860441 -0.00035630216 -0.0041544596 -0.0048370636 -0.0049298536 0.0032589966 0.0039245677 -0.002055258 0.00045651736 -0.0031377987 -0.0025181586 0.003959246 -0.00071534474 -2.3958504e-05 -0.003942826 0.0022168949 0.0031222524 -0.0036553133 -0.0034052264 -0.0012239915 -0.0032679916 0.00064629083 -0.0047063017 0.0015552872 0.0023916278 -3.824244e-06 0.00010802545 -0.0019795662 -0.0044590477 0.0022622282 -0.0016060587 -6.5555555e-06 0.0036227552 0.0046371133 0.0024278287 -0.0015614022 -0.0023327158 0.00062838144 0.0014268594 0.0013958594 0.0033693137 0.0015552151 0.0037318638 0.004853756 0.0010940366 -0.0040505794 -0.0014700441 -0.00415427 1.9580317e-05 -0.0031237116 0.0031707846 0.0014528258 0.0029157042 -0.0041435394 0.0013469101 -0.00023107005 0.0008871762 -0.0044219033 0.0037278803 0.0023694143 -0.0031159136 -0.0045637763 -0.0011291441 -0.00098888 0.0004290739 -0.0042232405 -0.0033397572 0.0019360255 0.0025508853 0.0030942915 -0.0008241812 0.00048000287 0.0046032113 0.0020519577
鐵路 -0.0015542185 0.0026032801 0.0033207904 0.00253828 0.0036433123 0.0010358066 -0.0020057638 5.7063928e-05 -0.0031100998 0.0031222065 -7.684809e-05 0.0026794143 -0.0042167907 0.003698951 -0.0021998375 -0.0010324802 -0.00017145151 0.00096786633 0.00376575 -0.0043211975 0.0022516546 0.0039739194 -0.0031437674 -0.0048177843 -0.0032185228 0.004214679 0.0027684043 0.0027770202 -0.0015062616 -0.0022435226 0.0014455864 -0.0021593638 -0.0015343728 0.0045715715 -0.0012774946 0.0010221027 0.0026973987 -0.002148471 -0.00052003236 -0.004007617 0.0012238461 0.0011988722 -0.002080629 -0.0047148224 0.0021772187 0.0031862988 0.0045160092 0.0040737893 0.0013985032 0.0034626725 -0.0044272533 -0.0021336535 0.003452977 0.001035268 0.00049021596 0.0049327193 -0.0023558906 -0.002764176 -0.0044993265 -9.1349524e-05 0.0020522578 -0.001401405 0.0039118477 -0.0008273235 0.00085046934 0.0021741667 0.0040345886 0.00048752184 0.0042253155 0.003087316 -0.0016983876 0.0020305677 -0.0045584785 0.002095811 0.0038619994 0.0026555834 0.0045039565 0.0018059314 -0.0015806754 0.0016566592 0.0029196902 -0.003787414 0.0031171613 -0.0041696397 -0.0035226352 -0.0002616767 -0.000108346336 0.00305081 -0.0037879418 -0.00020818932 -0.0022381188 0.003816662 -0.00072727475 0.0046249805 -0.002233432 0.004769693 0.0047708466 0.0025689192 0.00050491653 0.0003532907
唐吉軻德 -4.222453e-05 0.0029114631 -0.0017196756 0.0008423269 0.00034469154 -0.004653927 0.000460104 0.0001563332 -0.003897992 -0.0013784071 0.001982655 -0.0029263892 -0.0013343224 0.0044232425 -0.003762898 0.001161985 0.003446598 -0.0006533982 0.0027748388 0.0036280814 0.0010510165 -0.0040267142 0.0027269972 0.00491909 0.0013915717 0.002204201 -0.0039532143 6.036235e-05 -0.003990523 0.0037885106 0.0015663056 0.0028714894 -0.00029397043 0.0022583315 -0.0009796768 0.0010590084 -0.0026874421 0.0045449543 0.0016696043 0.0017235205 -0.0024352078 -0.004189073 0.002665535 0.00230304 -0.0049832067 -0.00058435346 -0.00351684 0.0018463572 0.0013824579 -0.0037756918 -0.003199637 -0.0006721781 0.00063035736 -0.0004931687 0.0004330772 -0.002547189 -0.0014584938 -0.00024596232 7.932553e-06 -0.0021816357 -0.0040456885 0.00029046432 -0.0006649857 -0.0012065236 -0.0036626256 -0.0019382465 0.00025775805 -0.004552418 0.0040031276 0.00041341258 0.0024711604 0.0025695672 0.0040794127 -0.0042752423 -0.001799226 0.0007193841 -0.004168006 -0.0033656184 -0.001924952 0.0006685423 0.0031332453 0.0007709943 0.0031708053 0.0017327203 -0.002625516 0.004875366 0.004870527 0.004441253 -0.0026851436 0.0035423548 -0.0039467807 -0.0020812608 -0.0033802225 0.004256103 0.0029151593 0.00031363263 0.0006023091 -0.004290475 -0.00030189002 0.0042423904
本店 0.001300626 -0.0045941635 -0.0047218497 -0.0020026334 0.0035596965 -0.0040370002 -0.0020511847 0.0042273737 -0.0021926065 0.0031929275 -0.0033910219 0.0047856807 0.0021551065 0.00019880822 0.001060054 0.0039920015 0.0018322304 -0.004293506 0.0024920441 -0.0011189311 -0.00418197 -0.0030416006 -0.0019033018 0.00032568706 0.002008982 -0.0003341164 -0.0004948315 0.00072896783 0.0031774065 0.0048108054 -0.00066643977 0.0040545277 -0.0036777018 0.0049836123 0.0011955639 0.0047792695 -0.004567509 -0.004031937 -0.0001763163 -0.0017077854 3.3345796e-06 0.0019116862 -0.003818621 0.0043403665 -0.0034285772 0.0010390211 0.004201398 -0.0002691022 0.000868159 0.00088589336 -0.0020851246 0.0006077245 -0.0017933219 0.004562308 -0.0020857295 0.0008539224 0.002687405 -0.0024160135 0.003986482 -0.0008240588 -0.0036971557 0.0045617973 0.0012441988 0.0004775809 -0.00051556464 0.0035548387 -0.004423656 0.004489462 0.0011101265 -0.0019548715 0.00034613992 0.0046523632 0.001135123 0.003723546 0.001280882 0.00045192795 -0.0043078377 0.0001547168 -0.0012876227 0.0031130214 -0.0035870327 0.004573077 0.0025127314 -0.0038289702 -0.0028657005 0.0013387476 0.0017618311 -0.0024924043 0.0014051818 0.0032348447 0.0031312255 0.0025667346 0.004624079 -0.001571178 0.00023627811 -0.0035279957 0.004640483 0.0019855755 -0.0012367528 0.004125666
午餐 -2.1246811e-05 0.004963919 0.003810383 0.0020596238 0.003316553 0.0012203061 0.0004997304 0.0046310984 -0.003058183 -0.004284646 0.0034103512 0.0027723494 0.00017503781 0.00390653 -0.0032601738 0.004872172 -0.004318085 0.0017016449 -0.003075496 -0.0025685797 0.0040026535 0.0009489834 -0.0040315366 -0.004605938 -0.003806129 -0.0005316593 -0.0011347057 -0.003334546 0.0018505198 0.00058705313 -0.0039666574 -0.0014850186 0.0047072326 -0.0035377084 0.0004386755 -0.00391132 -0.0016419326 0.00033896574 -0.0027006583 -0.004008991 0.0013045305 0.0010077431 0.0027586322 0.0006389036 0.004018517 0.00449842 0.0045908783 -0.0028187048 0.00017275658 0.0031215723 0.0021107092 -0.0037953309 0.0039195064 0.004044402 -0.0010919806 -0.00022506542 0.0028152887 0.0028338158 -0.0024713248 -0.004605171 0.0011206393 0.0047550434 -0.0047219247 -0.0018954888 -0.0049648345 0.00011273844 0.004778942 0.0003521141 -0.004822541 0.003512321 0.0047338046 0.0024696859 0.0031762403 -0.0022848076 -0.0026986746 0.00018560833 0.0033522416 -0.002157676 -0.0033872207 0.0026559778 -0.0043515195 0.0031041275 0.0044090482 -0.0030750544 0.0037737838 -0.0021276353 0.0037429817 -0.0044531077 0.0032905238 -0.0012489741 -0.003825259 -0.004531421 0.00028335114 -0.0048231687 -0.003293213 -0.004744389 -0.0016192434 0.004742074 -0.00078786863 0.001927679
同意 -0.0021146655 -0.0049847933 -0.004251305 -0.0034729089 -0.0034209029 0.0035844033 0.0028884942 -0.0010492149 -0.002611535 0.0013176964 0.0032177803 -0.0034637912 -0.004178575 -0.0043602455 -0.0038490435 -0.0017775879 0.002030855 0.0047516893 -0.0023965212 -0.0035132063 -0.001836712 0.002975674 -0.0014017479 0.0027598264 -0.0008491002 -0.00030578443 -0.004368823 0.0043638083 0.00024928653 -0.0011189282 -4.475884e-06 -0.004995667 0.0037591273 -0.0017550179 -0.00386516 0.0037654187 0.0010845716 0.0035839 -0.0048531974 0.0025414545 -0.0018724989 0.0035753397 -0.004851453 0.0032055848 -0.0011298783 -0.0039026449 0.002938045 -0.0015349316 0.0047431854 0.0011283474 -0.0014532007 0.0020411587 -0.00073495734 -0.0015028086 0.003658125 0.0005917055 -0.0024850129 0.00405151 0.001961311 0.0020046707 0.0016926992 -0.004577135 0.003996006 -0.004330824 0.000392255 -0.0031090544 0.0036968745 0.0014498536 0.0034365673 0.00035895818 -6.0724564e-05 0.003519944 -0.001015595 0.004023907 -0.0023679296 0.003802852 0.001919968 -0.000730236 -0.0029400564 -0.002727308 -0.0010378474 0.003759844 0.00094561855 0.001644912 0.00224547 0.0028617452 -0.0017960876 0.0026442986 -0.0048434357 0.0024229297 -0.004026746 -0.0037510884 -0.00386775 0.0049685473 0.0020472766 0.0041719517 0.0036321394 -0.0046820985 -0.0016549466 0.0031113725
晚餐 -9.296671e-05 0.0049438723 0.0022585434 -0.0014861238 0.00016274404 0.0010721281 -0.004888256 -0.00246957 0.0030520419 0.003187905 0.0010657657 -0.0009077934 -0.0015616964 -0.0024138857 -0.004862925 -0.0036602474 -0.0039068516 -0.004403455 0.0038579179 -0.0011943016 -0.0010491796 0.0032994116 0.0029601413 -0.0032079834 0.0016317335 0.0041124797 0.0025657048 0.0030903735 0.0034572105 -0.004717444 0.0042023943 -0.001049176 -0.0028255393 0.0028217565 -0.0020848627 -0.0016921688 0.0032305277 0.004881003 0.0024065408 -0.0013500493 0.003280554 -0.004969446 0.004711266 -0.00064855005 0.00075990136 -0.00077354704 -0.0027957398 0.00044167505 0.00077487144 0.0040789293 -0.0014611706 0.002326037 -0.0001527848 -0.004340761 0.0030747107 0.0039370325 0.00479634 -0.00480178 0.0047181007 0.0001400344 -0.004090141 0.0022621928 0.003168681 -0.0029569988 0.0028471048 -0.001406745 0.00074880535 0.0041970275 -0.0014154402 -0.00454352 -0.003449085 0.0004907687 -0.0029113542 0.0006288925 0.0027109787 -0.0038083824 -0.0037476313 0.0041533485 -0.004949076 -0.0040746043 -0.0024812643 0.0004163038 0.0005155529 0.002132647 -0.0006786859 -0.0016068378 -0.002388478 -0.00092040596 -0.0036755153 0.0032518178 -0.0042187874 0.0009084998 -0.004491453 0.0007334934 -0.0022113558 -0.004028693 0.00090566755 0.0010642906 -0.0006181112 -0.0040995143
請客 -0.0023438407 -0.0031105261 0.002809324 0.0040812204 0.0016321314 -0.0039029396 0.004710997 -0.0028051678 -0.0028191137 -0.0048620575 -0.0016116549 0.0049492363 -0.0030601465 -0.00017376296 -0.00493424 -0.0014293377 0.0025912393 0.0005160164 -0.00047110312 -0.0040288665 -0.0049974187 -0.0030683663 0.0012316665 0.0005834526 -0.0021946763 0.0047733863 0.0039366763 -0.0048632636 -0.00046176204 0.0046023782 0.0013711929 -0.0037248898 -0.0015333424 0.0013701544 -0.0036850355 -0.002629767 0.00095434027 -0.00095743407 -0.0013848881 -0.0041970615 0.004298526 0.0006957997 -0.002560379 -0.0042949454 -0.0002164413 -0.0025947446 0.0013794276 -0.004663517 0.004907446 -0.0039890017 0.0016597715 0.0010526514 0.001021593 -0.00446062 0.0024189935 -0.0036949338 0.0028732296 0.0018306415 -0.0048571024 0.0021263629 0.0037000666 -0.0038479103 0.0031461508 0.0031442833 0.0033434494 -0.0006689977 0.0022308845 -0.0013751177 0.004411251 -0.0008433558 -0.0033530432 -0.0013011902 -0.00040199293 0.0027158314 -0.003268402 0.002517661 -0.002919318 0.001157868 -0.0020816664 -0.0022586586 -0.0019967977 -0.0018418299 -0.0048159165 0.0018503026 0.0010367882 5.8462727e-05 -0.0041890517 -0.0013214109 -0.0017065227 -0.004819906 0.0016571315 0.001184561 0.0027339258 -0.0003482366 0.0021503323 -0.0012965698 0.003627829 -0.0006199086 -0.0011607036 0.0012113514
續攤 0.00030404975 0.002643247 -0.0011453021 1.5113383e-05 0.0038942583 -0.0013882681 -0.004376934 0.00060567644 -0.0020258278 -0.0046869055 -0.0014866017 -0.0012750411 -0.0010427646 0.0018879728 0.0038408563 -0.002056018 -0.0029084485 0.0013384135 0.004445772 0.00029040253 -0.0038287784 -0.0047134142 -0.0049225762 -0.002245642 -0.001835841 -0.0039471714 -0.00023583235 -0.0011686576 -0.00090635417 -0.0046320558 -0.0011356992 0.001341749 0.00055949786 0.0004408004 -0.0005164933 0.0013643709 0.0006999699 -0.0040513435 -0.0007518424 -0.004396933 -0.0033635236 0.0026022051 0.0011267762 -0.0025536874 0.002599782 -0.000117328964 -0.0034380192 -0.0046331026 -0.002514767 -0.0023177864 -0.0014349652 -0.001702579 -0.0033798951 0.00064140774 -0.004406256 0.00024504052 0.0012729876 0.0014706225 0.0040050386 0.00410162 0.004391493 -0.002697877 -0.0049295668 0.0024134049 -0.0019426642 -0.0014005692 -0.0016732801 0.001735867 -0.004360044 -0.0018150037 0.0021538646 -0.0021137872 0.0011929161 0.00132251 0.001967635 -0.003325725 0.003495789 0.0010415014 0.0041381624 0.0002643718 0.0021756282 -0.0014285743 0.0019475373 0.0017820969 0.0028052933 0.0026157468 -0.0036890728 -0.004827291 -0.0007444581 -3.625682e-05 -0.0039825696 0.0027865947 -0.0035688032 -0.004128925 0.0013945276 -0.00015342291 -0.0011209747 0.0020310546 0.0034336336 0.0039583775
21 0.0011400753 0.003620523 0.00015129399 0.0036164888 0.0008773538 -0.0019319021 9.842543e-05 0.0030354029 -0.0027963861 0.0009022809 -0.0005672983 -0.0021725912 0.0009024331 -0.0035357636 0.004905618 -0.0036783398 0.0033320948 0.0018300526 0.0021092296 -0.0033668578 0.004938648 0.0022997311 0.0046190326 0.0024976274 -0.0037763692 -0.00058273616 0.0024115492 -0.002743026 0.0026014852 -0.0043561477 0.0006735459 -0.00403742 -0.003449857 -0.0043833693 -0.00037106164 0.0014102126 0.002538023 -0.0027413424 0.002354781 0.0008106039 0.0034446246 -0.00073090586 -0.0018407874 -0.0017222033 -0.0022742942 0.00022794047 -0.00013651591 -0.0014791669 -0.0046472973 -0.0048916372 -0.0019198473 0.00048273077 0.004968431 -0.0019173822 5.828367e-05 0.004371024 0.00087465206 -0.0040744683 0.0010815351 0.004244907 0.0032453518 -0.0031275575 0.0005555704 -0.004873147 -0.0010654794 0.0005296669 -0.0006351014 -0.0019690532 0.0012846789 0.00013976563 -0.0011816076 0.0037793252 0.00318977 0.000118898126 0.0041133123 -0.000789979 -0.0014995709 -0.0019652531 0.0025153616 0.004336082 0.0023244515 -0.003275512 0.00023513036 -0.004569664 0.0006271126 0.0024536573 -0.004080054 -0.0034324136 -0.0006116321 0.0021509875 -5.1747353e-05 0.0027721035 -0.004070544 0.0031056076 -0.003910508 -0.0036227594 -0.0017476708 -0.004356347 -0.0010619191 0.0049873646
帶路 0.001085055 -0.002164394 -0.0020175355 0.0012591722 0.0012466914 -0.00075492874 -0.0036381355 0.0019502466 0.0027623673 -0.002132944 -0.003135325 0.0039686114 -0.0046581645 0.0048119626 -0.0022640242 -0.004953748 -0.00364734 0.0040840637 -4.6462366e-05 0.003471767 0.0043808986 -1.8181561e-05 0.0037384385 0.0029491852 -3.4541954e-05 0.0006835095 0.0008719135 0.0013987242 -0.00048015596 -0.003750887 -0.0036150177 -0.0024539162 -0.0033081695 -0.0024466007 0.003006458 0.003527486 0.00025122467 0.0004568358 0.004994359 0.0043257987 -0.002828213 -0.004509763 0.004767222 -0.003456667 -0.0022843997 0.00055839 0.0011929084 -0.00083976367 0.00096996623 0.0044446397 -0.0030056837 -0.00432001 3.9691695e-06 -0.00302601 0.0034724858 -0.0015894641 -0.0043348907 0.004435529 -0.0005185722 -0.0039489786 0.004601511 -0.0036259936 0.0017967684 -0.0046523544 0.0027753857 0.0019044048 0.00065141905 0.0034004692 0.00035526874 0.003713536 -0.0009481005 0.0015325291 0.003652002 -0.0006432496 0.0023963524 -0.0001633639 0.0034988674 -0.003121378 0.002065938 0.00011825697 -0.0038112474 0.0016913861 -0.0022888398 -0.0026749535 -0.0024134694 0.003736201 -0.0033357101 -0.0030535425 -0.00077113934 -0.0010006684 -0.0025225307 -0.002516638 0.0005939045 9.832299e-05 -0.0010256494 -0.0011717707 -0.001988002 0.0016006163 0.004869949 -0.0036928484
