124 200
飯店 0.001931414 0.0007526227 -0.00121962 0.0023991857 -0.0020504657 0.0014966493 0.001587893 -0.0010507354 0.0021377318 0.00035573172 -0.0020824058 0.0019529371 -0.0017000763 -0.0017545827 0.0024757762 0.002002341 0.00081190077 -0.0009374494 -0.0020995617 -0.0013355744 0.0007127326 -0.0008839416 -0.00028543535 -0.0006520044 0.00021358805 -0.002075622 -7.361293e-05 0.00036820385 -0.0016737959 -0.00092080195 0.0018037325 -0.0024262585 -0.0007118983 0.0016160815 0.0017488914 -0.0017102659 0.001242144 -0.00023987322 0.001213741 0.0014976377 0.0020583146 0.0013943478 0.0020281228 -0.000118296695 0.0016870871 0.00065140513 -0.00097280764 0.0023630618 0.0022254798 0.0021012544 -0.00065796904 0.0017194485 -0.00043408296 0.0016786894 -0.0005785873 -0.0018477106 -0.0019363696 -0.00047364662 0.0020213604 -0.000819181 0.00025847106 0.0020233272 -0.0011424138 0.0005355121 0.0019281233 0.0019379293 0.0016163685 -0.0016898711 -0.00081381545 -0.0022129982 0.0021854942 -0.00013618145 0.0008344579 -0.00021691788 0.00070534024 0.0024847619 0.0017881843 0.00021603712 0.0023680986 0.0021320416 -0.0024275912 -0.0014442484 -0.0002284223 -0.0007115606 -0.0020319577 0.0015730084 -0.001900799 0.00053422456 -0.0012850474 0.0003985224 0.001441816 0.0014983843 0.00042409336 0.0017180857 0.00040304085 -0.0019870093 0.00062015606 0.0017545423 0.0009941478 -0.0006525003 0.00043370528 -0.0006499531 0.0010021909 -0.001719284 -0.00054508046 -0.00035605687 -0.0023500747 0.0011128163 0.0018102071 0.0024085366 -0.0022318647 -0.001697445 -0.00031160977 0.0014792171 0.00036323606 0.0017918783 -0.00014188526 -0.0024225581 0.00020525279 0.0012789556 0.0011754635 -0.0011490709 -0.0009013992 6.6120716e-05 7.951224e-06 0.0017675317 0.0017733509 -0.0014596477 0.00045098877 -0.002043275 -0.0023825548 -0.0012150281 -0.0011408592 0.0012259015 0.0024453094 -0.00091038604 -0.0018573146 -0.0020744065 0.0007156687 -0.0009248075 0.0019783366 -0.00218897 0.0020442295 0.0005571538 -0.0016917665 0.0005315537 7.1250164e-05 -0.0002501986 -0.0018167208 0.00082939054 -0.00067696965 -0.0018209248 -0.0010405844 0.0010468104 -0.0008161973 -5.4672993e-05 0.0004457843 0.0017923339 -0.0016299611 -0.0024230257 -0.00013938808 -0.0003390792 0.0015616176 0.0022744674 -0.0013611435 -0.00019865361 0.0018345108 -0.0001612856 -0.0014180524 -0.0013528954 0.0013696711 -0.00031688894 -0.0011992236 -0.00029301492 0.0016235383 -0.0007927939 0.0010102701 0.0024935966 0.0018002205 6.033913e-05 -0.0016662177 -0.0019555644 0.00030198492 0.00071000535 0.00087774923 0.00023471747 0.001950909 -0.0014115619 -0.0022215557 0.001988608 -0.0018591206 -0.0011811064 0.00024972393 -0.0022304368 -0.0012357191 -0.00013969358 -0.00058257167 0.00082710054 -0.002076556 -0.0022783286
前往 -0.0015631929 0.0011616305 -0.00032758512 0.0017318339 2.6245816e-05 0.0023793995 0.0009125279 -0.0013890794 0.0014917309 0.0015497049 0.00065844686 -0.002293936 -0.0010784344 -0.0013325377 0.0011041538 -0.00075269083 0.0010745507 0.0022024813 0.00019187239 0.0021030838 0.0012351593 0.0012399269 -0.0010474257 -0.0021542767 0.0021232623 -0.002018265 0.0012587358 -0.0017939915 -8.95567e-05 -0.00010424398 -0.0010946785 -0.0020021342 0.0021250069 0.0013555175 -0.0020606113 0.0017071697 0.0011834797 -0.00199623 -0.0012294243 0.0019377862 0.0018713218 -0.0001120146 -0.0019644196 -0.0003653038 -8.732218e-06 0.0009905747 -2.431258e-05 0.0017013078 -0.0016199505 0.00051587296 -0.0023476908 -0.0019635947 0.0011489887 -0.0022311863 -0.00084587705 9.1247246e-05 0.0022448273 1.2267701e-05 -0.001278338 -0.0017027089 -0.00025216382 -0.001979331 -0.00010224373 0.001881723 0.0014275734 -0.00053281384 -0.00089234795 0.002115879 0.0019786365 0.0009077537 -0.0021919345 -0.0015098433 -0.001552246 0.00094436074 0.0017924492 -0.0017132523 0.0019790146 -0.0021585615 -0.0015190261 -2.394295e-05 0.00025693982 0.0007440213 0.002330229 0.001988552 -0.0024153665 0.00014739933 0.0020982535 -0.0022417232 -0.000747789 -0.0014839139 0.0012656911 -0.000925947 0.0009551134 -0.0024984656 0.0006653673 -0.001386155 -0.00094629056 0.0014609947 -0.0009872182 0.0013471897 -0.0017352843 -0.0001616163 0.0007514441 -0.0018884969 -0.00076867605 0.0019285223 -0.0013328856 -0.00021113073 -0.001023543 0.0013828379 0.0001793516 0.0017517338 0.0010895017 -0.0021884558 -0.000923449 -0.0011704911 -0.0020091822 0.0020468084 0.001752259 -0.0002677813 -0.0021964433 0.0018119776 -6.864312e-05 0.00020269628 0.0004847092 0.0015886977 0.002240899 0.0012298479 0.0024349557 0.0021285869 0.0014979324 -0.0004611747 0.00069088285 0.00080771727 -0.0009452595 0.00048920605 0.00037300756 -0.0005149333 -0.0016138785 0.00084227935 -0.00017904639 0.0014348198 -0.00041736907 9.296583e-05 0.0015202996 0.00032054549 0.00037779546 0.001533468 0.001111807 -0.00015896336 0.0007255708 -0.0003361672 -0.0020131683 0.001267669 -9.04024e-05 0.00039124416 -0.0017431458 0.0016861927 -0.000276497 -0.0008132591 -0.001477903 0.0009041012 -0.0015874936 0.0010205965 -0.0018251153 0.0011620602 0.00016554527 0.0003180402 0.0010166409 -0.0005267773 0.0019012814 0.0014819322 -0.000994134 -0.0021285883 0.0021602127 -0.00011223557 0.0024662523 0.0009101562 -0.001005072 0.002403859 0.0021639804 -0.001588444 2.5271107e-05 -0.0023896638 -0.0019936874 -0.0022364848 4.9464168e-05 -0.0012540512 0.0012358562 0.0022294277 -0.0011989406 -0.0012810993 0.00023280605 -0.0016682523 0.0007382724 -0.0009726189 0.0010720054 0.0018109707 -4.124307e-05 0.0021061287
E7 0.00048668956 -0.0023425326 -0.00037615627 0.0019248464 0.00097245094 0.0022281446 -0.002007938 -0.0016706623 -0.0010694293 -0.0014244287 0.00087380776 0.0014958548 -0.002268324 -0.0020194885 0.00078186527 0.0010802195 0.0015464892 0.0015716141 -0.0013911166 -0.0013003577 0.00094617344 -0.0023514389 0.0019930021 0.0006336961 -0.0010696293 -0.0019130481 -0.0012818039 -0.0022136518 0.00027131947 0.0018019842 0.000259362 -0.0010565637 -0.00071378896 0.00058501726 0.0016611711 -0.00017486545 0.0017662388 0.0007708946 0.0010967068 0.0018800454 0.0010784606 0.001569736 -0.0023986064 0.0013287157 0.0018629243 -0.00010180092 0.0009662012 -0.00012815335 -0.00063175417 -0.0020587593 -0.00093212584 -0.0001277541 -0.0012851233 -0.00034547277 -0.0010057868 -0.002044657 -0.00032346393 -0.00064922945 -0.0022760052 0.0022529082 -0.0014824003 -0.0013562372 0.00081577455 0.0023191287 0.0015691633 0.0014145597 -0.0010108 0.0020969792 -0.0007249459 -0.0011194964 0.00039197705 0.0004288277 -0.0016839392 0.0011126475 -0.002194359 0.00085872115 -0.0011309014 0.00169497 -0.0017413951 0.00082042656 -0.0022234048 -0.0023290706 -0.002198367 -0.0015621039 0.0012556437 -0.00028426215 0.0011019603 -0.00013431512 -0.0020919596 0.00033517243 -0.00036569138 -0.001885315 0.0014143207 -0.0007074774 -0.0004822073 -0.000616859 0.0024315214 0.0014883907 0.0020248839 -0.0023666762 0.0006558429 -0.0018887564 -0.0023616597 -0.00053559005 0.0007638224 -0.002435921 -0.0012529646 -0.00042891825 0.0021661439 -2.5249317e-06 0.0017467841 -0.00025198725 -0.0015398528 0.0024141811 -0.00062606577 -0.00019514003 -0.0014341959 -0.000680301 -0.0006464568 -0.0004935603 -1.901677e-05 0.002043936 6.0893384e-05 0.00064155436 -0.0009350024 -0.0022691153 0.0021756615 -0.0023375459 -0.00078147167 0.001472291 -0.0011153804 -0.0010869394 -0.0012725333 0.0004458774 0.0015157998 -0.0016860879 0.00034370055 0.00026221882 0.0017389031 0.0018931736 -0.0001626617 1.989866e-05 0.0016117927 -0.0013820005 0.0006580542 0.00192778 -0.00045136063 0.0004294504 0.0016804585 -0.0010565674 0.0010554375 -0.00074010476 0.00026372445 0.0019210895 -0.0009966798 -0.0003596797 -0.00089306606 0.0014194035 0.0023176968 0.001444599 0.00037921098 0.00085809076 -0.0012344087 -0.00032766227 -0.0016163677 -0.0005714183 -0.000115261726 -0.0023332878 0.0018158383 -9.2223024e-07 -0.0023384911 0.0007278363 -0.0005479089 -0.0009459821 0.0001400459 0.0019801036 0.0006894289 0.0024541111 0.0010789953 -0.0015998576 0.0013630659 0.0021135856 0.0021400268 0.0018712147 0.0017677277 0.000592433 0.0013810182 -0.0014705823 -0.002305074 0.0020551959 0.0012135945 -0.0004346264 3.3629945e-05 0.0019103073 0.00017229399 0.001869291 -0.00036720352 0.0024627335 -0.0004948748 -0.002231992
博多 -0.0007942729 0.00070045603 5.337787e-05 -0.00027669832 0.0015750187 0.0010225789 -0.0024023573 -0.000711675 0.002339395 0.00031946666 0.0018655905 0.0004459088 -0.0020803963 0.00072426314 -0.00018578346 -0.0013211069 0.0019318279 -0.0006257148 -0.00043041442 -4.7177127e-06 0.0012920194 -0.0020161027 -0.0024824333 0.00031229507 0.002417404 -0.0023397168 0.00095465727 -0.0023277807 0.0021566465 8.967973e-05 -0.0015110733 0.00078598806 0.0008001141 -0.00085478375 -0.0014322815 -0.0019157493 -0.0016227694 0.002207976 -0.0001838956 0.002183588 0.00017715452 0.0016622206 0.0022653483 -0.0024883791 0.0010081731 -0.0016997852 0.0007176159 0.0004616353 -0.00021374074 0.00020734208 0.002222159 -0.0010974318 0.0024339922 -0.001601114 -0.0004742016 -0.0019699547 -0.0015829909 -0.0023221248 -0.0009238676 -0.0013008148 0.0018119868 -0.0010620384 0.0013735642 0.00036021724 0.0012300657 -0.002050398 0.002486932 0.0012044285 0.00017195015 -0.0024982193 -0.002424523 0.0001357601 0.001067044 0.0017534894 -0.0002694337 0.001932203 0.0013846431 -0.0022216646 -0.0020646825 0.00083754444 -0.0023662406 -0.001590446 0.0003736649 -0.0014223581 0.0013935425 0.0023496698 -0.0017018092 0.00056336005 -0.0005780134 0.0004844192 0.0023811911 0.00051463896 -0.00080789294 0.00087959564 0.0018198614 0.0010543864 -0.00045302213 0.0007028577 0.0012243128 -0.002327744 0.0020211271 -0.0022722601 -0.0019787156 0.0020742414 -0.0019969998 -0.00033127159 0.0010216298 -0.0005436241 -0.0022182185 0.00064139324 -0.0010149837 0.0023304068 -0.002293374 -0.00024284204 0.0016912312 -0.0004366876 0.00011046817 -0.0016093297 0.0018252142 -0.0024055848 -0.0017595126 0.0024885575 0.0013145533 -0.0020265407 0.0022913527 0.002415041 -0.0024241519 -0.00022140161 -0.0022226155 -0.0011849949 0.0023221865 -0.0006551942 0.0015697246 0.00076594506 -0.0024564594 0.0019215625 0.0018973437 0.00021291852 0.0013142596 -0.0015740402 -0.0016305333 0.0007677282 0.002022294 -0.0015126574 -0.0010273858 0.0009781389 0.0009147458 0.0022298964 0.002142105 -0.0023432027 -0.00033376346 0.0009740756 -0.0023249888 0.000640863 -0.00014277826 0.0004129093 0.0024553314 0.0013136192 -0.0008224524 -0.0012050685 -0.00027840273 -0.0003865737 -0.0011488807 -0.0006310661 -0.0017648123 -0.0020159716 -0.0017990879 0.0009101899 0.0020670414 -0.0014183942 0.0010526616 -8.401387e-05 -0.0018070936 0.0007215014 -0.00054647593 0.0018826405 -0.0012839296 -0.0014392332 -0.0024435397 -0.0006346749 -0.00022437485 -0.002140123 -0.001334238 -0.0011596512 0.0011076058 0.001994204 9.370199e-05 0.0017370973 -0.00025024396 -0.002194459 0.0010474189 0.0019907958 -0.0021794974 -0.0013123098 0.0016566225 0.0018759206 0.0020751818 -8.192715e-05 -0.002252071 -0.0018007202
自由 0.0011150399 0.0017187608 -0.0020206168 -0.0019188647 0.0004407418 0.0019060198 -0.0011251896 -0.00074503885 0.0022864726 0.0007181844 -0.00050544605 0.00028930354 -0.0018656816 0.00069988886 0.0017688466 0.0022012037 -0.00045641712 -0.0014225385 0.0011686673 -0.001095328 0.0019360804 -0.0010740736 -0.0013308378 -0.00017333729 -0.0024829581 -0.0011903264 0.0013393081 0.00038072653 0.0006444293 -0.00088138715 -0.0011381647 -0.0009993996 -0.0013422224 0.0013471693 0.00078940747 0.0007969177 -0.0013206508 0.0012851534 -8.353534e-06 0.0010477433 -0.000469538 0.0011447797 -9.0371934e-05 -0.0010640143 -0.0019484003 -0.0012628599 -0.0024584641 -0.0012770377 -0.00045352062 -0.0005779163 0.0014967357 0.0004080489 -0.0005994439 -0.0019676602 0.0014177845 6.5404354e-05 0.0008302488 0.0010858929 0.0011567074 -0.0024451138 -0.0017803204 0.002392918 -0.00021189355 0.0013817664 0.001510304 -0.0012743057 0.0009232769 0.002143666 0.00063333067 -0.0014148885 0.0004639618 -0.0010479577 0.00043875162 -0.00032083032 0.0004200402 0.0006357287 0.00030218123 0.0023360157 -0.002408554 0.0024119047 0.00045532282 0.00053277775 0.001163146 0.0024119366 0.0022635283 -9.338712e-05 -0.001117452 -0.00062764937 -0.0017270767 0.001455602 -0.0010769855 -0.0008677604 -0.00049187377 -0.0021206217 0.00243328 -0.002498685 0.0024895417 0.0018174234 0.002021431 -0.00089085405 0.0008911275 0.00016754401 -0.0021327888 0.0011606191 -0.0014112286 -0.0024623927 0.0015299771 0.0024737867 0.0021521435 0.0017817308 0.00068258774 0.000105859894 -0.0020860047 -0.0017674066 0.0016804747 0.00012385375 -0.0022269748 -0.0011845946 -0.00092751073 -0.00059768267 0.0019659416 -0.0012561119 -0.0008448672 0.0006961133 -0.002480703 0.002447076 0.0010994949 0.002498908 -0.0019687954 0.0023553937 -0.0016492611 -0.0010334472 0.00016640355 -0.0019081914 0.0004995892 0.001824978 -0.0013935494 -0.0017788153 0.0009640289 -0.0001331443 0.0011689715 -0.0003060759 0.00084232085 -0.001822753 0.0017225026 0.0006492767 -0.0003082827 0.001976932 -0.00010882477 0.0023176179 0.001001473 -0.0013033467 -0.0016233615 0.0012024111 0.0011704491 0.0010246312 -0.0009926092 0.0018083329 -0.00018201365 -1.3160315e-05 0.0013134141 0.00029379237 -0.0005590946 -0.0023363205 -0.0015679569 -0.0016196914 -0.0017172805 0.0007240863 0.0014372445 -0.002193835 -0.0006847712 -0.0012111383 -0.0008725459 0.0011424635 0.00081449386 -0.00028104358 -0.0008547797 0.0005191948 -0.0024204697 -0.0009261106 -0.00022526569 -0.0022287804 -0.0016936396 -0.0013906688 0.0011663112 -0.001214783 0.002084255 0.00049972784 -0.002243112 0.00018401018 -0.0021159512 0.0020640718 -0.0020146589 0.00030762466 -0.0002437409 0.00030270865 0.0023516053 -0.0016544865 0.0022352885 0.0013816591
行動 0.00093152426 0.0015005606 -0.0007237312 0.00049083977 0.0022635767 0.00089912704 0.0009878025 0.0006793062 0.00034064188 0.0024255272 0.0011768322 0.00085434935 -0.0009248057 0.0022442215 -0.0024940223 -0.0012195234 -0.0017742316 0.0021226378 -0.00023528367 0.00076742744 -0.000728839 0.0013532699 -0.0021683164 -0.001862776 -0.0024943093 0.0020580727 -0.00039343513 0.000862245 -0.0004992728 -0.0009602516 0.0006527069 0.0017977057 0.00066605274 2.35698e-05 -0.0006400544 0.0014235785 0.0010659654 0.0021650328 0.0011294347 -0.0024514028 0.0013777844 0.0003203826 -0.0022900281 -0.0013973409 0.0013682545 -0.0008293498 -0.0013001517 -0.00043176766 -0.00028569342 -0.0014032885 0.00062212313 -0.00020292001 0.0018992376 0.0015878988 -0.0010037526 -0.0008311089 0.0020270552 -0.0009926212 -0.0003654599 0.0010664895 0.002196938 -0.0011208 -0.0014117351 -0.002401031 -0.0022305928 -0.0024795535 0.001289277 0.0019440254 -0.0007663521 0.0007593429 -0.0020855214 -0.00052052946 -0.0018138089 0.001993081 -0.0014599599 -0.0017115637 0.00076691783 -0.0021165118 0.00092089165 2.5655356e-05 0.002177663 0.00015083098 0.0017146837 0.0007021748 0.0005540937 -0.0018460298 0.00086437684 0.00050454005 -0.0016451635 0.0020219104 -0.0016636158 -0.0014565703 -0.0018705694 0.0011754464 0.0024728097 0.0011977217 -0.00048903 -0.0024825602 0.0009351483 -1.1999118e-05 -0.0021337688 0.0019495713 0.0005593032 -0.0020375666 -0.0014896367 0.0015141701 -0.0023411855 -0.0010269724 0.0007414316 0.0015112557 -0.00082714536 -0.00061412714 8.514229e-05 0.001898663 -0.0021347941 0.0014785939 -0.0014016625 0.0024025007 0.0020148032 0.00019834215 -0.0022226567 -0.00029387986 -0.0019101476 -0.0024615638 -0.00042493193 -0.0018422441 0.0014713261 0.0011528623 0.0015738615 0.0009801509 -0.00053272455 -0.00038822374 -0.0009147713 0.00038425322 -0.0005926609 -0.0017633496 -0.0010331781 -0.0010545246 -0.0020308525 -0.00127598 -0.0008164868 -0.0017037202 -0.0002744583 -0.0018999641 0.0017864193 -0.0023474412 0.0019453636 -0.0021330782 -0.00184292 0.0013486668 -0.00097206753 0.00025381998 0.0019959337 -0.0012759543 0.0009073805 -0.00017237567 -0.0014127314 0.0004451413 0.0014294942 -0.0016868593 -0.00094002055 -0.00091868435 -0.001706668 -0.0017299494 0.000240422 -0.002418119 -0.0006229483 0.002357039 0.0014500023 -0.002435183 0.0018589398 0.0018969151 -0.001404874 -0.0017578601 0.0011135095 -0.001863752 -0.0020256843 -0.0013032908 -0.0014085999 -0.0021411723 -0.00047368035 -0.00022247275 -0.00094270386 -0.0017562961 -0.00086625473 -0.00044876945 0.00022878763 -0.0019209405 0.0019615034 -0.00048942893 -0.0008745424 0.0010221917 0.00042488132 -0.0013492592 -0.0004745992 -0.0002716396 -0.0008217843 -0.0020130554 0.0018759323 0.00037964422
新幹線 0.0019820698 0.0015890254 -0.001988233 0.0022169303 -0.0006501937 0.0017360889 0.0003342929 0.0013462671 0.0012727571 -0.0013110103 0.0011418511 -0.00041504085 -0.0012358555 0.0013008828 0.002358144 0.0008324484 1.2754715e-05 0.0021684587 0.0016175507 0.0012553486 0.00094197236 0.0017758351 -0.0013791785 0.00078965223 -0.0017862712 0.000320173 -0.0009945736 -0.00061250804 0.0022946822 0.0013505993 0.0005601678 -0.00049551355 -0.00070867874 -0.0016213378 0.002495663 0.0012923478 -0.0008748166 -0.0014717785 -0.002362559 -0.0012296982 0.00012950416 -0.0022209957 0.0010752118 -0.00078241894 0.0022704913 -0.0007605009 -0.0018060611 -0.0022081272 -0.000629672 0.0016423841 -0.00026059785 -0.000575393 -0.0011469477 -0.0022686215 -0.00094685017 0.00062525104 0.0023418684 0.0017052301 0.0022621627 -0.0007124138 -0.002144884 0.00095665426 0.00070011325 -0.00059867674 -0.0014163045 0.0023409696 -0.00046162348 0.00037291893 0.0024828694 0.0022782108 -0.0017041102 0.0016380667 0.0011331128 -0.0020772922 0.0013750783 -0.0012527223 0.00027298438 -0.0024593277 -0.0024305491 -0.0009812394 0.00011885186 -0.0013177142 0.0023090516 -0.0021840883 -0.0012601338 -4.288041e-05 -0.00011973452 0.002435036 -0.00083598227 0.0024948898 -0.001476594 -0.0005791156 0.00061729137 0.0021120245 0.00034314528 0.0011457027 0.0024901668 0.0015409574 -0.0014974823 0.00013072796 0.00018167617 0.0002605536 0.001174358 -0.0010056194 0.002224181 -0.0005970052 -0.0007563139 -0.00078306097 -0.0004539726 0.0020590771 -5.175088e-05 0.00032526415 -0.0016103296 0.0013572967 -0.00045480972 -0.00094196555 0.002187423 -0.0005607617 -0.0024730156 0.001409452 0.0018982952 0.00234474 -0.0019545362 -0.00030426285 0.00045975388 0.0005064955 0.001410874 -0.00026449093 -0.0019399702 0.00045910367 0.0015676867 0.0018362748 0.00056775106 0.0024936378 0.0018522628 0.00075327937 0.0014645695 0.000292447 -0.00041042102 0.0014888869 0.002315426 1.8608362e-05 -0.0020741466 -0.0008211252 -0.0018426991 0.0021759868 0.0010368003 -0.002099733 -0.0016183465 0.0012793288 0.0015264107 0.0010289004 0.00083285634 0.00085427566 -0.0001055893 0.0021402913 0.0019498215 -4.751898e-05 -0.0016057382 -0.0010830623 -0.0011708845 -0.0013322036 -0.00029328276 -0.002085958 0.0005686472 0.0016663751 -0.00026294906 -0.0015668412 -0.0002664083 0.00029032145 -0.0020927077 -0.0015695589 0.0019285409 0.0002746877 0.0019545688 -0.0012093588 0.0019016601 -0.00050230423 5.7551042e-05 -0.0002488923 0.002049282 7.233632e-05 -0.0018522261 0.00095717487 0.0018070672 -0.0013875072 0.0019988073 0.00232061 0.0013537284 0.0013056161 0.0018574456 -0.000410198 -0.00051815447 0.0009181301 -0.0011067947 0.0017289437 0.0011565331 0.0021920833 0.001485143 -0.00064407033
車廂 -0.0013430503 0.0017494572 0.0024477951 -0.0007898143 -0.0019745762 0.0018627336 -8.7368255e-07 0.0018385526 0.0024608488 -0.0013415688 0.0002847344 -0.0005659869 -0.0008442942 0.001560011 -0.002221551 0.000514815 7.863118e-05 0.002283704 -0.0023986031 -0.0013454545 0.00042058446 -9.321944e-05 0.00054465345 0.0013948664 -0.002135864 0.0014937633 0.0023827578 0.00032271584 -0.0018886868 -0.0009236643 -0.0009112625 -0.00065718003 0.0024461083 -0.001822156 0.0002461212 0.00078127946 0.00031075312 -0.00077247544 0.0018838273 0.0009462686 -0.0021715742 -0.00014478787 -0.00048257515 0.002201488 0.0009007314 -0.0015153026 -0.0022062764 0.0019102743 -0.0005796675 -0.0022942289 -0.0017507845 0.0013019266 0.0020684416 0.0023808244 0.0024490834 -0.0017836973 0.0010450957 0.001269007 0.0008377505 -0.00045085224 0.0013855832 0.001288814 -0.00047450495 0.0016182902 -0.0012400592 -0.00081013766 -0.001241952 -0.00025361468 0.0010648955 0.0021990067 -0.002437849 0.00130612 0.0010507356 -0.002280368 0.0012971833 0.0001660789 0.001247582 0.0019463722 -0.000234414 0.0003793593 0.00059901905 0.0018507873 -0.0016333255 0.0007312598 6.1624196e-06 0.001753933 0.002326135 -0.00013985303 0.0010956045 0.0007570614 -0.0005503086 -0.0020591458 0.00010920641 0.0024892774 0.0011900128 0.0013089365 0.0022786807 -0.0011615437 -0.001653716 0.00012866173 7.46971e-05 0.0015527685 -0.00015743932 -0.0003109362 0.0012357484 0.0015754186 4.736607e-05 0.002373402 -0.0009238839 0.0021270546 0.0020074043 -0.0019540077 -0.0010800415 0.0014438351 -0.0020081028 0.0012658798 0.0015656458 -0.0011548494 -0.0023819967 0.0011557059 0.0009527127 0.002351778 -0.001913402 9.29329e-05 0.001952231 -0.0013770913 -0.0020676875 -0.0013579732 -0.002165632 0.0016090483 -0.00062727986 4.8377613e-05 0.0011669975 -0.0019512487 0.0013722524 -0.0016762534 -0.002226981 -0.0002424433 0.0009514647 -0.001146632 -0.0023213776 -0.0024234797 -0.0012082604 0.000952293 -0.0017431761 -0.001086307 -0.0012081387 0.0018702841 0.002245884 -0.0007028224 0.0023425096 0.001896294 -0.00035724632 -0.0011629706 0.0012292552 0.0021138347 0.00012089971 0.0012128626 -0.00042508423 -0.0011079133 -0.00054309686 -0.0001537705 -0.001201877 0.0016904309 0.00033193026 -0.0020254985 -0.00044752343 -0.0003067544 -0.0023259588 -0.0016400773 0.0003811184 -0.001161474 0.0018005102 -0.0018424629 0.0015001703 0.0015430113 0.0009035958 -0.0013561265 -0.0020570839 0.0006543267 0.0016708607 -0.0024632225 -0.00048234983 -0.001361763 -0.0008027713 -5.4569675e-05 0.0008877725 -0.0022885888 -0.0004965811 3.6592708e-05 -0.0012525723 0.002297846 -0.0009094261 -0.0015279272 -0.00020300402 -0.0014766544 -0.0006188545 -0.0007857063 0.0015540168 0.0002284868
吃 -0.0012448764 0.00048412159 0.001943318 0.0019431399 -0.0013783324 0.0016312777 -0.00038446655 -0.0006318939 0.00010411172 0.0002110086 -0.0024717508 0.0009668104 0.0024065797 -0.0008175592 0.001283709 0.0016468634 -0.0010458885 -0.0016760036 2.2543636e-05 -0.0015260283 5.731741e-05 -0.0013551626 -0.0012989962 -4.5211313e-05 -8.0067275e-07 -0.00026436007 0.000114953335 -0.0021000712 -0.0013636154 -0.0018098863 -0.0014478401 0.0023425072 0.0004431563 0.0014876196 -0.0024916925 0.00019543339 0.0022963623 0.0023843586 -6.4114124e-06 0.0008869613 -0.0007161184 -0.00046118235 -0.0006361095 -0.00020824361 0.00046468043 -0.00015803897 -0.0019106806 -0.0011524345 0.0024502517 0.00046955526 0.0007257304 -0.002163977 0.0018418031 -0.0013551805 -0.0014834586 -0.00036870365 0.00037074517 -0.002053758 1.2492874e-05 -0.00054167974 0.0012244801 0.000958136 0.0022080427 -0.0018092006 0.0006323977 1.2735784e-05 0.00062248466 -0.0019965672 0.0023112618 -0.0015935287 0.0019802828 0.00012673662 0.0018531624 -0.00061324536 0.0015103709 -0.0017564757 0.0018704958 0.0003273642 0.0018775633 -3.2987635e-05 -0.0011140326 -0.0009393186 -0.0024364272 0.0011942765 0.00069998996 -0.0018991913 0.0009756276 -0.0023410614 -0.0005453773 0.0017857313 -0.0014014912 -0.0020569696 -0.00042435265 -0.0012403929 -0.0022420923 -0.0024311375 -0.0010081927 0.0018780726 -0.0005389556 -0.0014923791 -0.001942293 -0.002416748 -0.0020764412 -0.0006670826 0.0007377711 0.0021731975 0.0005339239 -0.0018420168 0.0020575693 0.00091975403 -0.0007743076 0.0010019518 0.0005834753 -0.0016873396 -0.000538939 -0.0013351263 -0.00078675675 -0.00089791213 5.2981733e-05 -0.0014139399 -0.00082288246 0.002099634 -0.0015335568 0.0013098376 0.0006181458 0.0021461016 -0.0017546713 0.0009200949 -0.002059168 0.0019704045 -0.0018669886 0.0013982853 -0.0023508696 0.0016156642 0.0013614806 0.0002636116 -0.0011812788 0.00091409456 -0.0020664758 0.0009948317 0.0024287463 0.0011062761 -0.00064636394 -0.0021202562 -0.00023229954 -0.00023284466 -9.5065116e-05 0.0014580406 -0.00013342088 -0.0013628724 -0.002206095 -6.188052e-05 -0.0023917565 0.00030814554 0.0018780981 0.0015614474 0.0012955014 -0.0009056596 -0.0016149783 0.0016687352 -0.00054173113 -0.0007036382 0.00092048035 0.0016960931 -0.00095686875 -0.0005181493 -0.0024821677 -0.0014077893 0.00014269173 -0.00087926793 0.00086100696 -0.00029331562 0.0016546377 0.0011828919 0.00079055835 0.0016827165 0.00066928606 0.0020151613 -0.0010649689 -0.0015715649 -0.0020313612 -0.00018401053 -0.001530838 -0.0011411646 -0.0009642874 -0.00048855523 0.0018512915 0.002276258 0.001415863 0.001886293 -0.0022140816 0.0012715663 0.0012215449 -0.0017392643 -0.00085731485 -0.00060871185 0.0013910226 0.00012790578 -0.00091371336 0.0015409949
行李 0.00012829147 0.0011853899 0.0016898371 -0.0019837169 0.0014819355 -0.0023627966 0.0020851395 -1.9791241e-05 0.0016031705 0.0013889705 0.0010188806 0.0019507267 -0.00092916633 -0.0011670722 -0.0016697652 -0.0019513203 -0.001993234 -0.0008576787 -0.00087170705 0.0017499718 0.0016117018 0.0024685874 -0.0020379783 0.0015078784 -0.0011141556 -0.0015960258 -0.0003134184 -0.000786502 0.0011874397 -0.001651479 0.0016074846 0.0011381804 0.001696371 0.0007543867 -0.001009941 -0.0005529252 0.0017029461 -0.00019879879 -0.0011400699 0.0007505373 0.0009209028 9.886632e-05 0.0009273766 -0.001497832 -0.00080013985 -0.00083933957 0.0017982076 -0.0011482904 0.0010260958 -0.0017215116 -0.0022078594 0.0012080051 0.0017651297 0.0019981246 0.0014757811 -0.002151142 -0.00033612366 -0.0020109005 -0.0024396116 0.00053018914 -0.001650822 -0.00079739356 -0.0004384906 -0.001967755 0.0015450821 0.0008133055 0.0018430605 -7.4540956e-05 0.0021751737 0.0006768716 -3.6244757e-05 -0.0004769916 0.0005725325 0.0008866131 -0.0023136155 0.0008603833 -0.0013308037 -0.0015090869 3.1186122e-05 0.00039769436 -0.00012724297 0.001389237 -0.0023226792 -0.0021459484 0.00219435 0.0005284364 -0.0017580283 0.0024140803 -0.0021145516 0.0018240762 0.00034437783 0.00039004633 -0.0008264085 0.0011848727 -0.00088427146 0.00054047717 0.0014221484 0.0018759483 0.00066303386 0.0019664338 -0.0023274403 0.0007227728 -0.0015672776 0.002493573 0.0009461924 0.00015418771 0.0011969042 0.0013047428 0.0011994351 -0.0012014947 -0.0013923805 -0.0021114615 -0.00065945945 -0.0014669953 -0.0017711757 -0.00045645295 -0.0019703002 0.001133987 0.0010646763 0.001019486 -0.0015334557 0.002330098 0.0019148162 -0.00018495817 0.0022687607 0.00012016861 -0.00058843376 -0.0017615476 -0.002221034 -0.0016680367 0.0005422404 -0.0011887912 -0.0024586488 0.0011872475 0.00025204258 0.0005480588 -0.0023217045 -0.0012774692 -0.0015721618 -0.0021636505 -0.0006681225 0.00150944 -0.0019478487 0.0006856305 -0.002145173 -0.001206792 0.00039453016 0.0020248753 -0.0002386958 0.0009493801 -0.0021981895 0.00056327594 0.0022642196 -0.001317475 0.00022761627 0.0022343278 -0.0003723413 -0.0009517363 0.0009886095 0.0018830717 0.00064584904 -0.0015083096 0.0014875645 -0.0010218398 -0.002396725 -0.0016916068 0.0022693854 -0.0007816765 0.0019681593 -0.0013739569 0.0023932362 -0.0023626287 0.00075292704 -0.00039314176 0.0007132048 -0.002418979 -0.0022291485 0.0023154898 0.00086748425 -4.8792943e-05 -0.0019094452 -8.832207e-05 9.216987e-05 0.0015341783 0.002076036 -0.0016582584 0.00086678116 0.0014830631 -0.00144938 -0.0024386714 0.0023876068 1.4981498e-05 -0.00064312853 -0.002013165 0.0023657847 0.0010656975 0.00019498324 -0.0007203551 0.0023927607 -0.0021710733
搭 0.0024390162 0.0016200716 0.0023185636 0.0003136055 0.0012906067 0.0018862941 -0.00011660262 -0.0017719733 -0.000351397 -0.00017050287 0.0004410053 -0.0019134798 7.990304e-05 -0.0024382703 -0.0002306788 0.0019682415 -0.0010512081 0.0014838692 0.002439502 0.0020597223 0.0023127664 -0.002016683 0.0021699325 0.00049675116 -0.0006702259 -0.0014350422 -0.0010979787 -0.0011740618 -0.0019039732 0.0021729309 -0.0010111808 0.0005288084 -0.001031253 0.0023205671 0.0014671652 -0.0009223378 -0.0017741809 0.0010560228 -0.0018588338 0.0022152234 -0.0019530369 -0.0006068743 0.0011582436 -0.00018179475 0.0007451409 0.00010569029 0.001749228 0.0023623942 0.0011108431 -0.0004926088 -0.0003539846 0.0017016571 -0.002479238 -0.0007692778 0.0024175034 -0.0021762329 -0.002347564 -0.0004600613 0.000989611 -0.0018934486 -0.002137811 -0.00030702766 -0.0020432642 0.0011894684 -0.0019728567 -0.001482649 0.00042355328 0.0020738475 -0.0015048519 0.0024728759 0.0005880515 0.0011363601 0.0023588613 0.0010123271 -0.00053137646 -0.0016325737 0.0009852925 0.0007735393 0.0017110509 -0.00084469654 -0.0024931268 0.00033481125 -0.0020576643 -0.0011912327 0.0006520587 0.0012725028 -0.00016127559 -0.002283784 0.001568349 0.0013748612 0.0019491226 -0.002298583 0.0014072201 0.002398098 0.00012237101 0.0011113677 0.0012674115 0.0009872174 -0.0018386244 0.0011510937 -0.0016670184 -0.0009128312 -0.0023977198 -0.001457829 -0.0024882308 -0.0019724062 -0.0011180281 -0.00085798383 -0.0011325999 0.00092652364 -0.0015277874 -0.00011896361 0.0006829541 -0.0007288414 0.0019241254 0.00012700752 0.0009741614 0.00040963668 0.0020523833 -0.00023281109 -0.00084295246 0.0021801484 0.0015691079 -0.0008430541 0.00046865566 -0.00020760798 -1.5494372e-05 -0.001150607 0.0014681628 -0.0013864236 0.0008965429 0.00021247708 0.0018741237 -0.002227833 0.00073239265 0.0008311302 0.00042112803 0.0015137085 0.0009772099 0.0012017863 -0.00025494417 0.0008447517 0.0024395837 -0.0005559863 -0.0002075297 -0.0006942722 -0.0013286944 0.0022959756 -0.0002225107 -0.0011522972 -0.0021628991 -0.0009236673 0.00042936706 -0.00025151004 0.0012310403 -0.0020067708 -0.002446546 -0.00047833708 -0.00075519516 -0.0017738567 -0.00038187308 -0.0024975352 -0.0022826255 0.0016410466 0.0015346409 -0.0008976696 -0.0017212918 -0.0017101442 0.0011138022 -0.00025579747 -0.000662652 -0.0020141292 -0.0009770315 -0.0024397464 0.0021874509 -0.0015526159 0.0011036445 -0.0017444756 0.0004641333 0.0008733662 5.9353428e-05 -0.0016346272 0.0013678571 0.0010520248 0.0019242304 0.0017362173 0.00081439066 -0.00091565965 -0.00046731107 -0.002282084 -0.0024295726 -0.0019677584 0.00073966646 0.00071605947 0.002396879 -0.0022388136 0.0018791764 0.00040190778 -0.00020613983 0.0020487404
福岡 -0.0013339879 0.0015211966 -2.171239e-05 -0.00048660988 0.0005426948 0.0021926782 -0.0011937524 0.00057394366 -0.0024385536 -0.0018908232 -0.0018725232 0.00029784904 0.0022699009 0.0020951452 -0.0017564335 0.00086903496 -0.00041671577 -0.00064130867 0.0017897432 -0.0022887068 0.0021519868 0.0001329617 0.0014735681 0.00011149156 -0.0005380803 -0.00010845542 0.0011441056 -0.0012209361 0.0018132961 -0.00039177833 0.0009842961 -0.0023565304 -0.0002473221 -0.0015342723 -0.001262618 0.0012759549 -0.0006736806 0.0014450706 0.0023263684 0.002446277 -0.0014351918 0.0017337275 -0.00118464 0.0009923464 -0.0022846947 0.00025335897 -0.00040301553 0.0017173283 0.0019285628 -0.0024044577 0.0012736237 0.00014746639 0.0003871856 -0.0012873376 -0.0016211978 0.0006666679 0.0023515576 0.00042597658 -0.001578528 0.0010330055 -0.0023297218 0.0020490973 -0.0007518711 -0.00063608313 0.00027261546 0.000970935 -0.0020062746 -0.00028281414 -0.00051701796 0.0023368262 0.0010634027 -0.001154974 -0.0011705819 0.0015874748 0.0012799967 0.0010895943 -0.00045967192 0.0023665924 -0.0017996975 0.002068226 0.0014121896 -0.001950413 0.0012639343 0.00038094586 0.0023005658 -0.0024521158 -0.0015291788 -0.0008029598 0.0015068548 -0.00058619113 0.000116000534 0.00026387788 0.00082251616 0.0013839223 0.0020654793 -0.0009031333 0.00049333804 0.00014534165 0.00026754476 -0.002036288 -0.00091904245 -0.00055378425 0.0016918385 -0.00022077866 -0.0014625754 0.0023059307 -0.0020685236 -0.0013445036 0.0017789451 -0.0006499834 -0.0014737893 3.190651e-05 0.0003237396 -0.00082542945 -0.002399149 -0.0020462645 -0.00026279467 -0.0012656793 -0.00057022873 0.0009528117 -0.0017244976 -0.0020199022 0.0017945305 -0.00043159904 -0.0020972467 -0.0009348535 0.0019251909 -0.00057637965 -0.001997732 0.0010543438 -9.424487e-05 0.0006980656 -0.0002510889 0.00077039417 -0.0015400827 0.001250466 -9.4701776e-05 -0.0010723224 0.0018582066 -0.0010849289 -0.0023631721 0.0007926537 -0.0023303328 0.00040540565 -0.002149717 0.00069987925 0.0007090159 0.0017076588 -0.0013135548 -0.0018935982 0.0019248873 -0.001981557 0.0011258362 -0.00085605396 -0.0020587929 0.002166666 -0.0015322312 0.0014304002 0.00044580488 -0.0003331468 0.0017127133 0.0014233495 0.0007526551 -0.00027731142 0.0020761832 -0.0009063157 -0.0006195944 0.002477264 -0.00016695124 0.0015458594 -0.00012851831 -0.00062414503 0.00051112263 0.00038224075 0.00030859731 0.00041388188 0.0008738651 -0.002224496 -0.0021848679 0.0024362048 -0.0015520672 -0.0013181051 0.0021232213 -3.403359e-05 0.000736511 0.001496838 -0.0007106555 -0.00055834267 0.0024046332 -0.0020818415 0.00059397856 -0.0010968328 0.0023050297 0.0016758174 -0.0005780867 -0.0023566785 -0.0024949769 -0.001164677 0.0014309117 -0.0024993215
出發 -0.0010058532 -0.00014052991 -0.00075101794 -0.0021775544 0.0018202825 0.00041588614 0.00017758286 -0.00021735407 -0.00026645162 -0.0023835993 -0.00086432614 -0.002228194 -0.001222435 0.0001432197 0.0006069924 0.0016358409 0.00020320626 -0.0024833637 -0.0018176712 -0.00054487056 -0.002151769 -0.0002137599 -0.0024213328 0.00020818747 -0.001363427 0.0024473183 -6.35609e-05 0.0015554066 -0.001114794 -0.00093815476 0.000509036 -0.001762051 -0.00092146214 3.9382394e-05 0.00012223795 -0.00043182034 -0.0010322112 -0.0020232762 0.00035537197 0.0020558585 -0.002372838 -0.0013595147 0.001339978 0.0006726932 -0.0024272231 0.0006919866 -0.00030647632 -0.0010738617 -0.00015627142 -0.0024618579 0.0005436126 -0.00015841918 -0.0010314104 -0.0004979536 -0.00045562908 -0.001962458 0.002261229 0.00035673723 0.00064541434 0.0013655333 -0.0016026169 -0.001672139 -0.0006421534 0.00035305085 -0.0008385555 -0.0017750054 0.0004353406 -0.0016086858 -0.0024113797 -0.0020539884 0.0021741698 0.0012078483 0.0017914559 -0.001627607 0.0023615048 0.0003610152 -0.0019483455 -0.0008935765 0.00029047672 0.001351082 0.0014317832 0.0007669983 0.00039956527 0.0013834975 -0.00016646578 0.00070763327 0.0016570163 -0.0016886513 -0.00064994436 0.0017187294 -0.00070181896 -0.0014220843 -0.00084820966 -4.92695e-06 -0.0003378002 0.00015911706 -0.001144382 0.0017380242 -0.0007616637 0.0020508198 0.00090211787 -3.1686493e-05 -0.0005461971 0.00056019163 0.00232601 0.00069496344 -0.0009736506 0.00041160086 -0.002333886 -0.0018030596 0.0005960401 3.6219187e-06 0.002323205 0.00038496955 0.0019823515 -0.0009903822 -0.00087679544 0.0022599297 0.0016672333 -0.0013282067 -0.00031016616 -0.0024427054 -0.0001288687 0.0014320367 -0.0022690785 0.002056178 0.0014912975 -0.0003258306 0.002205722 -0.0011231978 -0.0008089047 0.002246342 -0.0007027852 0.00081959355 -0.00049068726 0.0004752624 0.0006787062 -0.0015139842 -0.0005496914 0.0002644852 0.00072470587 -0.0008738999 0.0005801076 -0.0012094568 -0.00012053646 0.0015344438 0.002031984 -0.0017633442 0.0004981931 0.001270438 0.0006300789 0.00037883915 -0.0015009855 -0.000696412 -0.00010401216 -9.320919e-05 0.0010204313 -0.0005386523 0.0001530693 0.00054600596 0.0011145829 0.0015370719 -0.00049610616 -0.0014124131 0.0023988097 -0.0008070028 -0.0014744016 -0.0014872384 0.0014261318 -0.0004114951 -0.0023440262 -0.0016058136 0.00022649443 0.00021854466 -0.001877959 -0.0013022138 0.0017530988 0.0004955991 4.0549912e-05 -0.0014765494 0.0022950098 -0.0013380487 0.0011645954 0.0013652302 -0.00052817806 4.3522934e-05 0.002186684 0.0007700902 -0.0018466292 -0.0011900796 0.0013787933 -0.0022902114 -0.001329138 0.002433378 -0.0015624913 -0.0014758232 -0.00064278167 0.0021759511 -0.00017666895 -0.0023631614
車站 -0.0010930989 -0.0009356028 -0.0012790345 0.0011980351 0.0009198209 -0.0016626554 0.0018645165 0.0017124555 -0.0017849519 -4.782854e-05 -0.0015355488 -0.0014707341 -0.001647759 0.0007085974 -0.00058195443 0.002171426 0.002441549 -0.0013564578 -0.001923521 0.00047171096 -0.00021523667 -0.002320576 0.002145112 0.0011455973 -0.0013225661 0.00048540122 0.0023509522 0.0005579975 -0.0024111893 -0.0011845854 0.0002908381 0.0010314204 -0.0019978315 0.002414485 0.0011900055 0.0018683422 0.00014495564 -0.0022538956 0.000600946 -0.002477056 -0.0023300177 -4.3987333e-05 -0.0007597192 -0.00027951246 -0.0021948467 0.0019353034 -0.0018208731 -0.00050729635 -0.0013300275 -0.0022312617 -0.002019918 -0.0013625995 6.702059e-05 -0.000586085 0.0001548682 -0.0013315916 -0.0017543174 -0.0020878979 0.00053743576 -0.0020579754 0.0020952905 -0.0019965277 0.0016960279 0.0014623428 -0.0013784006 -0.0006402579 -0.0024714337 -0.002220695 0.0022284933 -0.0010189505 -0.00145312 -0.0020193083 0.001652959 0.0023768863 -0.00025482732 -0.0015807088 3.5232675e-05 -0.0011001935 -0.0010930346 -0.0022908535 0.002255127 0.0014394486 0.00013728741 -0.0016839001 -1.2338823e-05 0.0016570503 0.0015093259 -0.0011452807 0.0006602082 -0.0024000686 0.0012843674 -0.0022558612 -0.0011973585 -0.00093739555 9.970111e-05 -0.0011914925 -0.0020884078 -0.002016634 0.0007754111 -0.0010508064 0.0024926567 0.0015291598 0.0022820656 -0.0006457319 0.00027396085 -0.0023633102 -0.0021831489 0.00019218575 7.79893e-06 -0.002499801 0.00217694 -0.0007024675 -0.0018269512 -0.00032607059 -0.00245323 -0.0010914763 -0.0022829694 -0.0018501062 0.0024649098 -0.001968636 0.0017048048 0.0006763423 -0.0016770018 0.0002007814 0.00214816 0.001308922 -0.00034787852 -0.0006086007 -0.0002486499 0.00020924583 0.00059918215 -0.0018634431 -0.00036906896 -0.001758605 0.0018002567 0.0015994004 -0.0016429358 -0.00051362335 -0.0018581031 -0.0005161474 0.00038955058 -0.0006228112 -0.000983032 0.00078276644 0.0015578184 0.0014125345 -0.0023455315 0.0023379354 0.0023070578 0.000396326 -0.001221498 -5.74457e-05 -0.0017021602 -0.0023342888 -0.0016705063 -0.0019818924 0.0024877274 -0.0012339379 0.0002301754 0.0018311817 0.00076667254 0.00015043153 0.0017461213 -0.002297373 -0.001455472 -0.0022872011 -0.0006708209 -0.00038516085 0.0014625752 -0.0023770707 -0.0013995472 -0.0019767317 0.0009419627 0.0016972946 0.0014559226 -0.0012205743 0.0017625169 0.0020096852 7.011013e-05 -0.0009342825 0.0013018113 -0.0002701415 -0.0007197011 -0.0020280508 0.0015346388 0.00037935312 -0.0015813801 0.0014636385 0.0013451683 -0.0023095 -0.0012034713 -0.0013593625 -0.001902235 0.0013813213 -0.00085748686 0.0009733319 0.00020314181 -0.00021454808 -0.0016661773 0.0009783949
Gran -0.0020308793 -0.0008294893 -0.0010178143 0.0005755059 0.0024758663 0.002018363 -0.0020698311 0.0015470185 -0.0012486145 -0.0012567482 0.0020293924 0.0016399377 0.0007056794 8.61995e-05 -0.001001019 -0.00052650645 -1.5008358e-05 -0.00096155057 -0.0008604197 0.00083379867 0.0005912693 -0.0022052596 -0.0023602038 -0.0016252934 0.0010455651 0.00021906874 0.00038092406 -0.00025191918 0.0021174676 0.0018873784 -0.0010943513 0.0012533842 -0.00033277567 -0.0016469756 -0.0016606969 0.0024023515 -0.0024902502 0.001760039 0.0014130934 -0.0022017374 -0.0006540589 0.00033854207 -0.00078253803 -0.0010827226 -0.00029657656 0.00080135267 -0.0019343282 -0.0023592648 0.0019147691 -0.0022287008 0.0014223385 0.0013274796 0.00013449119 0.0012444669 -0.0021205088 -0.0009161339 -0.0020945806 0.0017494693 0.002323133 0.0023864077 -0.0017524469 0.00019948202 -0.001056354 -0.0017921272 -0.001979151 -0.00011157186 -0.0011983826 0.0008888945 0.0016431955 0.00018178996 -0.00094161875 -0.0019177744 0.000111048896 0.0018089031 0.00030944825 0.0015328643 -0.002061716 -0.001223463 -0.0017020779 0.0019391375 0.0005793799 8.346089e-05 -0.0016986142 -8.86424e-05 -0.0015482458 0.001619391 0.0011059155 0.0016506517 0.0014212882 0.0006851448 -0.0014276356 -0.00084814243 0.0007432829 -0.0016817361 -3.208778e-05 0.0015367944 -0.0015055335 -0.0021349536 -0.00072037947 0.00019772645 0.0020227192 -0.0022923355 -0.0013140921 0.0017996096 -0.000930884 -0.00037572894 -0.0012382997 0.0022836763 -0.00051436824 0.0008050666 0.0014046571 -0.0013374555 0.0019685053 0.0020395115 0.0008493101 0.0011797709 -0.0023576112 0.0007312921 -0.0018152873 -0.0019719065 -0.0013786821 -0.0016886991 0.002360981 -0.0018885916 -0.0018273337 -0.0016983598 0.0022536684 -0.0017806647 -9.195359e-05 -0.0010778329 0.0019770754 -0.0012578279 0.00022920502 0.0021078861 7.151475e-05 -0.001524153 0.00032781906 0.00015136377 9.439534e-06 -0.00057254813 0.0023823867 -0.0022768565 -0.00121082 -0.0018051227 0.0019121295 -0.0014121804 0.0021832068 0.001691447 -0.0005829106 0.0022223361 0.0019416605 0.0008030154 0.002187951 -0.0012591804 0.0013583419 -0.00067897013 -0.0007355983 -0.0011316505 0.0013700981 -0.0018322887 -0.00079885084 0.00051278603 0.00032350663 -0.00020488554 -0.002052033 0.0006746449 0.0009821082 -0.0022509787 -0.0008242302 -0.0019774653 0.0021351154 0.00018452738 -0.00013205233 0.0015761466 -0.0001836625 0.00083248684 -7.392667e-05 -0.0013115273 0.0022081772 0.00091590435 0.0019259336 0.0010572473 0.002023454 0.0008769684 -0.0016317852 -0.0017638243 0.0019844736 -0.00019159653 0.0012480621 -0.0012598854 0.0010428794 0.0021688975 4.133335e-05 0.0016224397 0.0020629317 0.0018940776 0.0022519932 -0.0012219856 0.0018024496 0.0023463364
好 -0.00063844654 0.0024448652 0.00015854716 -0.00077083544 0.00094919506 7.049542e-05 -0.0012949512 -0.00048088658 0.0023026257 0.001190943 0.0020086481 -0.00059705146 -0.0022673411 0.0020748887 0.001369301 -0.0021135737 -0.0012318684 -0.0008482807 0.0004901101 -0.0017147677 0.0011977054 -0.0003641154 -3.613737e-05 -0.001186001 -0.0009651741 -0.0013525983 -0.0023832945 -0.0011840453 0.001897312 0.0016852259 -0.0014371979 -0.0018682978 -0.00057432195 -0.0023156754 -3.328359e-05 -0.0022829988 -0.00083135354 -0.0015949168 0.0002529585 -0.0013390895 -0.0009293182 0.002092318 0.0006611299 -0.0022144665 -0.0017043651 4.738621e-05 -0.0012243434 0.0020458053 0.0019641742 0.0012922491 0.00076907367 0.002070086 -0.002286676 0.0014166676 0.0015690502 0.001637876 -0.00088174496 -0.00019271509 -0.0024597836 -0.0003384428 -0.002421307 0.0016283474 0.0008911906 0.0006812738 -0.0017068344 -0.00036467036 0.0002994273 -0.0020159995 0.00062573666 -0.0014199459 0.0008011677 0.0023381582 0.0013294261 -0.00091233803 0.00081343733 -0.0012178821 0.00012828338 -0.0011255961 -0.0022666976 0.0023283851 -0.000809066 0.0009485471 0.0024018076 0.0008924064 0.0006725313 -0.0015115042 0.0013879449 -0.0014550296 0.0011919361 -0.0017209854 0.0005618053 -0.001083919 0.00023198221 -0.00175932 0.0013122597 -0.0002893853 0.0023028539 -0.0012436776 -0.001172516 0.0012527548 -0.0022549685 -0.0016232458 0.0022866551 0.0012967298 0.00093072065 -0.0023459806 -0.0020186866 -0.0014950926 0.002254333 -0.002454225 -0.0020830936 -0.0016669419 0.0010115966 -0.0021620959 0.001978073 -0.0018390379 0.00033934633 -0.0013447037 -4.9241364e-05 -0.001981464 -0.00027901432 0.0019230734 -0.002342794 0.0020177937 0.0007099613 0.0016163426 -9.038565e-05 0.0023418902 0.0022645807 -0.002125742 0.0011828423 0.0007970101 0.0017502763 -0.0023268044 0.0017489694 -0.002083054 0.0015102006 -0.0005747466 -0.0002298872 0.0006301573 -0.0021166827 -0.0021202415 -0.0015960099 -0.00048530594 -0.00210757 -0.0020742004 -0.00069584296 0.00016120393 0.0007594726 0.0005085913 0.0017412924 0.0010974469 5.308856e-05 -0.0021556502 0.0007582496 -5.41696e-05 -0.0013172285 -0.0004305864 -0.0019285686 -0.0017393276 -0.00019781764 0.00025476574 0.0007783743 -0.0018656707 -0.002389703 0.00033298423 -0.0003322013 0.00058767764 0.0011400643 -0.0005780202 -0.0009434697 0.0005942308 -0.00024346044 0.0012264922 -0.0009606874 0.0022064433 -0.00034241306 0.0017358052 0.0006818055 0.002284334 -0.0015385891 -0.002429331 0.0012295595 0.00046768493 -0.00051365944 -0.0005500683 0.0011274634 0.0022321956 0.00088476046 0.00091557554 -0.0019238591 -0.0021151744 -0.00084194954 9.497471e-05 3.467237e-05 0.0004004188 0.00011346576 -0.0018675746 0.00029736705 -0.0024129152
人 -0.0011824614 0.0012671251 0.0005082372 -0.0019410717 0.0014678776 -0.00033819722 -0.0024713394 0.0020992411 0.0018163805 0.00046206985 0.0005939359 0.0015769688 -9.117671e-05 0.0016825406 -0.0012987793 -0.0019317123 -0.002120444 0.0021741628 -0.0010912457 -0.0023501765 0.00030099225 -5.942251e-05 0.000171131 -0.0013400525 0.001715915 0.0015192559 0.0011472468 -0.0009776149 -0.0004354668 0.0013648996 -0.002067595 0.0010964008 -0.00081750425 -0.00038319654 0.00091768266 0.0013767775 0.0007519227 0.0013316877 -0.00041888742 -0.00154572 -8.429961e-05 0.0021477873 -0.0008846209 0.0014820225 -0.001006536 0.0015559753 -0.00031161087 -8.736645e-05 -0.00097158307 -0.00203522 -0.00091941527 0.0007111801 -0.0017582165 0.0024444268 -0.0018147654 0.00038656848 -0.0007562489 -0.00021119675 0.0013344629 -0.0014934995 0.0014951364 0.0020946416 0.0008078912 3.2122465e-05 0.00074985635 0.00010139129 -0.0022163794 0.0011357208 1.8273167e-05 -0.001865277 0.002108426 -0.0016946202 0.002230466 0.0005955019 0.00015918785 -0.0021541636 0.00028815417 -0.0002851332 0.0023305186 0.00093915896 -0.0010578557 -0.0013362193 -4.834608e-05 0.0004980241 0.0017760837 -0.0005294872 -0.0020622294 -0.0005743273 -0.0017388372 -0.0010351471 0.0010183834 -0.0017211983 -0.0011162645 0.00020144861 -0.00029223232 -0.0012968733 0.0020952343 -0.0017467401 0.0008560263 0.0017010131 0.0023251206 -0.0021388354 -0.0013151225 0.0009860476 0.0005062835 -4.1772244e-05 -0.0008781321 0.00019725163 0.00060429616 -0.0010674577 -0.00033255678 -0.001567797 0.001599152 -0.002098824 -0.0008808541 -0.0010553094 -0.0014912427 0.0020781797 -0.0018925772 -0.001451111 0.0010442375 8.40543e-06 0.001382496 -0.0020943033 -0.002426111 -0.00029398128 0.00085200113 0.00039155444 0.0012736828 0.0020577363 -0.0015526754 -0.0017225104 0.0002124478 -0.00025338287 -0.0020176184 0.0024646162 -0.0024805246 -0.0009436597 7.050044e-05 0.0016687681 -0.00015174977 -0.0009384456 -0.0012684714 -0.0010503427 -0.0006045673 6.134769e-05 -0.0004534694 0.0002733011 0.0006576017 0.00045905478 -0.0009395799 0.0019488082 -1.8848592e-05 -0.00032914412 -0.0010250638 0.0017103527 0.00034594943 -0.000886993 6.968791e-05 0.001684861 -0.00015595947 0.0015353885 -0.0012899581 0.0021916733 -0.002104788 -0.0005536361 -0.00058834977 -0.0021361813 0.0021912195 -0.0011361155 -0.0011669022 0.0024027831 0.0019982199 -0.00119421 -0.00064911076 5.3351592e-05 0.002243243 0.0014317197 -0.0009593342 0.0012192796 0.0009394033 -0.0003753175 0.0022709037 -1.2569664e-05 0.0022642391 -0.0013951967 0.002320857 -0.0014456615 -0.0020669573 0.0022144238 0.0004493245 -0.00087129005 0.0022956226 -0.0004809791 0.0015714385 -0.00080192153 -0.0010983723 0.0013773384 0.0018300089 -0.000759579
系 -0.0014441719 0.001077343 0.0008028122 0.0020503916 -0.00013885422 0.0005224879 0.0015301972 -0.00016044088 0.0023097266 0.000636243 0.0013664137 0.0024083063 -0.0008413521 -0.0012713439 -0.0023576107 -0.00082962355 0.00067510473 0.0013212534 0.00079979503 0.0013479524 -0.0021444755 0.0017473603 -0.0006106265 -0.0011093608 -0.0013263322 0.00069014815 -0.0011956885 -0.0019182304 0.0012499281 -0.00080489245 0.0009896026 -0.00064537 -0.0024114025 0.0007873644 0.0022459337 -0.00024327406 0.00077222806 0.0013964542 -0.0014739378 0.001171661 -0.0019406531 -0.0019695468 0.0015146744 0.0013890999 0.000735873 -0.0011177264 0.00132178 0.002461407 -0.002180325 1.67239e-05 0.0017761283 -0.0010169978 -0.0019325464 -0.0020261891 -0.0023228177 -0.0014492453 0.0023095382 -0.0024383068 0.0009330498 -0.0016627387 -0.0016793006 -0.0015533926 0.0004238257 0.0012756862 -0.00025655178 -0.00080115424 -0.0022097009 0.0021421686 0.0003707724 -0.0009833452 -0.0006585149 -0.0008981987 0.00026248253 0.0021441348 0.0023051777 0.0003940979 0.0004666971 -0.0022305083 0.0022459459 0.00092933624 -0.0015658755 0.0008660681 -0.00057448196 0.0023157545 -0.0019004067 0.000811653 0.00054749916 0.00046713863 0.0023903477 -0.0017055019 -0.00013593004 -0.0018981767 -0.0013945226 -0.000210347 0.0007396062 -0.0005069164 0.0020757436 0.0013865997 0.0021728277 0.0007355456 -0.0018790927 0.0017311709 -0.00088337506 0.00026728777 0.00018623688 0.0012011757 0.00012726722 -0.0001293729 0.0020763155 0.0007448409 0.0021235172 -0.0020574655 0.000844677 0.00056859734 0.0012648205 3.4465396e-05 0.0019418126 -0.0016118186 0.0020228033 -0.0018791723 -0.0012742903 -0.0002665872 0.0005181764 -0.0011988067 0.00017424047 -0.0014741849 -0.00135961 0.0001380047 0.0013107144 -0.0014488408 0.0021757013 0.0001946782 -0.0021588535 0.002185251 0.0024383166 0.00065541413 0.00034123316 0.0003739143 -0.0024683995 -0.00093925436 -0.0021026756 -0.0015758867 -0.00037113862 0.0008777203 -0.0007713285 -0.001150814 0.0012666789 0.0015949914 0.001930929 -0.0019094981 0.0017348718 -0.0014414476 0.00057937804 0.00040491988 -0.0020145555 0.0016261587 0.0017347966 -0.00020737511 -5.8327405e-05 -2.4709243e-05 0.0010285783 -5.122992e-05 0.0022649844 -0.0009948444 -0.0017292995 0.0024768522 7.514044e-05 0.002114855 -0.0023214703 0.002143299 0.001146326 0.0008416282 -0.00022831085 0.001684842 0.0015573272 0.00028915502 -0.0015957446 0.0018740995 0.00085871795 0.0003630063 0.0010254397 0.001340297 -0.0017899474 6.281236e-05 0.00022413583 -0.00023591745 -0.0016391234 -2.6882439e-05 -0.0012653806 0.00046159682 -0.002484473 0.00019069164 0.0023065815 0.00161994 0.0023720104 0.0010954405 -0.0017312309 0.00037053745 0.00035480005 0.0021595065
綠色 0.00082472427 -0.00026898587 0.0012165642 -0.0017052826 0.00086064177 0.00045428172 0.0010768796 -0.0015886495 0.000104640254 -0.001786062 -0.0004781839 -0.0006241401 -4.0199066e-05 -0.0023383547 0.0017699619 0.0012141325 0.0009312743 -0.0023166991 0.00168403 0.00023489496 -0.0011164981 -0.0012019989 -0.0015970069 0.0005810384 0.0002253174 0.002390353 0.0021719274 0.0010387218 8.495809e-05 0.0023643745 -0.0014801045 -0.0014354577 0.0011918781 0.0007859342 -0.0010528568 -0.0011541682 0.0018188857 -0.0018217437 0.00076683145 0.0012893539 0.0005281762 -0.0024682484 0.0002693516 0.0022557927 -0.0012627363 -0.0023276329 0.0010643589 0.0020758745 0.00051613303 0.0005724559 0.0019767387 0.0014312427 0.0012813269 0.000990015 -3.0841213e-05 -0.000960208 -0.0003581226 -0.00050044013 0.0012074842 -0.0015132172 -0.0019020807 0.0006328434 -0.00071848364 -0.0018431976 0.0010020396 -0.0020000841 0.0006275215 0.00067699107 -0.0012103398 -0.00086520746 -0.00034899494 -0.0021082934 0.0008830324 -0.0014641994 0.0014505128 0.0022132203 0.0015866768 -0.0021205652 -0.0014277778 -0.002033726 -0.0009771185 -0.002010438 -0.0020468263 -0.0013113454 0.00011801367 -0.00067991385 -0.00044483636 -0.0022517785 0.002425096 -0.0012405671 0.0022776942 -0.0010448674 -0.0014580291 0.0011803478 0.0002605683 0.0015179197 0.0014532041 0.00013642565 0.001637628 0.0019134337 -0.002491725 -0.0012228374 -0.0007634345 -0.0015245941 -0.002380718 -0.0024886695 -0.002445417 0.0014749272 -0.0021233016 -0.0012300565 -0.00021701748 0.0008436135 -0.001255523 -0.0018011194 0.00011214528 -0.0018075983 0.0015524091 -0.0019810563 0.002371914 -0.0003730593 0.0007661481 0.00015585715 -0.00021052803 -0.0018351967 -0.0007854746 0.0005532102 -0.002287817 -0.0014693721 -0.0011542593 0.0014492221 -0.0022389896 0.000554331 0.0014282289 -0.0014059845 -5.7131598e-05 0.0010123312 0.0013590425 0.0017615661 -0.00030229683 0.00017567659 -0.00075514696 0.0008903936 -0.002085814 5.251266e-05 -0.00089099415 -0.0023821183 0.00027932753 0.0005473033 -0.0017261805 0.0023414197 0.0015462553 -0.0006776123 -0.0015434681 -0.002095829 0.00084589876 0.0012331577 0.0011059288 0.0022499957 -0.0009873128 0.0005023278 -0.0007163152 -0.000853784 -0.00049840705 -0.00032668287 -0.00032811833 -0.0019836714 0.0016896769 0.0019838081 -9.1792026e-05 0.0014573486 0.0017535688 0.0017977111 -0.0012403206 0.0019062833 -0.0019968958 0.0013944764 0.0023534894 -0.0005829217 0.00022259243 -0.0022194078 0.0015391873 -0.00039172618 -0.0014983338 0.00220743 0.002168973 0.0005320933 -0.0016088802 -0.0019649824 1.7669221e-05 0.0010699595 0.0021228122 -0.00058063754 0.0022125884 -0.0006898651 0.0006759082 0.002267879 -0.0018037107 0.0023940704 0.0019321019 0.0008659155
想 0.0024936756 -0.0008582743 0.0002485323 -0.0012078851 0.00010678311 -0.00031337864 -0.0009025382 0.001102689 -0.0018975851 -0.00036981463 0.0014383108 0.00034192813 0.0015170476 -0.00060657214 -0.0018300093 -0.000515906 0.0020953303 -0.0016300263 0.0013951476 -0.00061126426 0.0018961353 -0.00013422756 -0.0018473389 -7.60078e-05 0.0016092301 -0.00018088841 0.0017265399 0.00026532708 -0.0005540747 0.0020743976 0.0016180237 0.00023006498 -0.0017589934 -0.00049378234 -0.001427313 0.0019964133 -9.9805446e-05 0.00033105526 -0.00090752804 -0.0020959144 0.0013064729 0.0022821692 -0.0019500304 0.0018182142 -0.0010942768 0.00052958535 -0.00026114585 -0.00037663637 8.996755e-05 0.0011160448 0.0020968611 0.00013173454 0.00054710417 -0.0021681567 0.0020745164 0.0010002374 0.0019119211 -0.00079592166 -0.001847173 -0.0015340865 -0.0019951656 -0.001129194 0.00096911314 -0.0010445614 0.0021771193 -0.0017855366 0.00072388235 -0.00094932807 -0.0024211067 -0.0023634478 -0.0021770357 0.0013186014 0.0006475326 0.0012646638 0.0022342347 0.0003499115 5.394299e-05 0.0011410111 0.0023195255 -0.0010371765 0.00034007506 0.00110741 0.0014817014 0.0023288673 -0.0012326837 -0.0012492521 0.0011116606 0.0022010081 -0.0018451039 0.0006601202 0.0020940825 -0.0021879037 0.001511628 -0.002248765 0.001355909 -0.00030634576 -0.002239438 0.00038996845 -0.0024830922 0.0008850543 -0.00078405434 -0.0010742139 0.002246441 -0.0022175447 0.0003347481 0.0017737587 0.0011346532 0.0012388398 0.002142876 0.0011126293 -0.0010553582 -0.0017808961 0.0011612753 0.00063873245 0.0011649681 -0.0009556509 5.8556194e-05 0.00010932133 -0.001901271 0.00042213342 -0.0019168331 0.0018765056 0.001801024 0.0015670583 0.0023420767 0.0015921787 -0.001016271 -0.0019035913 1.0311864e-05 0.0020906685 0.0012980984 -0.0020543989 -0.0007402247 0.0021797034 -0.0009281581 0.0023520843 -0.0002889771 0.0024669247 -0.0016465852 0.0020959664 -0.00064545235 -0.0006475003 -0.0011057433 -0.0018407173 -0.00028343414 -0.0005917307 -0.0008208651 -0.0008106934 0.0017165589 0.0023012108 -0.0017225335 0.0019877607 0.000441093 -0.000314909 -0.0021405017 0.0017244098 -0.0022089137 0.00027491126 0.0016814007 0.0013049478 -0.00034733655 0.00075406 0.0020679322 0.00058144535 0.002363087 -0.00072202354 0.0009882412 -0.002107003 -0.00023930003 -0.001103285 0.00013563145 -0.00038158547 0.0002305543 -0.0021169225 0.0022154674 -0.0008516365 0.0014410068 1.5638043e-05 -0.0017860946 -0.00030564185 -0.001697696 -0.0002123742 -0.00085828 -0.0008820921 -0.0011700953 0.00020184324 -0.00032786286 -0.00043576676 -0.0024260322 0.0010066339 -0.001944681 -0.0022664766 -0.0009636788 0.0013584102 0.0008112081 0.00021951973 0.0017851373 -0.002217162 -0.0010158111 -0.0022288342
放 -0.0011728584 0.001220832 -0.0016048704 0.0011056591 0.00044343542 0.0011352439 -0.0023823555 -0.0022822456 -0.0010005848 0.0009799936 0.001514829 -0.00031911646 -0.00076196005 0.00065545365 0.0019229541 -0.00016307246 -1.7622038e-05 0.00079091394 0.0015492883 -0.0011811632 -0.0022940391 0.001727467 -0.0010191486 0.0016618476 0.0023301472 0.0008779819 0.00042380783 -0.0022363423 0.0011814534 -0.0015014451 0.0012336762 0.0024761902 -0.00016324176 -0.0021350181 -0.0008733282 -0.001821423 -0.0013130609 0.0004406297 -0.00069934444 -0.0020803134 -0.00069896213 0.00037756783 0.0023822575 0.002088029 -0.0017517954 -0.0012644707 0.00027554907 0.0007613326 -0.0014520967 -0.001064816 0.0019100851 0.0021524045 0.0017872028 -0.0015202824 0.002261343 -0.0008006068 0.00050893245 -0.00022342497 0.00061547395 0.0010807504 -0.0004921424 0.002257443 -0.0019326042 -0.0020656667 -0.0012706302 -0.0011762399 0.0012033975 0.0008666715 0.002159077 -0.002239757 -0.0019256901 0.0015568589 0.00056646875 0.000640052 -0.00046823823 0.0019400424 -0.002318349 -0.0020237684 -0.0007644301 0.0014077396 -0.0019047321 -0.0017737134 -0.0023652196 -0.0014622097 -0.0016048732 -0.0022481072 0.0014039549 -0.002098097 0.0014958411 0.0011593573 -0.0014811916 -0.0017508935 0.002468292 0.0019226418 -5.5856006e-05 0.00071016786 -0.0010525532 0.00015604489 0.0021782578 -0.0011023296 0.0019698462 0.00021790383 -0.00011964748 -0.0004213555 -0.0024385457 0.0012670653 -0.00089546904 -0.0004246146 0.00032612434 0.0023098898 0.0010327895 0.0018322418 0.0010850615 -0.0022429063 -0.0009241791 -0.0022159973 -9.2612114e-05 -0.0003863768 0.0015956154 0.00041083482 -0.0023974194 0.0014976829 -0.0008015836 -0.0005000371 0.00066201575 9.520462e-05 0.0018578154 0.0013671538 0.00013171048 0.0016800904 0.0023016613 0.0020024288 0.0021300316 -0.0022569245 0.00023114601 -0.0018701261 -0.00041569874 -0.0011791388 -0.0019593271 -0.00079640513 -6.92865e-05 -0.00061315217 -0.0015346177 -0.0021970146 -0.0020905214 0.0013732065 0.0024476284 0.0007564664 0.00074900995 0.0023144488 0.00048701547 0.00062642765 -0.002077001 0.0015466124 -0.0015096106 0.0018939127 -0.0022582894 0.0024128808 0.001320728 0.0020582322 0.00013207109 -0.0014153507 -0.0015735191 -0.00095932995 -0.0006968504 -0.00088480586 -0.0011729145 -0.0007151184 0.0024917964 -0.0008616764 -0.0014930405 -0.0019980099 9.421041e-05 -0.0017451694 -0.0021359448 0.00088400603 -0.0012027315 -0.00086475664 0.0013317186 -0.0011964086 0.0006159425 -0.00045414825 0.0018962314 -0.0011077347 0.00010584605 -0.00019080033 0.002336778 0.00068388553 -0.00066822866 0.0016767415 0.0014441048 0.0023175366 -0.0007989607 -0.0016011879 -0.00050383876 0.00021036084 -0.00052698655 -0.00067282177 -0.0003900824 0.0024679534
感覺 3.9724793e-05 -0.00082609535 -0.0024634067 0.0018292515 0.0013524438 -0.0003899186 0.0016704209 -0.002414335 0.0017618003 -6.3452906e-05 0.00028283408 -0.0004712449 0.0022867175 0.00071002933 -0.0010746449 -0.0011840846 -0.002440012 0.0023303498 -0.000926397 -0.0014778 0.0014402005 -0.0018628723 0.00088521256 -0.0022613343 -0.0016703437 0.0019309054 0.000759451 -0.0018291147 0.0019365491 -0.0015926977 0.0021439022 -0.0012141701 -0.0023476381 -0.00091190165 -0.0014641947 -0.0007623303 -0.0023562554 0.0017547056 0.0022707493 -0.00054504455 0.0003113215 0.0002580864 -0.0004491058 0.0004048553 0.00090570183 -0.002269935 -0.0001740138 0.00080896606 -0.001933715 0.000820952 0.0019700965 0.0005898351 -0.001877315 0.0020879814 0.00074906176 -0.0007737039 -0.00068443245 0.0010601396 -0.00015375251 -0.00093367754 -0.0022114194 -0.0010809653 0.0010791762 0.0021836257 -0.0017588155 0.0017907112 -0.0018909863 0.0015872825 0.0003041956 -0.00030242204 -0.0014893792 -0.0013633933 0.001974888 0.001529539 -0.0021195177 -0.002414529 -0.0019863187 0.0019195596 0.0012642568 -0.0001554697 -0.001779931 0.00061190507 0.0015048634 0.0003790543 -0.00030809623 0.0012705699 -0.0024975713 0.0014352885 -0.0015038552 -0.001254336 -0.0003725505 2.4769013e-05 0.00067596504 0.0006818789 0.0007067166 0.00075929053 0.00236424 -0.0011484358 0.0011904013 -0.0014955204 0.0021202895 -0.0021946218 -0.0011145872 0.000751795 0.0012169457 -2.6858079e-05 0.0005062959 -0.0004407065 -0.00083838304 0.0023065817 0.0012909599 0.0010524603 0.00095945253 0.0013704702 0.0015218777 0.00011262771 -0.0023650948 -0.0024390346 -0.00029467803 0.000473882 -0.0024220906 0.0021192983 -0.0011188897 0.0005484606 0.00070825865 0.00035081184 -0.0014743112 -0.0012915096 0.0008710316 0.000123473 0.001930255 -0.0019952748 0.00053865986 0.00067918166 0.0022486716 0.0011980562 -0.00041095636 -3.693611e-05 0.0022305392 -0.00025692856 0.0010119539 -0.0022640384 -0.0008897583 0.00013379229 -0.002212586 0.00072514534 0.00017730644 0.001368006 0.0010852587 -0.0014048526 0.0010975114 0.00045837142 0.00055575115 -0.0015391295 0.0012198122 0.0021877908 0.00021858844 0.0014733459 0.00044619397 -0.0012686191 -0.0013654203 -0.002348658 -0.0006718267 0.0011253911 -0.0008538682 0.0011082027 -0.0018796402 -0.0009691787 -0.00076288095 0.0021115292 -0.0006455428 -0.0024159383 0.0022790171 0.0017609862 0.0016499814 -0.00058588985 0.0023725438 -0.0016697872 -0.0023934217 -0.002084478 -0.0020107722 0.001203132 0.0022109644 -0.0021185817 6.2433355e-05 -3.8298153e-05 0.0005662444 0.0010467748 -0.0010473821 -0.0011119456 4.159248e-05 0.0015938883 0.00012859906 0.0012504889 -0.0006156264 -0.0022176104 0.00062535156 0.0017918013 -0.0012713084 -0.0020925736
站 0.0024145395 -0.0014517679 0.0021968605 -0.0003884135 0.002248035 0.002430833 0.00173579 0.00090499467 -0.00043681051 -0.0009967904 -0.0017994043 0.0005035912 0.00034245517 0.0019235079 -0.00046821273 0.0009049058 -0.0022937036 0.0024743415 -0.0020270546 -0.0016271702 0.00025007757 -6.812811e-05 0.00049336534 -0.00026102638 0.0018909586 0.0011226622 0.00016020477 0.0012652114 0.001368161 -0.0019209954 -0.0014384349 0.0008846056 -0.0018897557 0.0018301847 0.0002455841 0.00077808445 -0.0016491435 0.0015177252 0.002457551 -0.0012168561 -0.001157604 -0.0020339245 0.0018732272 -0.001531881 -0.0022210807 -0.00075303693 -0.0013904953 -0.001498515 -0.00027210024 0.001255557 -0.0021838085 0.0013799998 0.0022717463 0.001822585 0.001612345 -0.00077378197 0.0016680557 -0.0008101629 -0.002196911 -0.0009894951 0.00016671457 -0.00015692612 -0.0009767949 0.0016072596 0.0013072363 -0.0013692662 0.002302992 0.0023711673 -0.00047618948 0.0024834638 -0.0016778685 0.0018481597 -0.0006530558 -0.0004945721 -0.0008968842 0.0012542283 -0.0024351042 -0.0015937227 0.0018078802 -0.0018430536 -0.0019780465 -0.00039141896 -0.0013926924 -0.00075277477 0.0007033787 -0.0022208479 0.00038088305 -0.0015131041 0.0007852578 -0.0006212385 0.00062103255 -0.0016175491 0.0013623511 0.00089086225 1.0773835e-05 0.0024318702 0.0013081073 0.00050740276 6.885796e-05 -0.0018579736 0.00018894178 -0.0014109863 9.719745e-06 -0.0013436824 -0.00010310282 -0.0017912922 0.0024929643 -0.0022290186 0.001401259 0.00023489125 0.0020819353 -0.0024199956 -0.00027977256 0.00034357424 0.0016825823 -0.00015236103 -0.0015230183 0.00065227825 -4.7036392e-05 0.0020945298 0.0020664132 -0.0013691116 -0.0022317942 0.0020180724 2.2065511e-05 -0.0011334879 -0.0022332582 0.00023370644 -0.001228006 -0.0015812973 0.00048258473 -0.0021277168 0.0022350582 0.0015521387 0.0013084773 0.002383285 -0.0018274261 -0.00061605434 -0.0010361933 -0.00056614703 0.0007726928 0.00094993383 0.0023389326 -0.0014894691 0.001980206 0.0011523608 0.0014228087 0.0023072092 -0.00029439904 0.0011210738 0.001727761 0.0009792203 0.0013794751 -0.0023509231 0.00077674526 -0.0013599674 0.00016471426 0.0013509197 0.0023342313 0.0012387525 -0.00032466906 0.00022652467 -0.00048108964 -0.0002884597 -0.00058181956 0.0005558807 -0.00050080486 -0.0014071532 0.00182552 -0.0006534617 -0.001990179 5.6863668e-05 0.00058341265 0.0013721177 0.0008115638 -0.002216291 0.002070603 0.00043624034 0.0022082168 0.00010858549 -0.00026979382 0.0015603825 0.0017190888 -0.0012681275 0.0003938189 0.0001577766 0.0016399857 0.0005791192 0.0022148443 -0.0016677266 -0.002123585 -0.0022472406 0.0023393275 -0.0021014984 0.000982044 -0.0004710777 -0.0014614837 -0.00097613 -0.0003093738 -0.0007957201
再 9.036871e-05 0.0023975137 -0.0005327127 -0.0015782478 -0.0016081914 0.0015979396 0.0022357376 0.0007231944 -0.0018908785 -1.3652776e-05 0.0009926532 -0.0015224271 0.0007743095 0.0019753722 0.00051785196 1.6809588e-05 -0.0011058294 -0.0011610381 0.0016560858 0.001443625 0.0011931015 -0.0021706354 -0.0006035024 0.0018776915 0.00034996384 -2.1340531e-05 0.00085692975 0.0018437938 -0.00035396678 0.00022496341 -0.0019380596 0.0009347225 0.0014500165 0.0020954197 -0.0020858857 0.00084482227 -0.0005897734 0.0014117395 -0.00046159857 0.0019505174 -0.0016467802 0.00096326973 -0.00018374865 -0.0015902416 -0.0010322757 0.0018972007 0.00026091302 2.4117026e-05 0.00045004874 -0.0023522493 0.0019330535 0.0012561728 0.0003623016 -0.0003520925 5.8812973e-05 0.000558682 -0.0004148033 -0.001271492 -0.0005248777 0.0018277481 -0.00022994938 -0.0013755545 0.00082493783 -0.0005297941 0.00094542274 -0.002434114 0.0016739945 0.00036141404 -0.0017598299 0.001474102 0.00018198091 -0.001551225 6.236828e-06 0.0018805942 0.00076983264 -0.00030255143 -0.0014869688 -0.0021542683 0.0011167179 0.00039855778 0.0015718738 -0.0006909426 0.00020238783 -0.001367336 -0.0010177875 -0.001866888 -7.4576084e-05 0.0022346682 0.001308561 -0.0013997586 0.0004765476 0.00056066096 -0.0014853401 0.0006310687 -0.00023359289 -0.0015053555 -0.0015147697 -0.001428569 -0.0012218077 -0.0009571865 -0.0010127239 -1.555513e-06 -2.9273565e-06 -0.001359511 0.0024146545 -0.001657454 0.0006368614 0.0016176159 -0.00030139636 -0.00097085634 -0.0006691805 0.0010844779 0.0008623812 7.144257e-05 0.0023062672 -0.00068651914 -0.000535507 3.243382e-05 0.0016319219 0.002364948 0.0021623103 0.00087548996 -0.00065184257 -2.5067859e-05 -0.0012472542 0.00017914014 -0.00056818285 0.002477945 0.00043829143 -0.0016059633 0.002030535 -0.0014356974 0.00021789676 -0.00078199996 -0.0017857006 0.00031958584 0.0011217141 -0.0004327029 0.0012007513 -0.00011649959 0.0014597893 0.00073740527 0.00040871548 -0.0002505673 0.00062066276 0.0006926475 -0.00093409175 0.0007136753 0.00082369597 -0.0014776977 0.000819067 -0.0012002924 -0.0015213023 -0.0009360663 0.0014233093 -0.0024372165 -0.00024645255 -0.00081703457 0.0006957383 -0.00020859519 0.0021424452 -0.0018332687 0.0008539631 -0.0018161201 0.0011417497 -0.0013747378 -0.0021203961 0.0012385322 -2.765207e-05 0.000932864 0.0022353954 -0.000101599566 -0.00024499392 0.0022047025 -0.00031015195 -0.0023157273 0.0006627256 -0.0016360792 -0.0008275183 -0.0011357181 0.0017137117 -0.00089870545 0.0018448058 -0.0022539336 3.2476119e-06 0.0016130444 -0.0010923306 0.001697856 0.0014610958 -0.0005089177 0.00031154024 0.0020061212 -0.00014031741 0.001628914 -0.00016479415 -0.0007791775 0.0017245939 -0.00091587583 0.0008033113 0.0011951864
別府 0.0008111376 -0.00032133044 -0.002492904 -0.0019946021 0.00030361963 -0.001833735 0.0012414542 0.00047188133 0.0009932534 -0.00018293437 0.000789218 0.0023250978 -0.0008657392 0.0018469138 0.0017471956 -0.0017071482 -0.0012277641 -0.0020420046 0.0010822397 0.0010957011 -0.0006716895 0.002115813 -0.00038116198 0.0015644709 0.00047287808 -0.0014370804 0.00043673048 -8.35458e-07 0.0010735136 -0.00048549176 -0.0015769203 -0.0023064485 0.00015106909 0.0013619938 -0.0014571612 0.00074255123 -0.0016562652 0.0011327302 -0.0008163976 0.0006858596 0.00085488334 0.00041152647 0.0015994888 6.8824775e-05 0.002389877 0.0007967137 -0.0007379299 0.00090080383 0.0014244803 0.0016946782 -0.0017515766 0.0013073263 0.0024525234 -0.0017746178 2.773099e-05 0.0019020917 -0.0003860602 0.00021761547 -0.0023140514 0.002456429 -0.0015858626 0.00054179924 -0.0005598337 0.0013407664 -0.0015066465 -0.0017811441 -0.00038708633 -0.0006506914 -0.001640284 -0.0014423564 0.0012932414 -0.0002322444 -0.0020409548 -0.0011986208 -0.002448045 0.0022524416 -0.0019680792 0.0013765967 0.0003043267 0.0023336124 -0.00155843 0.0015004851 0.0003074662 -0.0022195862 -0.00151176 0.00032220615 0.002267098 -0.0015382587 0.002424522 -0.00176714 0.0012252914 -0.00073009473 0.0023060702 -0.00024733585 0.00093087065 0.0014178774 0.00012102134 0.0015910441 -0.00036216094 -0.0020883945 9.332761e-06 0.00095170015 -0.0011689853 -0.0003922795 0.0002683354 0.00075101823 4.4292105e-06 0.0019156961 -0.0020478165 -0.0022551033 -0.0019876515 -0.0015872893 5.3493204e-05 0.00053302606 -0.0017549096 -0.001438028 0.00042853385 0.00011583982 0.0016922452 -0.0023931048 0.002397768 0.0015223861 0.00043733217 -0.0017071367 0.001656131 0.0004953925 0.00012922079 -0.002465083 0.0020546438 0.0010744666 -0.00222874 0.0012610025 0.0019921071 -0.0007689092 0.0014501261 0.00013630542 0.0014991476 -0.0017589815 -0.0005135397 0.0012245831 -0.0011767511 0.0022288533 0.0014134056 0.0019531045 0.0016387055 2.0739692e-05 -0.0006470854 -0.00089234643 -0.0017059428 0.00029727924 -0.0020809558 0.0011392091 0.0017896603 0.00026405932 0.000118908996 -0.0004070228 -0.00018600268 0.001991452 -0.0023455303 -0.002233951 0.0010257391 0.00019972 -0.00012527303 -0.0021222262 -0.0008908521 -0.0022496083 0.0020319324 0.0007095215 0.0008106408 0.0005726605 -0.0015209664 -0.000281371 0.0014493163 -0.0013990209 0.00016724555 0.00054369186 0.00020091883 0.000106760126 0.0022176555 -0.0007277127 -0.00062825397 -0.0015610256 -0.00024992088 -0.0012651341 -4.037207e-05 -0.00206028 -0.0019689938 0.0013650801 -0.0007261121 0.0013846599 0.0018884721 -0.0017402931 0.0024224448 -0.002086114 0.0019425373 -0.0015758562 0.0006874507 0.0011415811 0.0011881903 -0.0015393726
小倉 -0.0022165484 0.0017076645 -0.001648773 0.0020696935 -0.00030207087 0.00030742693 0.0019085117 -0.0005064751 -0.0003483904 -0.00034427416 -0.0014471564 -0.0024197653 0.00057723344 -0.0017116097 0.0007577248 0.00012907504 -0.0010506015 -0.002150656 0.0019298309 -7.828763e-05 0.00023332116 0.0009834033 -0.0022349425 -0.0008057577 -0.0010342957 -0.00134787 0.0022308324 -0.00048110748 0.0016128776 -0.0008836202 -0.0023962734 0.00032242018 -0.0022897979 -0.0011147846 0.00024399156 -0.00051446364 0.0014271485 -0.001225718 -0.0016616975 0.00065965316 0.00222245 0.0014121868 0.0009715947 -7.893278e-05 -0.0020942062 -0.0013209716 0.0019440561 0.00014522961 -6.493823e-07 -0.0003732545 0.0024329156 -0.00069334236 0.0014380742 0.00039290718 -0.0017487245 -0.0003292602 0.0007203125 -0.002109352 0.000498587 0.0020679282 -0.002418654 0.0014896912 0.0008678114 0.00066721754 -0.00077113893 -0.00092542625 0.0015000065 -0.00090782734 -0.001166882 0.0016039877 0.00023698741 0.00017057158 -0.0017535613 -0.0020380423 0.00089310674 0.00028807373 -0.00062223204 -0.0017274257 -0.0018083995 -0.00049608055 0.0020163625 -0.001962928 0.0019984308 0.0015380246 0.0024159015 -6.73524e-05 -0.0016969771 0.0008511204 0.0009025643 -0.0018201767 0.0023960483 0.0010753077 -0.00051172456 0.002201331 0.0011536379 0.00037110675 -0.0016406367 0.00050840474 0.0024605235 0.0007747553 -0.00022669688 0.0015995249 -0.00017627039 0.0005964823 -0.00070744514 0.00080267567 0.0018654625 0.0011764897 0.00051141897 -0.0023144083 -0.00097486307 0.00046547686 0.0013472812 0.0017154627 0.0008631529 -0.0009085461 0.001254389 0.001883392 0.0024477271 0.0008777231 -0.0014138526 -0.00021160246 -0.0007247032 0.0020357051 0.0011666082 -0.0008775726 -0.0005402541 8.706589e-05 0.00024239384 0.00021541571 -0.0020622176 -0.00031179594 -0.0020492638 -0.0016848652 -0.00079956866 -0.0013523042 0.0022179487 0.0004303738 0.0022631763 -0.0004087516 -0.0013444204 0.0015558333 0.0022417807 -0.0024571796 0.0019710069 0.0019265255 -0.0017211161 -0.00094710686 0.0012200698 -0.0017089527 0.00027406935 -0.0023180803 0.002461245 -0.0016820228 0.00023699772 0.00026765588 0.00013674988 0.00073817204 0.0002694614 -0.001698123 -0.00013918156 -0.0004683559 0.0015266112 -0.0024931624 -0.001116565 -0.0010778465 -0.0020175905 -0.00086167816 -0.0014599687 -0.0016789907 0.0001147001 0.001675029 -0.0021419546 -0.0004885865 0.0024738414 0.0024046681 -0.0018161272 -0.0023516621 -0.001618355 -0.0016985699 -0.0016319493 5.5668384e-05 -0.00038872892 0.0017011177 -0.00027108425 -0.0008758747 -0.001249282 -0.0011331778 -0.00074376044 -5.8621994e-05 -0.00063124194 0.0015575576 0.001427451 6.150641e-07 -0.0004944862 0.0013450817 0.0007927288 -0.0009202581 -0.00046348784 -0.00041563765
行程 -0.0010817794 0.00061846 0.002239225 0.0018989274 0.0013756854 -0.0022340606 -0.001423765 -0.0023513013 -0.00039676166 -0.0014700694 0.0020903202 -0.002191967 0.0019727638 0.0009895632 -0.00075720286 0.0020296676 -0.00049975474 0.00087334984 0.0007142421 -0.0021235957 0.0010660688 -0.0018180313 0.0017343258 -0.0020947163 0.00043797845 0.0001231771 -0.0010523146 0.0019665621 -0.0019496317 0.0016107818 -7.1054084e-05 -0.0014293097 -0.0017641442 -0.0010893317 0.0007452704 -0.0007000474 0.00011076855 0.0010296123 0.0015373223 0.0024651177 -0.0017769957 0.002117649 0.0020072116 0.001596377 -0.0019524903 0.00025858788 -0.0023203385 0.0009999238 -0.0005949894 -0.0012952854 0.0016291788 0.00211555 -0.00089376164 0.0016201433 -0.0010495024 -0.00050851237 -0.000674009 0.0022112364 0.0002048776 0.00088001403 -0.0007518658 -0.00019575335 -0.0005400393 -0.0008967328 0.0017315991 -0.000777701 0.0005493533 -0.001398307 -0.0002449645 -0.0019958918 -0.0007534967 0.0017792584 0.0013693847 -0.0010146949 0.0024710288 0.0020428873 -0.00080276467 -0.0003294639 0.0015990923 0.0004901721 0.0021627576 -0.0012455382 0.0011054059 -0.001831897 0.0022375528 -0.0017579831 0.00024353372 -0.00055220904 -0.002371725 -0.0022827752 -0.00039009715 -0.0011784751 0.0020629547 -0.00044670573 0.0011458008 0.0023498028 -0.0018434917 -0.0022790253 0.0018473141 -0.0024725457 -0.0018329292 -0.0017378738 -0.0008286279 -0.00047543374 0.0010385173 -0.0007945317 0.0013764277 0.00065148616 -0.0022616268 0.0019358229 -0.0020757695 0.0011751851 -0.0014163123 -0.0020423625 -0.000272965 -0.0007229454 0.0024607482 0.0010393776 0.0024196985 -0.0018571148 -0.0009991857 -0.0023565937 -0.0012493181 -0.001973195 2.9347e-05 -0.0005390944 0.0017205436 -0.002121264 -0.0002818529 0.0016241999 -0.0021941913 0.0019700667 -0.0015614954 0.0004557465 0.0022570335 0.0016318546 -0.001530665 0.0007264391 0.00190214 0.0019198742 -0.00078932254 0.00085481326 -0.0024018204 -0.00041207203 -0.0018985712 -0.0023113643 0.002346287 0.0015579396 -0.00035495803 0.00074673264 -0.0013826318 0.0017279922 -0.0012655249 -0.0024551412 -0.0023699522 -0.00071642245 0.00062813103 0.00095344003 -0.0013205581 0.0004698954 0.0017471372 -0.001256448 0.00056885864 -0.001541524 -0.00236093 -0.0012995412 0.0002630412 0.0019402071 0.0012688469 -0.0004725833 0.00044781584 -0.0017233072 0.0012510819 0.0012539489 -0.0018148744 -0.00063529605 -0.00024274322 -0.00031743088 0.002337738 0.0001396405 0.0013448227 -0.0011762597 -0.0016464684 0.0016174219 0.0001042198 0.0004320934 0.0011284555 0.0006712822 -0.0007423185 -0.0002194025 -0.0017743293 0.000991922 0.0015306834 0.00019369941 -0.002344808 -0.001976274 0.0014017528 -0.0017475468 -0.0020475208 0.00036795659
房間 0.00039763702 0.0015144555 0.0017326644 0.002346342 -0.0021800392 -0.0016983238 -0.00143072 0.0012452995 -0.00037511808 0.0019147628 0.0023228168 -0.0011023819 0.00032960984 -0.001616117 -0.0017411094 -0.0002458491 -0.0023987093 -0.00045150932 0.0015653502 -0.001199951 -0.0008398669 -0.0007950662 -0.0017725603 -0.00017928421 0.0020824075 0.0023741638 0.0011179403 0.0022920403 -0.0008885191 -0.00031473945 0.00031122993 0.0016492634 -0.0019463833 2.6612479e-05 0.0024742496 -0.0019049869 -0.0010351962 -0.0005910118 -0.0017649543 0.0008699688 0.0020243612 0.0012204503 -0.0014538311 -0.00045262987 -0.001018343 0.0022608424 8.628267e-05 -0.00074510195 -0.00085113925 -0.001654655 -0.00081040466 -0.0024887077 0.0018530008 0.0007304875 0.0008427262 -0.00043166406 0.0012211135 0.00011788171 0.0015019187 -0.00061986514 0.0009663633 -0.0009800671 -0.0019016099 -0.0010964071 0.0011248399 -0.0024081634 9.766563e-05 -0.00219241 0.0016345163 -0.0019915684 -0.0007150091 -0.0008154652 0.002156362 0.0020706595 0.0019641859 -0.00087930023 8.554643e-05 0.0015003366 -0.001895393 0.00083099434 -0.001619887 0.0024105909 0.0017413283 -0.0014882234 9.32609e-05 -0.0021549403 -0.0022314838 0.0012880857 4.226387e-06 0.0020756496 -0.0022081246 0.00089729315 0.0024750305 -0.0005057595 0.00068024057 0.0019396513 -0.0011660695 -0.00033907502 0.0020693578 0.0018661832 -0.0016316792 0.0014921965 0.0013651019 0.0021916784 0.0006843762 -0.0006417351 -0.00029003437 -0.001534494 0.0003238557 -0.0009870742 0.0024869551 -0.0022562118 -0.0022520137 0.0011479751 0.0019418873 0.0015831582 0.0020332243 -0.0003601983 -0.0015458679 -0.00052247825 -0.0017395372 0.001994704 0.00085191434 -0.000119624114 -0.00057871634 -0.0009029436 0.0024060528 0.0024412216 0.0016784815 0.00045168103 0.0007476779 -0.00092365476 0.0014192298 0.0013468256 0.0016815438 0.0003302658 0.0003220178 -0.0010793481 0.0023954606 0.0017700122 0.000121877914 0.00094948197 0.0023432805 -0.0018531431 -0.00038792816 -0.0019837513 0.0006526306 -0.0017388514 -0.00091309205 0.0013114004 -0.0016208873 0.0014259332 0.0021813011 0.00030784617 0.0017534177 -0.00049032544 0.0016573679 0.0020031745 -0.00021332975 -0.0009623825 0.0023976306 -0.0004717735 -0.00038057318 -0.0023499597 0.00054259505 0.0019874186 7.053084e-05 -0.0015744918 0.0013032183 -0.0012890061 0.0009769911 -0.00054005027 0.0011496431 -0.002041035 -0.00057536975 -0.00015053045 -6.5921566e-05 0.00047314528 0.0022899306 0.0022947032 0.0007877259 0.0016799266 0.00040575146 0.0015175287 -0.0011422974 0.0012374463 0.00016496939 -0.0008397887 0.001473114 -0.00028754125 -0.0023263653 -0.0012114967 -0.00063768605 -0.0018752663 0.00083178753 -0.00095147506 0.0017786677 0.0020487974 0.00055840873 -0.0011101165
今天 -0.0016138374 -0.00026925662 0.0015393773 -0.0020055317 0.0011710096 0.0024825467 -0.00088002376 -0.000714644 0.00026580805 0.0022311977 -0.0011376784 -0.0020744137 -0.0015052842 -0.00050620665 0.0011590002 -0.0012961554 -0.0007672272 0.0021841384 -0.0019625472 -0.0017469964 1.0248161e-05 8.786769e-05 0.00041932674 0.002347732 -0.0021861617 8.2077306e-05 0.0016766038 0.000938189 0.0011975784 0.00024808128 -0.00050108606 0.001974518 -0.0008968725 0.000986313 0.0013684374 0.0012153813 -0.00021812737 0.00016346008 -0.0005130615 -0.00025274613 0.0014594289 0.0010501771 0.0003284871 0.001777233 -0.00033182406 0.0017056527 -0.0009412174 0.002101282 0.0015731417 -0.0013174375 -4.0400268e-05 -0.0022054112 0.0006665345 -0.00124173 0.0010297323 0.00051727006 0.0013833513 0.0016195008 0.0003385674 -0.001634569 0.002346138 -0.00059535605 -0.00056635373 0.0010770052 -0.00062510354 0.00025757664 0.0024554906 -0.0022743098 0.0021581165 -0.00041059387 0.0024577263 0.0021488909 -0.0024864925 -0.0022469216 0.00034136671 0.001557748 -0.0001317634 -0.0020436929 0.0010184855 0.000115195115 0.00017415294 -0.00014021138 -0.0011784954 0.00039359447 -0.0023024874 -0.0018279016 0.0009877686 0.0010907543 -0.0011758095 0.001300749 -0.001336879 -0.00063001865 -0.00016064342 0.0010126664 -0.00058152666 -0.0017021379 0.0013862593 -0.00058090605 0.0014828958 -0.0005913248 0.0009269982 -0.0011048749 -0.0012074236 0.0004045408 -0.00022414209 0.0017497241 -0.0015135419 0.00027275473 0.0019708236 0.000890559 -0.001673902 0.0023507695 0.00016410503 -0.0002528248 3.35621e-05 -0.0011109388 0.00096003443 -0.0023289055 -0.001152557 -5.2521127e-06 0.0012363493 0.0016066543 0.0008728436 0.0021364323 0.0004310448 0.0013808353 0.0024181174 -0.0015262432 0.00042977667 -0.0019349535 0.00095733686 -0.0018870971 0.0022701577 -0.0019284991 -0.0013728333 0.00149533 -0.0016619536 0.0006710635 -0.0015672981 -0.00043473265 0.001750504 0.002455306 -0.0019972788 0.0022470395 0.0009921778 -0.0023506798 0.00072383555 0.0005868959 0.001511247 0.00088226993 -0.0009759495 0.0010496711 -7.629154e-05 0.0013579633 0.001137003 -0.0009543062 0.0008991341 -0.0022498535 -0.001729053 0.0013142426 -0.0011436683 -5.403745e-05 -0.002447495 0.0023703163 -0.000569779 0.0005786387 0.000861195 -0.0024465937 -0.002424586 0.00037528313 0.0006484532 -0.0014575421 0.00096291705 -0.0009909103 0.001369026 -0.001510778 0.0001214816 -0.0013833252 0.00038477997 0.00026166718 -0.0017951769 -8.9590314e-05 -2.4058922e-05 -0.0012345036 -0.0019799995 0.0022840498 0.0015274207 0.0006184863 -0.0010429159 0.000373613 -1.1173588e-05 0.0001823835 -0.0004344416 -0.0022280214 -0.00048644276 0.0017981814 -4.8023598e-05 0.0009647912 -6.574829e-05 -0.0019397483
TOKI 0.001755138 -0.0020701585 -0.0014290402 0.0015333939 0.0005495075 -0.0017000994 -0.0018814356 0.0011989386 0.0010839435 0.0020419362 -0.0017060023 0.0005676945 0.0013812928 -0.0013293446 -0.0008325981 0.0006255518 -0.0021475602 0.001440582 -0.0007662368 -0.0022757798 0.00016987091 0.00049464044 0.0010805278 0.0010488408 0.001515568 0.0018023715 -0.00030350866 0.0006590896 0.001677008 -0.0012662222 -0.00036530916 -0.0013919721 -0.000872169 -0.00086075725 0.0018771729 -0.0021240895 -0.0021244853 0.002044071 -0.0012051516 -0.0024502652 -0.00020144772 -0.0012404862 0.0021519265 -0.00095282326 -0.0011487069 -0.0019403725 0.0021855636 0.0008618221 -0.0019996155 0.0023102022 -0.001093079 0.000548762 0.001550426 -0.00224751 -0.0017788961 -0.00047992924 0.0014174877 -0.0020530645 0.0022321332 -0.0011606371 -0.0003705565 0.0015544465 0.0015983862 -0.00086471636 -6.788449e-05 0.0020723934 -0.002393871 0.0017439406 -0.002336072 0.002427533 -0.0013550594 0.0022547024 0.0019798228 -0.0013108881 0.00019924538 0.0020884958 -0.0022049285 -0.0014262216 0.0010139482 0.0010889356 0.00083795725 5.7446927e-05 -0.0021073597 -0.0007843961 0.00022700438 -0.0024127604 0.0004226211 0.0012414741 -0.0011894774 0.0018852084 0.0019325751 -0.0010447884 -0.001816043 0.0012724189 0.0014760774 -0.0014471272 -0.0020755988 -0.00029968604 -0.002041857 -0.0005777829 -0.0003408854 0.0022229676 0.0006620702 -0.00015980558 0.0021347476 -0.00051288836 0.0013597774 -0.00014720237 0.00012943018 0.0011105484 0.002425791 0.0004952845 0.00064273673 0.0011514139 -0.0001503123 -0.0011440893 -0.002119785 -0.0019528696 7.4187505e-05 -0.0016013718 0.0024595922 -0.0020875733 -0.0008573476 -0.0015150729 0.002073343 1.1263255e-05 -0.002302746 0.00063062075 0.00069078035 0.001182329 -0.0007813474 -0.0008470406 -0.00056774716 -0.0010740971 5.863676e-06 -0.0015947273 -0.0016442251 0.00017973142 0.0019423261 -0.0022124546 -0.0022006773 -0.0016635435 -0.0006518708 0.0012067807 -0.00081773853 -0.00039208154 0.002161713 -0.0011487671 -0.0014489029 7.334766e-05 -0.0023788703 -0.0013909983 -0.002301592 0.00019323417 -0.0007767549 0.00062214566 -0.0019083499 -0.002430845 0.0024541926 0.0020706272 0.00010398491 -0.00020114372 0.0021219025 0.0020719743 -0.0013841122 -0.0011628758 -0.0011026748 0.0014163181 -0.0015285807 0.0004827039 -0.0017678412 -0.0020133383 0.0024526932 -0.0013882898 -0.000975314 0.001246296 -0.0020915624 -0.0008559548 0.0009173932 0.00026507617 -0.001826555 -0.0014272104 0.0017558328 0.00015255823 0.002269849 0.0009818274 0.0016919106 0.00019549862 -0.0013161148 -0.00069196813 -0.0019173211 -0.0021612342 -0.0024330225 -8.345419e-06 -0.0011348451 0.00073154666 0.0020405168 0.0021931764 -0.0006648956 -0.0005219681
時 -0.0005557324 0.0017971047 0.0008171858 0.0003418273 0.0019553555 -0.00051049347 0.00034569486 -0.0022482956 0.0014964261 0.0019742777 -0.0006179315 -0.0019185693 -0.002150085 -0.0014970426 -0.0011436678 0.00239317 -0.0014226616 -0.0014603991 0.0019283193 0.0020970579 -0.001574339 0.001943837 0.0011647019 0.00094334636 -0.0015180268 0.0009194842 0.0008717043 -0.0020546915 -3.5976154e-05 -0.0016444875 0.0010051404 0.00031250037 -0.0014783338 0.0017990435 0.00013248784 -0.0018932738 0.0010251984 -0.002267289 0.0005021459 -0.000261274 -0.0012303774 -0.0006309585 -0.00030942826 0.0019522143 0.0013405741 0.00189109 -0.0017550717 -0.00053219724 0.00014539874 -0.0009404694 0.00078218884 -1.8879815e-05 0.0024826573 0.0008701171 -0.0022641413 -0.00026893066 -0.00018519882 0.00018411003 0.0018928407 -0.0008919181 0.00059731945 -0.00029871592 0.0024501453 -0.0013542594 -0.0007704013 0.0012412984 -0.00029374717 0.00070703053 -0.0017512923 0.0018014383 0.0019260895 -0.0011210303 0.00084398047 0.0021188487 0.0013206019 0.0019517894 -0.0020326714 0.0017353246 -0.0002905479 -0.00035626785 0.00034405405 0.0024591195 -0.0021371539 0.0014175986 0.001892706 -0.0009766492 0.00044439858 -0.0005598475 0.0009279021 0.0014307938 0.00040733602 0.00072232547 -0.0011037474 0.001764379 -0.0018127081 0.0007976972 9.424422e-05 -0.0004977008 0.00033139504 0.0024590816 5.3306154e-05 0.0018458253 6.315826e-05 0.0012208129 -0.0016940673 0.0020503404 0.0021310996 -0.0007813531 -0.0023555304 0.001516037 0.00024335881 -0.00064551586 0.0020348115 -0.0012763342 0.0012573333 0.0012543222 0.00034700625 -0.0021433486 -0.0016868968 -0.00017870906 -0.0023366313 0.00081528723 0.002014324 -0.0012175294 0.0018303253 0.0013804091 -0.0017185088 -0.0004555184 0.0018795384 0.0019975097 -0.0024568206 0.0024256043 0.0017925232 0.0021350593 -0.00025879114 0.00094193325 0.0024006204 -0.002379109 -0.001973698 0.0016093596 9.28635e-05 0.0011127042 -0.001416974 0.00073538674 -0.00136444 -0.0011749425 0.0006371769 0.0011600987 0.0007388609 0.0020396395 -0.00085966056 -0.002442206 0.0008900671 0.00107322 -0.0021526562 -0.00063261663 -0.00092735235 0.0009110766 0.001118863 0.0023876408 0.0016690429 8.540461e-05 -0.0020982455 0.0006794292 0.001412833 0.0007661539 0.0019152417 -0.002184814 9.9753604e-05 0.00082177494 0.0018337367 -0.0015635089 0.0003063691 0.0017274845 0.002325042 -0.0020021016 -0.001562895 -0.0024394088 0.0015851728 -0.0015960276 -0.0015351241 0.0016680392 -0.0022028645 -0.0018510405 0.0019338109 -0.002235311 -0.0022157985 -0.0011805038 0.0011413645 0.0011463759 0.00060971646 0.00015650202 0.0018812746 -0.0021542879 -0.001082249 0.00023132616 -0.00045732336 -0.00048479968 0.00028819556 0.002112916
最後 0.0003261438 -0.00013809964 0.0023900454 -0.002032225 -0.0009189165 0.0014667345 0.0021127232 0.00044193128 -0.0014071306 0.0024099294 0.0017594355 0.0013072664 0.0002961006 -0.0008822693 0.0013183726 0.0013176156 0.0012825778 0.0014123089 0.0005667417 0.0014031914 0.0018318744 -0.0013266418 -0.0023131373 -0.0012731866 -0.0018914287 0.00070109573 0.0020448612 0.0013854746 -0.002042818 -0.0010976035 0.00248458 -0.0007996784 0.0008092546 0.0015414807 0.00021144563 0.002449836 0.0016788107 0.0023605528 0.0014996976 0.0005682757 -0.0015285371 0.0003772288 0.0014441382 -0.0014409655 0.0009736695 0.0013059885 0.00072055415 -0.0012633287 -0.0015302607 0.0010762768 0.0020786894 0.0020822182 0.0010326453 -0.0020258839 0.00060635747 0.0010217633 0.0021208865 0.0010884609 -0.0009091458 -0.001289443 -0.002332253 0.0009767774 -0.00047798213 -9.066626e-05 -0.0023930916 0.00076938584 -0.0006355657 0.0017432375 -0.0021836995 -0.0013003693 -0.0021858774 -0.0003496926 -0.0005007318 -0.0024999406 0.0012350015 -0.000723322 -0.00093002396 0.0023311523 -0.00028501163 0.0006012165 0.00046092345 -0.0006036982 -0.0015352757 -0.0021282088 -0.0018148345 -0.0009263824 -0.001983469 -0.0014970496 0.0020932555 0.0010548095 -0.0004470721 -0.0021765216 -0.00018503911 -0.0019056083 -0.0009303983 -0.0015859028 4.9681625e-05 0.0013050764 -0.0013276327 0.0017938331 0.0009588418 0.0020125394 0.0021607818 -0.00047948302 -0.0002699646 2.7570024e-06 0.0009884291 -0.00072455197 0.0020717478 7.516405e-05 -1.6353328e-05 -0.000823952 0.0010688164 0.0011401074 -0.0005335733 2.9065393e-05 -0.00028132985 0.00014566506 0.0009404073 0.0015566574 -4.5445326e-05 0.0019133962 0.0007624972 -0.00093383057 -0.0022143836 0.00083189853 0.00032478926 0.0019151068 -0.000358808 0.00062081753 -0.0013731599 0.0014695245 -0.0003433755 0.0016318719 -0.002422212 0.0010826851 -0.0017106713 -0.00018701529 -0.0015239338 -0.0016949971 -0.00062431017 0.0008343421 0.0013279908 0.0006037776 -0.0023119554 0.0015456406 -2.9603396e-05 -0.0020763772 0.0013892971 0.0013524551 -0.0003862395 0.001817849 -8.3925624e-05 0.002423347 -0.0012495265 -0.00054294796 0.000522544 0.00016607833 -0.0019847513 -0.0023956161 -0.001636928 -0.0024547984 0.00021236636 0.0018713098 0.0009889175 -0.0010580667 0.00014768296 -0.0018037388 0.0012361745 -0.002288203 -0.0002020353 0.00076864375 0.00036139 0.0009973352 0.0019319961 0.0010189934 0.0008327177 -0.0021312549 -0.0003975575 -0.00084476866 -0.0014765701 -0.0017745708 0.0016322167 0.0021159118 0.0019350839 0.00055998453 0.0008397358 -0.0001330977 0.00041697358 0.0009224986 -0.0011736263 0.0006412373 -0.002158263 0.0013342825 0.0008944132 -2.074787e-06 0.0004195716 -0.0002430459 0.0011967876 0.00052959146
吵架 -0.0012746658 -0.0023194007 -0.0010744033 -0.0006371587 0.0013005002 0.0015495035 -0.000980847 0.0007483456 -0.002010649 -0.0009102726 -0.0023785143 0.00034339394 -0.00010003896 0.0013800934 -0.0010006186 0.001593496 0.0020247276 -0.00050895364 0.0016631257 -0.0022201072 -0.0015379204 -0.0005735617 -0.0015469571 -0.00042349857 0.00060062227 -8.864061e-05 -0.0014513563 0.000116724965 0.0015458319 -0.00066581 0.0008290349 -0.0005611268 -0.002310349 0.00020813716 0.002045552 9.845418e-05 0.000462774 0.0005891001 -0.0009771597 -0.001210527 0.0021569426 0.00029208255 0.00065997796 0.0022295173 0.00052283297 -0.0012652769 -0.0014497511 -0.001355456 -0.0004957085 0.0023135922 0.0022859646 0.0023056308 0.00094270083 0.002318051 0.0015588456 0.00021658638 -9.2223054e-05 0.0014180925 0.0018508439 0.001970368 -0.0015135665 0.0018160685 -0.0021443905 0.0022229275 -2.129322e-05 0.0017355933 0.0013039567 -0.00082702347 0.00055916805 0.002380046 -0.00036921215 -0.0020011135 0.0015926393 -0.0016715429 -0.0006683894 0.0019366681 -1.9016861e-05 0.0024828806 0.0018098155 -0.00068390154 -0.001523053 0.0018536856 0.0013193472 -0.0017462233 -0.0005199816 0.0006913983 -0.001496523 -0.0020354511 0.0007518657 0.0003404453 0.0012937775 -0.000860439 0.0011240568 -0.002328022 -0.0022002263 0.0013461229 0.000555787 -0.0015490686 -0.0021954325 -0.0019869814 -0.0023992376 0.0021839407 -0.00066274917 0.0010608349 -0.0024953422 -0.0020190424 -0.00036081282 0.0007376467 -0.00080664654 0.00086874474 0.001088417 0.00038107598 -7.7277655e-05 -0.0017388676 0.0021764114 -0.0014544643 -0.0012227783 -0.0019740686 0.000496784 -0.00080139725 0.0016131554 -0.002170998 -0.0019526394 -0.0010570028 0.0013353549 -0.0012938512 -0.0006642135 -0.0015448413 -0.001988122 -0.000280056 -0.0020856184 -3.9963606e-06 0.0018345439 0.002292686 0.0009937191 -0.0016646362 0.0010092692 -0.00018469468 -0.0015097274 0.0014215115 0.0013799085 -0.00063103944 -0.00089807 0.0024160512 0.00079586584 0.0022599103 -0.00014535218 8.493652e-05 -0.0011181344 0.0012252036 0.002050952 -0.0009987786 -0.0024569544 8.5598265e-05 7.027981e-05 -0.001014396 0.0024314015 -0.002379649 0.0011195453 -0.0015804284 0.0022304354 -0.0012424154 -0.0011840436 0.0015962981 -0.0017744934 -0.0023819583 0.0007583407 -0.0022402694 0.001265753 0.0007741301 -0.0021055543 0.0011936293 -0.00038521268 -0.0012037959 -0.0015738283 -0.0018726724 0.0022598775 -0.0018538848 -0.00018220815 0.0024962802 0.00065781514 -0.0020484491 0.002348782 0.0005864011 0.0005106584 0.0012024707 0.001727481 -0.002307944 0.000586143 -0.0015938103 -0.0006188615 -0.00038680655 0.0008313155 7.6767196e-07 0.001305745 -0.0004071097 0.0017194308 0.0018441571 -0.001978592 -0.002437334
結束 0.001665457 0.0016289251 0.00073951203 -0.001881167 0.0019667533 -0.0012476443 -0.0014525735 -0.0024343343 0.00032188167 0.001402177 -0.001706096 0.00013387787 -0.0010223694 -0.00081588316 0.0023922434 3.1264935e-05 0.0016388688 -0.00089721795 0.0017100315 0.002354505 -0.0016076212 -0.00023485247 0.0024747676 0.0016075671 -0.00013216613 0.00033758613 -0.0017037808 -0.0020475888 0.000863039 -0.0006477752 -0.0018377191 0.0023783664 0.00053538213 6.766518e-05 0.0009583144 0.00023890975 6.571114e-05 -0.00042971203 0.0023152356 -0.0018121325 -0.0014615154 -0.0012738814 -0.0013293676 0.0003919047 0.00079750473 -0.0013262422 0.0021848565 -0.00020891943 -0.0020620434 -0.00045188956 0.000108125445 -0.0014056095 0.00064371637 0.0002853716 0.0010483928 0.00197712 -0.00032192343 0.00207739 0.0021397471 0.0015008395 0.0013713435 -0.00022335703 0.0010939145 -9.757567e-05 0.0019873572 0.0012525466 -0.00042318727 0.0019316653 -0.0016995809 8.865955e-05 0.0016291596 -0.00038240125 0.00059714203 -0.001681841 0.0011158601 -0.0003233724 -0.00245533 0.0021394098 0.0008824044 0.0008233319 0.0005088299 0.000903692 0.0020966504 -0.0021816771 -0.00109015 0.0020129017 -0.0005674418 -0.0016647141 0.00167394 -0.0016710008 0.00016609108 -0.00053824414 -0.00016583658 0.0019025218 -0.00034575682 -0.0015174001 0.00043311168 0.001985038 -0.000876074 -0.00086171774 0.00054060726 -0.0009185786 -0.0021405327 -0.0016244615 0.00067125197 0.002131678 0.0018630269 0.0005813169 -0.0012350098 -0.0021158 0.0016431574 -0.0012945995 -0.00017456413 -0.00048757234 0.0018135227 0.0013477298 0.0022299665 0.0004120919 -0.00014516602 -0.0019053479 -0.00043687064 0.0018276661 0.0021932018 -0.0014572317 -0.0017230116 0.001157786 0.0022869417 0.001900469 -0.0017808593 -0.0019936494 -0.0016756231 0.0010716046 -0.0023051812 -0.0011425752 -0.0006702256 0.002444275 -0.0004842365 -0.002107158 -0.00037348724 -0.00010414541 0.001256626 0.0019358833 -0.0007472507 -0.0011871406 -0.0002901443 0.00056449254 0.0010916473 -0.0019135087 -0.0013781624 -0.0024611517 -0.0017071998 -0.002248571 0.0012252197 -0.0011100745 0.00070412655 0.0017291645 0.0010292463 -0.0019445599 -0.0019633947 0.00053063233 -0.002043888 -0.0011730718 0.0022739584 -0.0008603478 -0.0017507949 -0.0012411247 0.0024892627 0.0014703203 -0.0013193797 0.0003763073 0.0020232755 0.0006372275 0.0011078973 0.0006105488 -0.0015678765 0.0011956287 -0.0015196303 0.0023691994 -0.0007169982 -0.001968356 -0.0014899959 -0.0018469834 0.00035544936 -0.0023009032 0.00014360157 -0.0013402035 -0.0013636447 -0.0006740769 0.0021328535 0.0018246348 0.0011795149 0.0008693899 0.0005518373 0.0022193238 0.0020552012 0.0010563649 -0.00042144646 0.00036445295 0.0012303825 0.0023097685
巴士 -0.00033208003 -0.000509577 -0.0001779296 0.0016631972 -0.0020691396 0.00028334616 0.0014076927 0.0016270478 0.0022637844 -0.0017653471 0.0016276884 -0.00088369666 -0.0012525648 0.0021385266 -0.0013616112 0.0008056901 -0.0013217591 -0.002023023 0.0021488941 -0.0020017656 0.0014950249 0.0021497868 -0.0015840078 -0.0024259968 -0.0013108976 -0.0019434493 -0.00055689615 0.00042132905 -0.0010496265 0.0024998249 0.0016461852 -0.0013348308 0.002056076 0.0010106624 0.0010676946 -0.0015000915 0.001072109 -0.0023925053 0.0020278923 0.002108498 0.0005443396 0.0018106761 0.0024912315 -0.0018015482 1.7431661e-05 -0.0012957272 0.0019806747 -0.002144127 -0.002090479 0.0007964571 -0.0016620146 0.0011425982 -0.0016083939 -0.00047960202 -0.0008218947 0.0006151791 0.0001639468 -0.0014967058 -0.0022725118 0.0010595317 -0.00036120444 -0.0011496699 0.0017743643 0.00018433816 -0.002458439 -0.0018117961 0.00068271975 -0.00021267531 0.0007702334 0.0020283142 0.002226313 0.0007881071 0.0020166333 -0.001565415 -0.0003732764 -0.002323343 -0.0018589275 -0.0017907092 0.0011672432 0.00059068954 -0.001852157 -0.0006987015 0.001598989 0.0023193145 6.8901176e-07 0.00040957512 0.0012079561 0.0021999609 -0.0009097141 -0.00077575736 0.00015867264 -0.0002895654 0.00032289242 -0.00061093457 0.0017356556 -0.0019324097 -0.0002494843 0.00031798327 -0.00041788447 0.0006585787 0.0020467406 -0.00179909 -0.0019463304 0.0011757119 0.00013018803 0.00016763006 0.00097448175 0.0023414923 0.001887624 0.0017828448 0.0020385815 -0.0017967963 0.00023269425 0.0007227564 0.0011848655 -0.0020948213 0.0020274706 -0.00083127397 0.0011677536 -0.0020679643 0.0011595497 0.00019859194 7.8819314e-05 0.00089129567 -0.00036368813 -0.0014287607 -0.0011261875 0.0012278841 -0.0019400198 0.0004450778 0.0011253813 -0.0010446511 0.001219674 0.0012924686 0.0010303085 -0.0020220634 0.001494672 0.0013108006 -0.0010865675 -0.0011144807 0.0019152461 -0.00039901605 -0.001224646 -0.0018640375 -0.00056856836 -0.00025994852 -4.832423e-05 0.0011627274 0.0022919967 -0.0018484602 -0.0011771687 0.0005168114 -0.0014698866 -0.000675015 -0.0004909701 0.0019802812 0.0003605565 0.001696347 0.0016786729 -0.0012790619 0.0010802078 -0.0010945657 0.0005660398 0.001349342 0.0006022021 -0.002361588 0.0024897333 -0.0020859125 -0.001874226 0.0019030845 -0.0019794651 -0.001490876 -0.00019344549 0.0021136103 0.000121012694 0.0018801339 -0.0006836841 -0.0017868615 -0.002295623 -0.0011451801 0.0014220569 0.0020507104 0.002280416 -0.0011398823 0.0007019907 0.0011604653 -0.0017943318 0.00040834676 -0.0017468658 -0.0007311519 -0.0011242417 -0.002085741 0.002237573 -0.0010334481 0.0024077722 0.0021924064 0.00039142097 0.00015419093 -0.00014617338 2.8620177e-06
介紹 -4.1310035e-05 0.0005266058 -0.00025264316 0.0017018726 -0.0008621699 -0.00065015035 0.00028840438 0.00097072223 -0.0020231698 0.0014672151 0.002080582 0.00026154055 0.002385554 0.0009895848 0.0024680197 0.0021930863 0.0023854212 1.1863504e-05 -0.00087270833 -0.0023154397 -0.0002628327 -0.0016450116 0.000539832 -0.0011906932 0.0012513887 -6.063815e-05 -0.0008241818 0.00049962057 -0.0022360715 0.0022368224 -0.0012305775 0.0010335918 0.0011210513 0.0023176677 0.001407233 -0.0012532173 0.0011482037 0.0012786384 -0.00056114333 0.00060306524 0.001987171 0.0017596319 -0.0006883385 0.0017432711 9.845284e-05 -0.00027889077 0.00096172106 0.0006837466 -0.00076977804 -0.0023332266 -0.0017821577 -0.00029720424 -9.237974e-05 0.0017443899 -0.002380534 -0.00028050737 -0.0021686004 0.00044395484 -0.0013837338 0.00050480926 -0.0021373462 -0.0005674989 -0.0009333939 -0.0018846297 0.0005668672 -0.0021320805 0.0011731087 -0.00032794932 0.0019911905 0.0013760605 -0.0015771134 0.0015287293 0.0008635842 0.0020390826 -0.0020505725 -0.0017390884 0.0010497753 -0.0006730068 0.0012299286 -0.0019957635 -0.0010487958 0.00020260575 0.0010593188 -0.00018586972 -0.00016250617 -9.986653e-05 -0.0017614008 -0.0013273761 -0.002493071 0.00023657715 -0.0018063028 -0.0009784449 0.0013138914 0.00057806075 -0.0012478455 0.00078165455 0.001962585 -0.0009067716 0.0023464388 0.0013365829 0.0012117008 -0.0007094423 0.0010605252 -0.00025226828 0.0018052724 -0.0013691472 -0.0019083073 0.0019692837 0.0021834078 -0.0009368773 -0.0019312648 -0.0011895876 0.0023175057 -0.0011706302 -0.00036555345 0.002094818 0.0017575084 0.0010288319 -0.0011201786 -0.002333841 0.0011367172 -0.0022612088 0.0023703498 -0.0015498312 0.0015467283 0.0013372176 0.002117082 0.0011920109 0.00043254762 0.0021166594 -0.0010188966 0.0007582686 -0.00049271475 -0.002355817 -0.0008206756 -0.0009617969 0.0018187615 -0.00034496657 -0.00047651213 0.00045683264 -0.0018515943 0.0011703131 0.001289328 -0.0006937508 0.0004907138 -0.0024025368 -0.0012379255 0.0011440516 -0.0016153549 0.00066926796 0.0024574343 0.000434933 -0.0005768497 0.00072968256 0.0013904469 0.0005329702 0.0009921471 0.00047209018 -0.0015952885 0.0016631432 0.001794071 0.0014820576 8.4351785e-05 -0.0015861302 -0.00060714566 -0.0012660002 0.0024265288 -0.0005896705 -1.027011e-05 0.0012624197 0.0018480557 -0.00081814366 -0.0018057156 -0.0018864782 0.0014269202 -0.0003400295 0.0020099415 0.0012665181 0.0022893767 0.0018762867 0.0014480618 0.0008523357 0.0018716828 0.0005558587 -0.0016642443 -0.0009932753 -0.0005196385 -0.0020428277 -0.0014317458 0.001004499 0.0010809272 -0.002453985 -0.0004271445 0.001715245 -0.00044324246 -9.884616e-05 0.0010344652 0.0012545148 0.00040968673 0.0021835288
