124 50
飯店 0.007725656 0.003010491 -0.00487848 0.009596743 -0.008201863 0.0059865974 0.006351572 -0.0042029414 0.008550927 0.0014229269 -0.008329623 0.0078117484 -0.006800305 -0.007018331 0.009903105 0.008009364 0.003247603 -0.0037497976 -0.008398247 -0.0053422977 0.0028509304 -0.0035357664 -0.0011417414 -0.0026080175 0.0008543522 -0.008302488 -0.00029445172 0.0014728154 -0.0066951835 -0.0036832078 0.00721493 -0.009705034 -0.0028475933 0.006464326 0.0069955657 -0.0068410635 0.004968576 -0.00095949287 0.004854964 0.005990551 0.0082332585 0.005577391 0.008112491 -0.00047318678 0.0067483485 0.0026056205 -0.0038912306 0.009452247 0.008901919 0.008405018
前往 -0.0062527717 0.004646522 -0.0013103405 0.0069273356 0.000104983264 0.009517598 0.0036501116 -0.0055563175 0.0059669237 0.0061988197 0.0026337875 -0.009175744 -0.0043137376 -0.005330151 0.0044166152 -0.0030107633 0.0042982027 0.008809925 0.00076748955 0.008412335 0.0049406374 0.0049597076 -0.0041897027 -0.008617107 0.008493049 -0.00807306 0.005034943 -0.007175966 -0.0003582268 -0.00041697593 -0.004378714 -0.008008537 0.0085000275 0.00542207 -0.008242445 0.006828679 0.0047339187 -0.00798492 -0.004917697 0.007751145 0.0074852873 -0.0004480584 -0.007857678 -0.0014612152 -3.492887e-05 0.003962299 -9.725032e-05 0.0068052313 -0.006479802 0.0020634918
E7 0.0019467582 -0.0093701305 -0.0015046251 0.0076993858 0.0038898038 0.008912578 -0.008031752 -0.0066826493 -0.0042777173 -0.0056977146 0.003495231 0.0059834193 -0.009073296 -0.008077954 0.003127461 0.004320878 0.0061859568 0.0062864562 -0.0055644666 -0.005201431 0.0037846938 -0.009405755 0.007972009 0.0025347844 -0.0042785173 -0.0076521924 -0.0051272158 -0.008854607 0.0010852779 0.0072079366 0.001037448 -0.0042262548 -0.0028551558 0.002340069 0.0066446844 -0.0006994618 0.0070649553 0.0030835783 0.0043868273 0.0075201816 0.0043138424 0.006278944 -0.009594426 0.005314863 0.0074516973 -0.00040720368 0.0038648047 -0.0005126134 -0.0025270167 -0.008235037
博多 -0.0031770917 0.0028018241 0.00021351148 -0.0011067933 0.006300075 0.0040903157 -0.009609429 -0.0028467 0.00935758 0.0012778667 0.007462362 0.0017836352 -0.008321585 0.0028970526 -0.00074313383 -0.0052844277 0.0077273115 -0.002502859 -0.0017216577 -1.887085e-05 0.0051680775 -0.008064411 -0.009929733 0.0012491803 0.009669616 -0.009358867 0.003818629 -0.009311123 0.008626586 0.0003587189 -0.0060442933 0.0031439522 0.0032004565 -0.003419135 -0.005729126 -0.007662997 -0.0064910776 0.008831904 -0.0007355824 0.008734352 0.0007086181 0.0066488823 0.009061393 -0.009953517 0.0040326924 -0.006799141 0.0028704635 0.0018465412 -0.000854963 0.0008293683
自由 0.0044601597 0.0068750433 -0.008082467 -0.0076754587 0.0017629672 0.007624079 -0.0045007584 -0.0029801554 0.00914589 0.0028727376 -0.0020217842 0.0011572142 -0.0074627264 0.0027995554 0.0070753866 0.008804815 -0.0018256685 -0.005690154 0.0046746694 -0.004381312 0.0077443216 -0.0042962944 -0.0053233514 -0.00069334917 -0.009931833 -0.0047613056 0.0053572324 0.0015229061 0.0025777172 -0.0035255486 -0.0045526586 -0.0039975983 -0.00536889 0.005388677 0.0031576299 0.0031876708 -0.005282603 0.0051406138 -3.3414137e-05 0.004190973 -0.001878152 0.004579119 -0.00036148774 -0.004256057 -0.007793601 -0.0050514396 -0.0098338565 -0.0051081507 -0.0018140825 -0.002311665
行動 0.003726097 0.006002242 -0.0028949247 0.001963359 0.009054307 0.0035965082 0.00395121 0.0027172249 0.0013625675 0.009702109 0.004707329 0.0034173974 -0.0036992228 0.008976886 -0.009976089 -0.0048780935 -0.007096926 0.008490551 -0.0009411347 0.0030697098 -0.002915356 0.0054130796 -0.008673266 -0.007451104 -0.009977237 0.008232291 -0.0015737405 0.00344898 -0.001997091 -0.0038410064 0.0026108276 0.0071908226 0.002664211 9.42792e-05 -0.0025602176 0.005694314 0.0042638616 0.008660131 0.0045177387 -0.009805611 0.0055111377 0.0012815304 -0.009160113 -0.0055893636 0.005473018 -0.0033173992 -0.005200607 -0.0017270707 -0.0011427737 -0.005613154
新幹線 0.007928279 0.0063561015 -0.007952932 0.008867721 -0.0026007749 0.0069443556 0.0013371716 0.0053850682 0.0050910283 -0.0052440413 0.0045674043 -0.0016601634 -0.004943422 0.005203531 0.009432576 0.0033297937 5.101886e-05 0.008673835 0.006470203 0.005021394 0.0037678895 0.0071033402 -0.005516714 0.003158609 -0.007145085 0.001280692 -0.0039782943 -0.0024500322 0.009178729 0.0054023974 0.0022406713 -0.0019820542 -0.002834715 -0.0064853514 0.009982652 0.005169391 -0.0034992665 -0.005887114 -0.009450236 -0.0049187928 0.00051801663 -0.008883983 0.004300847 -0.0031296758 0.009081965 -0.0030420036 -0.0072242445 -0.008832509 -0.002518688 0.0065695364
車廂 -0.005372201 0.006997829 0.0097911805 -0.0031592571 -0.007898305 0.0074509345 -3.4947302e-06 0.0073542106 0.009843395 -0.005366275 0.0011389375 -0.0022639476 -0.0033771768 0.006240044 -0.008886204 0.00205926 0.00031452472 0.009134816 -0.0095944125 -0.005381818 0.0016823378 -0.00037287775 0.0021786138 0.0055794655 -0.008543456 0.005975053 0.009531031 0.0012908634 -0.007554747 -0.0036946572 -0.00364505 -0.0026287201 0.009784433 -0.007288624 0.0009844848 0.0031251179 0.0012430125 -0.0030899018 0.007535309 0.0037850745 -0.008686297 -0.0005791515 -0.0019303006 0.008805952 0.0036029257 -0.0060612103 -0.008825106 0.007641097 -0.00231867 -0.0091769155
吃 -0.0049795057 0.0019364863 0.007773272 0.0077725598 -0.0055133295 0.006525111 -0.0015378662 -0.0025275757 0.00041644688 0.0008440344 -0.009887003 0.0038672416 0.009626319 -0.0032702368 0.005134836 0.0065874537 -0.004183554 -0.0067040143 9.0174544e-05 -0.006104113 0.00022926964 -0.0054206504 -0.0051959846 -0.00018084525 -3.202691e-06 -0.0010574403 0.00045981334 -0.008400285 -0.0054544616 -0.007239545 -0.0057913605 0.009370029 0.0017726253 0.0059504784 -0.00996677 0.00078173354 0.009185449 0.009537434 -2.564565e-05 0.0035478452 -0.0028644735 -0.0018447294 -0.002544438 -0.00083297445 0.0018587217 -0.00063215586 -0.007642722 -0.004609738 0.009801007 0.001878221
行李 0.0005131659 0.0047415597 0.0067593483 -0.007934867 0.005927742 -0.009451186 0.008340558 -7.9164965e-05 0.006412682 0.005555882 0.0040755225 0.007802907 -0.0037166653 -0.004668289 -0.006679061 -0.0078052813 -0.007972936 -0.0034307148 -0.0034868282 0.006999887 0.006446807 0.009874349 -0.008151913 0.0060315137 -0.0044566225 -0.006384103 -0.0012536736 -0.003146008 0.0047497586 -0.006605916 0.0064299386 0.0045527215 0.006785484 0.0030175468 -0.004039764 -0.002211701 0.0068117846 -0.00079519517 -0.0045602797 0.0030021493 0.0036836113 0.0003954653 0.0037095065 -0.005991328 -0.0032005594 -0.0033573583 0.0071928306 -0.0045931614 0.0041043833 -0.0068860464
搭 0.009756065 0.0064802864 0.009274255 0.001254422 0.0051624267 0.0075451764 -0.00046641048 -0.0070878933 -0.001405588 -0.0006820115 0.0017640212 -0.007653919 0.00031961215 -0.009753081 -0.0009227152 0.007872966 -0.0042048325 0.0059354766 0.009758008 0.008238889 0.009251066 -0.008066732 0.00867973 0.0019870047 -0.0026809035 -0.005740169 -0.0043919147 -0.004696247 -0.0076158927 0.008691723 -0.004044723 0.0021152336 -0.004125012 0.009282269 0.0058686608 -0.0036893513 -0.0070967237 0.0042240913 -0.0074353353 0.008860894 -0.0078121475 -0.0024274972 0.0046329745 -0.000727179 0.0029805636 0.00042276116 0.006996912 0.009449577 0.0044433726 -0.0019704353
福岡 -0.0053359517 0.0060847863 -8.684956e-05 -0.0019464395 0.0021707793 0.008770713 -0.0047750096 0.0022957746 -0.009754214 -0.007563293 -0.007490093 0.0011913961 0.0090796035 0.008380581 -0.007025734 0.0034761399 -0.0016668631 -0.0025652347 0.007158973 -0.009154827 0.008607947 0.0005318468 0.0058942726 0.00044596623 -0.0021523212 -0.00043382167 0.0045764223 -0.0048837443 0.0072531844 -0.0015671133 0.0039371843 -0.009426122 -0.0009892884 -0.0061370893 -0.005050472 0.0051038195 -0.0026947225 0.0057802824 0.009305473 0.009785108 -0.0057407673 0.00693491 -0.00473856 0.0039693858 -0.009138779 0.0010134359 -0.0016120621 0.0068693133 0.007714251 -0.009617831
出發 -0.0040234127 -0.00056211965 -0.0030040718 -0.008710218 0.00728113 0.0016635446 0.0007103314 -0.0008694163 -0.0010658065 -0.009534397 -0.0034573046 -0.008912776 -0.00488974 0.0005728788 0.0024279696 0.0065433634 0.00081282505 -0.009933455 -0.007270685 -0.0021794823 -0.008607076 -0.0008550396 -0.009685331 0.0008327499 -0.005453708 0.009789273 -0.0002542436 0.0062216264 -0.004459176 -0.003752619 0.002036144 -0.007048204 -0.0036858486 0.00015752958 0.0004889518 -0.0017272814 -0.004128845 -0.008093105 0.0014214879 0.008223434 -0.009491352 -0.0054380586 0.005359912 0.0026907728 -0.009708893 0.0027679463 -0.0012259053 -0.004295447 -0.00062508567 -0.009847431
車站 -0.0043723956 -0.0037424113 -0.005116138 0.0047921403 0.0036792837 -0.0066506215 0.007458066 0.006849822 -0.0071398076 -0.00019131416 -0.0061421953 -0.0058829365 -0.006591036 0.0028343897 -0.0023278177 0.008685704 0.009766196 -0.0054258313 -0.007694084 0.0018868438 -0.00086094666 -0.009282304 0.008580448 0.0045823893 -0.0052902643 0.0019416049 0.009403809 0.00223199 -0.009644757 -0.0047383416 0.0011633524 0.0041256817 -0.007991326 0.00965794 0.004760022 0.0074733687 0.0005798226 -0.0090155825 0.002403784 -0.009908224 -0.009320071 -0.00017594933 -0.0030388767 -0.0011180498 -0.008779387 0.007741214 -0.0072834925 -0.0020291854 -0.00532011 -0.008925047
Gran -0.008123517 -0.0033179573 -0.004071257 0.0023020236 0.009903465 0.008073452 -0.0082793245 0.006188074 -0.004994458 -0.005026993 0.00811757 0.006559751 0.0028227177 0.000344798 -0.004004076 -0.0021060258 -6.003343e-05 -0.0038462023 -0.0034416788 0.0033351947 0.0023650771 -0.0088210385 -0.009440815 -0.0065011736 0.0041822605 0.00087627495 0.0015236962 -0.0010076767 0.00846987 0.0075495136 -0.004377405 0.0050135367 -0.0013311027 -0.0065879025 -0.0066427877 0.009609406 -0.009961001 0.007040156 0.0056523737 -0.0088069495 -0.0026162355 0.0013541683 -0.0031301521 -0.0043308903 -0.0011863062 0.0032054107 -0.007737313 -0.009437059 0.0076590762 -0.008914803
好 -0.0025537862 0.009779461 0.00063418865 -0.0030833418 0.0037967802 0.0002819817 -0.0051798047 -0.0019235463 0.009210503 0.004763772 0.0080345925 -0.0023882058 -0.0090693645 0.008299555 0.005477204 -0.008454295 -0.0049274736 -0.0033931227 0.0019604403 -0.0068590706 0.0047908216 -0.0014564616 -0.00014454949 -0.004744004 -0.0038606965 -0.0054103932 -0.009533178 -0.0047361813 0.007589248 0.0067409035 -0.0057487916 -0.0074731912 -0.0022972878 -0.0092627015 -0.00013313437 -0.009131995 -0.0033254141 -0.006379667 0.001011834 -0.005356358 -0.0037172728 0.008369272 0.0026445196 -0.008857866 -0.0068174605 0.00018954484 -0.0048973737 0.008183221 0.007856697 0.0051689963
人 -0.0047298456 0.0050685005 0.002032949 -0.007764287 0.0058715106 -0.0013527889 -0.009885358 0.0083969645 0.007265522 0.0018482794 0.0023757436 0.0063078753 -0.00036470685 0.0067301625 -0.005195117 -0.007726849 -0.008481776 0.008696651 -0.0043649827 -0.009400706 0.001203969 -0.00023769004 0.000684524 -0.00536021 0.00686366 0.0060770237 0.004588987 -0.0039104596 -0.0017418672 0.0054595983 -0.00827038 0.004385603 -0.003270017 -0.0015327862 0.0036707306 0.00550711 0.003007691 0.0053267507 -0.0016755497 -0.00618288 -0.00033719843 0.008591149 -0.0035384835 0.00592809 -0.004026144 0.006223901 -0.0012464435 -0.0003494658 -0.0038863323 -0.00814088
系 -0.0057766875 0.004309372 0.003211249 0.0082015665 -0.00055541686 0.0020899517 0.006120789 -0.0006417635 0.009238906 0.002544972 0.0054656547 0.009633225 -0.0033654084 -0.0050853756 -0.009430443 -0.0033184942 0.002700419 0.0052850135 0.0031991801 0.0053918096 -0.008577902 0.0069894413 -0.002442506 -0.0044374433 -0.005305329 0.0027605926 -0.004782754 -0.0076729218 0.0049997126 -0.0032195698 0.0039584106 -0.00258148 -0.00964561 0.0031494575 0.008983735 -0.00097309623 0.0030889122 0.0055858167 -0.005895751 0.004686644 -0.0077626123 -0.007878187 0.0060586976 0.0055563995 0.002943492 -0.0044709058 0.00528712 0.009845628 -0.0087213 6.68956e-05
綠色 0.003298897 -0.0010759435 0.004866257 -0.0068211304 0.003442567 0.0018171269 0.0043075182 -0.006354598 0.00041856102 -0.007144248 -0.0019127356 -0.0024965603 -0.00016079626 -0.009353419 0.0070798476 0.00485653 0.0037250973 -0.0092667965 0.00673612 0.00093957986 -0.0044659926 -0.0048079956 -0.0063880277 0.0023241537 0.0009012696 0.009561412 0.008687709 0.004154887 0.00033983236 0.009457498 -0.005920418 -0.005741831 0.0047675124 0.0031437369 -0.004211427 -0.0046166726 0.0072755427 -0.0072869747 0.0030673258 0.0051574158 0.0021127048 -0.009872993 0.0010774065 0.009023171 -0.005050945 -0.009310531 0.0042574354 0.008303498 0.0020645321 0.0022898235
想 0.009974702 -0.0034330972 0.0009941292 -0.0048315404 0.00042713244 -0.0012535146 -0.0036101528 0.004410756 -0.0075903405 -0.0014792585 0.0057532433 0.0013677125 0.0060681906 -0.0024262886 -0.007320037 -0.002063624 0.008381321 -0.006520105 0.0055805906 -0.002445057 0.007584541 -0.00053691026 -0.0073893555 -0.0003040312 0.0064369203 -0.00072355365 0.0069061597 0.0010613083 -0.0022162988 0.008297591 0.006472095 0.0009202599 -0.0070359735 -0.0019751294 -0.005709252 0.007985653 -0.00039922178 0.001324221 -0.0036301122 -0.008383658 0.0052258917 0.009128677 -0.007800122 0.007272857 -0.004377107 0.0021183414 -0.0010445834 -0.0015065455 0.0003598702 0.0044641793
放 -0.0046914336 0.004883328 -0.0064194817 0.0044226362 0.0017737417 0.0045409757 -0.009529422 -0.009128982 -0.004002339 0.0039199744 0.006059316 -0.0012764658 -0.0030478402 0.0026218146 0.0076918164 -0.00065228983 -7.048815e-05 0.0031636558 0.006197153 -0.004724653 -0.0091761565 0.006909868 -0.0040765945 0.0066473903 0.009320589 0.0035119276 0.0016952313 -0.008945369 0.0047258134 -0.0060057803 0.004934705 0.009904761 -0.000652967 -0.0085400725 -0.0034933127 -0.007285692 -0.0052522435 0.0017625188 -0.0027973778 -0.008321254 -0.0027958485 0.0015102713 0.00952903 0.008352116 -0.0070071816 -0.005057883 0.0011021963 0.0030453303 -0.005808387 -0.004259264
感覺 0.00015889917 -0.0033043814 -0.009853627 0.007317006 0.0054097753 -0.0015596744 0.0066816835 -0.00965734 0.007047201 -0.00025381162 0.0011313363 -0.0018849795 0.00914687 0.0028401173 -0.0042985794 -0.0047363383 -0.009760048 0.009321399 -0.003705588 -0.0059112 0.005760802 -0.007451489 0.0035408502 -0.009045337 -0.0066813747 0.0077236216 0.003037804 -0.007316459 0.0077461964 -0.006370791 0.008575609 -0.0048566805 -0.0093905525 -0.0036476066 -0.005856779 -0.0030493212 -0.009425022 0.0070188222 0.009082997 -0.0021801782 0.001245286 0.0010323456 -0.0017964232 0.0016194212 0.0036228073 -0.00907974 -0.0006960552 0.0032358642 -0.00773486 0.003283808
站 0.009658158 -0.0058070715 0.008787442 -0.001553654 0.00899214 0.009723332 0.00694316 0.0036199787 -0.0017472421 -0.0039871614 -0.007197617 0.0020143648 0.0013698207 0.0076940316 -0.0018728509 0.0036196231 -0.009174814 0.009897366 -0.008108218 -0.006508681 0.0010003103 -0.00027251244 0.0019734614 -0.0010441055 0.0075638345 0.004490649 0.0006408191 0.0050608455 0.005472644 -0.0076839817 -0.0057537397 0.0035384223 -0.007559023 0.007320739 0.0009823364 0.0031123378 -0.006596574 0.0060709007 0.009830204 -0.0048674243 -0.004630416 -0.008135698 0.0074929087 -0.006127524 -0.008884323 -0.0030121477 -0.0055619814 -0.00599406 -0.001088401 0.005022228
再 0.00036147484 0.009590055 -0.0021308507 -0.006312991 -0.0064327656 0.0063917586 0.0089429505 0.0028927776 -0.007563514 -5.4611104e-05 0.003970613 -0.0060897083 0.003097238 0.007901489 0.0020714079 6.7238354e-05 -0.0044233175 -0.0046441522 0.0066243433 0.0057745 0.004772406 -0.008682542 -0.0024140095 0.007510766 0.0013998554 -8.5362124e-05 0.003427719 0.007375175 -0.0014158671 0.00089985365 -0.0077522383 0.00373889 0.005800066 0.008381679 -0.008343543 0.003379289 -0.0023590936 0.005646958 -0.0018463943 0.0078020697 -0.0065871207 0.003853079 -0.0007349946 -0.0063609662 -0.004129103 0.007588803 0.0010436521 9.64681e-05 0.001800195 -0.009408997
別府 0.0032445504 -0.0012853218 -0.009971616 -0.007978409 0.0012144785 -0.00733494 0.0049658166 0.0018875253 0.0039730137 -0.00073173747 0.003156872 0.009300391 -0.0034629568 0.0073876553 0.0069887824 -0.0068285926 -0.0049110563 -0.008168018 0.0043289587 0.0043828045 -0.002686758 0.008463252 -0.0015246479 0.0062578837 0.0018915123 -0.005748322 0.0017469219 -3.341832e-06 0.0042940546 -0.001941967 -0.006307681 -0.009225794 0.00060427637 0.0054479754 -0.0058286446 0.002970205 -0.006625061 0.0045309206 -0.0032655904 0.0027434384 0.0034195334 0.0016461059 0.006397955 0.0002752991 0.009559508 0.0031868548 -0.0029517196 0.0036032153 0.0056979214 0.006778713
小倉 -0.008866194 0.006830658 -0.006595092 0.008278774 -0.0012082835 0.0012297077 0.007634047 -0.0020259004 -0.0013935616 -0.0013770966 -0.0057886257 -0.009679061 0.0023089338 -0.0068464386 0.0030308992 0.00051630015 -0.004202406 -0.008602624 0.0077193235 -0.00031315052 0.00093328464 0.003933613 -0.00893977 -0.0032230308 -0.0041371826 -0.00539148 0.008923329 -0.0019244299 0.0064515104 -0.0035344807 -0.009585094 0.0012896807 -0.0091591915 -0.0044591385 0.0009759662 -0.0020578546 0.005708594 -0.004902872 -0.00664679 0.0026386126 0.0088898 0.005648747 0.0038863788 -0.00031573113 -0.008376825 -0.0052838866 0.0077762245 0.00058091845 -2.5975291e-06 -0.001493018
行程 -0.0043271175 0.00247384 0.0089569 0.0075957095 0.005502742 -0.008936242 -0.00569506 -0.009405205 -0.0015870467 -0.0058802776 0.008361281 -0.008767868 0.007891055 0.0039582527 -0.0030288114 0.00811867 -0.001999019 0.0034933994 0.0028569684 -0.008494383 0.004264275 -0.007272125 0.006937303 -0.008378865 0.0017519138 0.0004927084 -0.0042092586 0.0078662485 -0.007798527 0.006443127 -0.00028421634 -0.005717239 -0.0070565767 -0.004357327 0.0029810816 -0.0028001897 0.0004430742 0.004118449 0.006149289 0.009860471 -0.007107983 0.008470596 0.008028846 0.006385508 -0.007809961 0.0010343515 -0.009281354 0.003999695 -0.0023799576 -0.0051811417
房間 0.0015905481 0.006057822 0.0069306577 0.009385368 -0.008720157 -0.006793295 -0.00572288 0.004981198 -0.0015004723 0.007659051 0.009291267 -0.0044095274 0.0013184394 -0.006464468 -0.0069644377 -0.0009833964 -0.009594837 -0.0018060373 0.006261401 -0.004799804 -0.0033594675 -0.0031802647 -0.007090241 -0.00071713683 0.00832963 0.009496655 0.004471761 0.009168161 -0.0035540764 -0.0012589578 0.0012449197 0.0065970537 -0.007785533 0.000106449916 0.009896998 -0.0076199477 -0.004140785 -0.002364047 -0.007059817 0.0034798752 0.008097445 0.004881801 -0.0058153244 -0.0018105195 -0.004073372 0.009043369 0.00034513068 -0.0029804078 -0.003404557 -0.00661862
今天 -0.0064553497 -0.0010770265 0.006157509 -0.008022127 0.0046840385 0.009930187 -0.003520095 -0.002858576 0.0010632322 0.008924791 -0.0045507136 -0.008297655 -0.006021137 -0.0020248266 0.004636001 -0.0051846216 -0.0030689088 0.008736554 -0.007850189 -0.0069879857 4.0992643e-05 0.00035147075 0.001677307 0.009390928 -0.008744647 0.00032830922 0.006706415 0.003752756 0.0047903135 0.0009923251 -0.0020043442 0.007898072 -0.00358749 0.003945252 0.0054737497 0.0048615253 -0.0008725095 0.0006538403 -0.002052246 -0.0010109845 0.0058377157 0.0042007086 0.0013139484 0.007108932 -0.0013272963 0.0068226107 -0.0037648696 0.008405128 0.0062925667 -0.00526975
TOKI 0.007020552 -0.008280634 -0.005716161 0.0061335755 0.00219803 -0.0068003978 -0.0075257425 0.0047957543 0.004335774 0.008167745 -0.006824009 0.002270778 0.0055251713 -0.0053173783 -0.0033303923 0.0025022072 -0.008590241 0.005762328 -0.0030649472 -0.009103119 0.00067948364 0.0019785617 0.004322111 0.0041953633 0.006062272 0.007209486 -0.0012140346 0.0026363584 0.006708032 -0.005064889 -0.0014612366 -0.0055678883 -0.003488676 -0.003443029 0.0075086914 -0.008496358 -0.008497941 0.008176284 -0.004820606 -0.009801061 -0.0008057909 -0.0049619447 0.008607706 -0.003811293 -0.0045948275 -0.00776149 0.008742254 0.0034472884 -0.007998462 0.009240809
時 -0.0022229296 0.007188419 0.0032687432 0.0013673092 0.007821422 -0.0020419739 0.0013827794 -0.008993182 0.0059857043 0.007897111 -0.002471726 -0.0076742773 -0.00860034 -0.0059881704 -0.0045746714 0.00957268 -0.0056906464 -0.0058415965 0.0077132774 0.0083882315 -0.006297356 0.007775348 0.0046588075 0.0037733854 -0.0060721072 0.0036779367 0.0034868172 -0.008218766 -0.00014390462 -0.00657795 0.0040205615 0.0012500015 -0.0059133354 0.007196174 0.00052995136 -0.007573095 0.0041007935 -0.009069156 0.0020085836 -0.001045096 -0.0049215094 -0.002523834 -0.001237713 0.007808857 0.0053622965 0.00756436 -0.0070202868 -0.002128789 0.00058159494 -0.0037618775
最後 0.0013045752 -0.00055239856 0.009560182 -0.0081289 -0.003675666 0.005866938 0.008450893 0.0017677251 -0.0056285225 0.009639718 0.007037742 0.0052290657 0.0011844024 -0.0035290772 0.00527349 0.0052704625 0.005130311 0.0056492356 0.0022669667 0.0056127654 0.0073274975 -0.005306567 -0.009252549 -0.0050927466 -0.007565715 0.002804383 0.008179445 0.0055418983 -0.008171272 -0.004390414 0.00993832 -0.0031987135 0.0032370184 0.0061659226 0.0008457825 0.009799344 0.0067152428 0.009442211 0.0059987903 0.0022731028 -0.0061141485 0.0015089152 0.005776553 -0.005763862 0.003894678 0.005223954 0.0028822166 -0.005053315 -0.0061210427 0.004305107
吵架 -0.0050986633 -0.009277603 -0.004297613 -0.0025486348 0.005202001 0.006198014 -0.003923388 0.0029933825 -0.008042596 -0.0036410904 -0.009514057 0.0013735758 -0.00040015584 0.0055203736 -0.0040024742 0.006373984 0.008098911 -0.0020358146 0.006652503 -0.008880429 -0.0061516818 -0.0022942468 -0.0061878283 -0.0016939943 0.002402489 -0.00035456245 -0.0058054253 0.00046689986 0.0061833276 -0.00266324 0.0033161396 -0.0022445072 -0.009241396 0.00083254866 0.008182208 0.0003938167 0.001851096 0.0023564005 -0.003908639 -0.004842108 0.0086277705 0.0011683302 0.0026399118 0.008918069 0.0020913319 -0.0050611077 -0.0057990043 -0.005421824 -0.001982834 0.009254369
結束 0.006661828 0.0065157004 0.0029580481 -0.007524668 0.007867013 -0.004990577 -0.005810294 -0.009737337 0.0012875267 0.005608708 -0.006824384 0.00053551147 -0.0040894775 -0.0032635326 0.009568973 0.00012505974 0.0065554753 -0.0035888718 0.006840126 0.00941802 -0.006430485 -0.0009394099 0.0098990705 0.0064302683 -0.0005286645 0.0013503445 -0.0068151234 -0.008190355 0.003452156 -0.0025911008 -0.0073508765 0.009513466 0.0021415285 0.00027066073 0.0038332576 0.000955639 0.00026284455 -0.0017188481 0.009260942 -0.00724853 -0.0058460617 -0.0050955256 -0.0053174705 0.0015676188 0.003190019 -0.005304969 0.008739426 -0.0008356777 -0.008248174 -0.0018075582
巴士 -0.0013283201 -0.002038308 -0.0007117184 0.0066527887 -0.0082765585 0.0011333846 0.0056307707 0.006508191 0.009055138 -0.0070613883 0.0065107537 -0.0035347866 -0.0050102593 0.008554107 -0.0054464447 0.0032227605 -0.0052870363 -0.008092092 0.0085955765 -0.008007063 0.0059800996 0.008599147 -0.006336031 -0.009703987 -0.0052435906 -0.007773797 -0.0022275846 0.0016853162 -0.004198506 0.009999299 0.0065847407 -0.005339323 0.008224304 0.0040426496 0.0042707785 -0.006000366 0.004288436 -0.009570021 0.008111569 0.008433992 0.0021773584 0.0072427043 0.009964926 -0.0072061927 6.9726644e-05 -0.005182909 0.007922699 -0.008576508 -0.008361916 0.0031858284
介紹 -0.00016524014 0.0021064233 -0.0010105727 0.0068074903 -0.0034486796 -0.0026006014 0.0011536175 0.003882889 -0.008092679 0.0058688605 0.008322328 0.0010461622 0.009542216 0.0039583393 0.009872079 0.008772345 0.009541685 4.7454017e-05 -0.0034908333 -0.009261759 -0.0010513308 -0.0065800464 0.002159328 -0.004762773 0.0050055548 -0.0002425526 -0.0032967273 0.0019984823 -0.008944286 0.00894729 -0.00492231 0.004134367 0.004484205 0.009270671 0.005628932 -0.0050128694 0.004592815 0.0051145535 -0.0022445733 0.002412261 0.007948684 0.0070385276 -0.002753354 0.0069730845 0.00039381135 -0.0011155631 0.0038468842 0.0027349864 -0.0030791122 -0.009332906
中洲 0.0046654018 -0.0070414785 0.00096840237 0.0028015592 -0.0042447187 -0.0068564815 -0.004642393 -0.009542972 -0.005071835 -0.008719057 0.008073393 0.00864163 -0.0067266673 0.0037379474 0.006201397 0.00062903896 -0.007937613 -0.0060176738 -0.00014397645 -0.0028624919 0.009214595 3.5186495e-05 0.0001763677 -0.0053566196 -0.0067666825 0.0015815435 0.00515912 -0.009114502 0.008877491 -0.001678182 -0.005369911 -0.00951987 -0.009669249 -0.0045540226 0.00970479 -0.0040617785 0.0007489429 0.0023067885 0.0069945813 0.0072774547 -0.00093599065 0.0029323993 -0.005568392 0.006256346 -0.00077700644 -0.0077189226 0.0063127135 0.0056398404 0.0061894283 0.0017376004
西鐵 1.5060297e-05 -0.0032907233 0.008005941 0.00012253689 0.009750928 0.009971108 0.0027512724 -0.00051373726 0.0037346196 -0.0049307225 0.00082634145 -0.007654261 -0.0047937552 -0.0020161162 0.006226138 0.003535042 -0.0015954039 -0.0009995496 0.0041997735 0.008427273 -0.0042945314 0.007140545 0.0042572245 0.0060973857 -0.008691853 -0.0060639847 -0.0024839337 0.0030542105 -0.0057203057 0.007725775 0.006662445 -0.009093974 0.009500562 0.0028324786 0.008594636 0.0068820827 0.0023618818 -0.004656259 -0.009145814 -0.008532695 0.00017065271 -0.005654126 0.00022442787 0.008448729 0.0010948519 -0.004739543 0.00070401677 0.004935945 0.0012006856 -0.0051114433
INN -0.0039331834 -3.150213e-05 -0.006636693 0.0034044979 0.0057489793 0.0027089864 0.006533962 0.009517106 -0.0010299233 0.006662265 0.003703198 -0.005244003 0.0006415915 0.004696528 -0.0037462714 -0.0018358139 -0.0047671846 0.009431635 -0.0024100598 0.0025626272 0.0075781057 -0.0027747313 -0.008366195 -0.0064965487 0.0038112048 0.0072449464 0.0034008892 0.0017255067 -0.009450634 -0.0017504825 0.0053841113 -0.0039557354 -0.009265344 0.0076166485 -0.0018105695 0.008047595 -0.009762962 -0.005484235 0.004795661 0.006335674 -0.009034597 -0.0005590777 -2.5155339e-06 0.009766363 0.0009450736 -0.0053072316 -0.003271368 -0.00034834052 -0.0030289511 -0.006911361
天神 0.0037716555 -0.003576041 0.0056755524 0.0036680887 -0.0038531525 -0.0014436826 -0.0011748483 -0.0012099184 -0.009733762 0.009591427 -0.0043591927 -0.007518251 0.0098274825 -0.0072569083 0.009434851 0.0050692805 -0.007946227 -0.00041465534 -0.001669203 -0.008426526 -0.006351983 -0.0095328875 -0.0012815072 0.0054516126 0.0020418824 -0.0033653302 -0.0054345415 0.007290382 -7.140952e-05 -0.0086399065 0.00035212314 -0.0054936744 0.008286125 -0.0058414964 0.0068377615 0.0018433805 -0.006393531 -0.006598267 0.004902144 0.0072662462 -0.0029608004 -0.009458646 0.0041682473 -0.005207448 0.007788322 -0.0034833844 0.0013642453 0.004194005 0.0014539862 0.004496231
排隊 -0.0013842897 -0.0046575745 0.0013233029 0.0051290407 -0.0041265213 -0.008667812 0.008222291 -0.007976837 -0.005726495 -0.0036289047 0.0017762517 -0.008317169 0.00865927 0.005167146 0.0022053467 -0.0056783794 -0.0040138243 0.00023073329 -0.0007706202 -0.0074538942 0.005684535 0.0055014463 0.007939046 0.009794898 -0.0055684685 0.0018645261 0.004471092 -0.0069104545 0.006555876 0.00481376 0.00043538047 -0.0037720306 -0.005157794 -0.0004064768 -0.0069727516 0.0012747418 -0.0003987796 -0.009159148 0.0016053539 -0.007445803 0.005509715 0.0030586831 -0.00831219 0.008181033 0.003639773 -0.000507045 -0.0012528051 0.006662891 -0.009674936 -0.006351988
環境 -0.0074383477 -0.0028397753 0.0063073835 -0.0073460266 0.008613558 0.0014411533 -0.0045655644 0.005531276 -0.005846704 -0.0009798752 0.0033915287 -0.0034523366 -0.008363019 0.00586221 -0.0075761443 0.00991426 0.0012004422 -0.0044614132 6.239033e-05 -0.008254197 0.001081884 -0.009767922 -0.0045191776 0.0076740663 0.0023764824 -0.0052360045 -0.0023127194 -0.0013334849 0.0009649925 0.009712203 -0.0036938929 -0.0012543497 -0.0068723876 -0.009617598 -0.008913795 0.0086666215 -0.005599164 0.0057915607 -0.0003380962 -0.0031439636 -0.0074135787 -0.009856405 0.009071178 0.0052234917 0.000332892 0.0020788913 0.0050632395 -0.0014986305 0.00962246 -0.007440367
部分 -0.004726282 0.0062274914 0.004135569 0.0028205232 -0.007469921 -0.008462582 0.006285478 -0.007940781 0.0072932914 -0.006846279 0.0013918454 0.00020611128 0.008959448 0.002257135 0.0054171896 -0.0039520403 -0.00723919 -0.007589778 0.00089642097 -0.0043016067 0.0027093317 0.009060232 -0.009550432 0.006025216 -0.0039174105 0.0027377047 -0.0057141823 0.0013494538 0.0025353006 -0.009739412 -0.009222409 -0.0045178193 -0.0006590274 0.0021324202 -0.007984906 0.0039534033 -0.007025247 0.006815626 -0.0055317464 -0.0021108426 -0.0013928897 0.009310553 -0.0016428904 0.009023126 -0.00250411 0.0033669588 -0.0079349065 0.003999606 -0.007887141 0.004467416
回程 -0.0041818456 0.0066900747 0.009096219 0.00242543 -0.0045719254 0.008694165 0.0024407716 -0.008495733 -0.0057200724 -0.0068893703 -0.002661084 -0.0066854786 0.008372373 0.003449757 -0.005359474 0.0074273203 -0.0049083484 0.0036436857 0.00013281599 -0.0020242024 0.0018865583 -0.0066874055 0.006886694 0.009053518 -0.009361361 -0.0039558643 0.009118343 0.008794243 0.009621464 -0.005759587 0.006068039 0.0007559213 -0.0038304073 0.0071954494 0.009989557 0.00882568 0.003711693 -0.007864105 0.0046316735 -0.0019917986 0.0040572835 0.0066391574 -0.0045547355 -0.006926313 -0.0028068202 0.008837402 -0.0027420437 -0.009614659 -0.00382929 0.0080921
先 0.00043963146 -0.002847043 0.0050601917 -0.008960774 0.0034161562 0.00060324615 0.0042966707 -0.009271736 -0.001789072 -0.007130561 0.0011815131 -0.0060352143 0.008081894 0.00772093 7.1098024e-05 0.0049475455 0.0067592748 -0.0070373 -0.00033520872 0.004462381 0.0075290245 -0.0035879784 0.0010488309 -0.007400144 -0.006013837 -0.009720778 -0.009971861 -0.0013595874 -0.008601725 -0.009581219 0.004738319 -0.0029592128 0.0075894254 -0.004897886 0.0046696113 -0.005209686 0.007747523 0.001319625 0.002433132 0.0070481705 0.002440268 0.00798105 -0.004986984 -0.005590288 0.007280748 -0.0012888542 0.004854612 -0.0024136421 -0.009874779 0.007143605
回到 0.0076486296 0.007972344 0.0057842406 0.0031860638 0.0009895517 0.0005793005 -0.007279644 -0.0047570947 -0.006131309 0.00051461544 0.0033598254 0.00573849 0.009647718 0.00053225626 0.0034722511 -0.009403709 0.0060305297 0.00019326805 0.0051968517 -0.003325952 0.0050231935 -0.007963689 0.0010712036 -0.0072745145 0.008186744 -0.0050874436 0.0066902256 0.0065666116 0.00025001817 0.008907321 0.009373891 -0.0002726962 0.0012351595 0.0006513408 -0.0013432852 -0.007243873 0.00109948 0.0055878335 -0.0090256315 -0.009122299 -0.0021913014 -0.009406584 -0.006944085 -0.009502701 0.00793525 -0.0013728 -0.0003947819 0.0015170345 -0.0029451589 0.0005090478
喝酒 -0.0014249466 0.0038303528 0.0061226925 0.0028126708 -0.0036797272 -0.004550265 0.008719756 -0.0022570246 -0.0010183959 -0.0072039324 0.0088116685 -0.007234991 -0.0041008014 -0.0005967022 -0.0009182864 -0.0029920165 -0.0010464477 0.008409374 -0.00022374361 -0.000540036 0.0070874225 0.0012833297 -0.0051660356 -0.0056139743 -0.001028003 -0.000254278 -0.0066633737 0.00507798 0.009482597 0.0011960604 -0.005220237 0.0011839591 -0.008167938 -0.00790886 0.00255713 0.008276333 -0.0071408288 7.925803e-05 -0.008963104 0.0058705565 -0.00980962 0.006789683 -0.0062041404 -0.000587253 -0.003821226 0.004964274 0.0056623993 0.009118616 0.007700337 0.009547919
蝦 0.0077349627 0.0018992221 -0.005598358 0.004852333 0.0022292025 0.002029206 -0.0025805328 0.002314839 -0.0009717131 0.007196052 -0.008437042 -0.009804372 -0.00306665 -0.007084045 -0.009494843 -0.009865886 -0.008113302 0.00056196237 -0.0028288846 -0.008282004 0.0007378092 0.0059657083 0.0010659159 -0.008750229 -0.004745342 0.0038018492 0.00014385418 0.0037908123 -0.006478135 0.009852763 -0.007376866 -0.004940547 0.0006234219 0.00852102 0.0062810318 -0.007813502 -0.008710305 0.00034268972 0.004589844 0.0071872445 0.0070343013 0.0077525126 -0.0057369 0.0066795717 1.0572335e-05 0.00500798 0.0051950677 0.00080460915 -0.006080202 -0.003182412
倉山 -0.009306613 0.0054007974 -0.00394884 -0.007011513 0.007093401 0.0076274816 -0.001771513 -0.0020341182 -0.0076738913 -0.0019783326 0.006996428 -0.0028810638 0.009882768 -0.009846203 -0.0008840367 0.0006685252 -0.008786641 0.008403524 -0.002569136 0.00055929366 0.0015077329 0.007740242 -0.00021209726 -0.0002625691 0.004909367 0.00987671 0.002299858 -0.008468299 -0.008905894 0.0018869251 0.001461775 0.001727625 -0.002104079 -0.0069363443 -0.003660835 -0.005108866 -0.00047052526 -0.00442437 -0.008084151 0.008862883 0.0058628423 0.008634653 0.009042016 0.0018009729 0.0029303487 -0.009784239 -0.005588916 0.009829626 0.0034882862 0.0072981617
早點 -0.0019402074 -0.009115686 -0.005287997 0.0070679453 -0.0050653676 -0.001225052 -0.008132059 -0.0036648167 -0.0010222952 -0.0043089907 0.00458632 0.0075288666 -0.0048122588 0.004405161 0.009762325 0.004912772 0.007876013 -0.0042209644 -0.006349155 0.0013640111 0.0042592254 -0.009140833 -0.009070343 -0.0067398255 -0.0029124543 0.0013156518 -0.0017362789 0.005557673 -0.008711265 0.0027644036 0.0009474768 0.0017253865 0.009378412 -0.00022508544 0.0059441887 -9.5478994e-05 -0.0036372335 -0.007927395 -0.007968883 0.0044400687 0.0061545298 -0.0030836968 -0.0026595755 0.0040244074 0.0016445026 0.0016513787 -0.005690315 0.0040249517 0.0007009872 -0.0012387001
新鶴田 -0.005475239 -0.00647277 -0.009992295 -0.006808856 -0.008842585 -0.007202127 -0.003778706 -0.0022159836 0.005237514 0.00527275 0.0022184688 -0.00896689 -0.0091102915 -0.0073699662 0.00020554147 -0.002651316 0.009231273 0.0017838413 0.0072429418 0.007823704 -0.001297573 -0.002619284 0.009518836 -0.0025547321 -0.0027362343 0.0028772138 -0.0040704263 -0.007764978 0.009868777 -0.003245743 0.002904705 0.008504892 -0.008189223 0.00463105 0.002214699 -0.004081803 0.0056600836 -0.005601432 0.0006456701 0.0040724836 -0.0065908455 -0.005278759 0.0045988015 -0.006934725 -0.0016313439 -0.005580357 -0.0058882665 -0.005815764 0.00038447152 0.0014352505
溫泉 0.0019542517 -0.0059046512 -0.0051405174 -0.008637198 0.008460491 0.0031697745 -0.00068464666 -0.0073147416 0.0071727843 0.004576005 -0.0004756994 -0.005252656 0.0003118793 -0.006040716 -0.009643983 0.00470465 -0.00783034 -0.00464817 -0.0026308668 0.0068371776 0.00570809 0.005492744 0.0039573316 -0.0040351697 -0.00038995082 -0.007733133 -0.009525419 -0.004688876 4.3993954e-05 -0.0036479535 0.0048288265 0.0023802684 -0.0023609977 -0.009159484 -0.0045910077 0.00687082 -0.008935498 0.0061420463 0.00028180363 -0.0024809034 0.0053571984 -0.003640856 0.001993953 -0.0041883383 -0.0077332417 -0.00660906 0.0006272465 -0.0035762857 -0.0024979778 0.009386832
房價 0.0015408006 0.0010325941 -0.006591314 -0.00536378 -0.0015847401 0.004010432 0.004844954 0.008096718 -0.003282971 0.008813508 0.0008659601 0.004152752 0.004426686 -0.006939096 -0.006521961 -0.006816779 -0.0063495673 0.002290429 -0.0025642621 -0.007743476 0.00085356244 0.006130064 -0.0087041445 0.00094884494 -0.0065895985 0.00647013 0.003989047 0.0054523703 0.007838521 0.0015374236 0.00726821 0.00687922 0.007247863 -0.0028098426 -0.0044858814 -0.0064119594 0.0034886524 -0.0035259654 0.0015874822 0.0039365385 -0.00552144 0.0014228249 -0.0057550184 -0.008721593 0.0037981197 0.007914278 -0.007320241 -0.0009894143 0.0042584254 0.0023475531
便宜 -0.0005448094 -0.0049086553 0.00067962654 -0.0015939203 -0.0016506381 -0.004827713 -0.0025333662 0.0011691648 -0.003717126 -0.0022494602 0.0037976413 0.0049759527 0.00974589 -0.004160543 0.0075940406 -0.0033196718 0.005885015 -0.0011646892 0.009156283 -0.00054092763 -0.008092259 -0.003985415 -0.0022048198 -0.001068826 0.004758332 -0.00054099027 0.005226607 0.0057652043 0.008293382 0.006810203 -0.009571277 -0.0013896277 -0.0061615612 -0.009810138 -0.00026710687 -0.0008535374 -0.0029495868 0.00066983927 -0.0074892496 -0.0025788478 0.0027599577 0.00059878995 -0.0023084346 -0.0052308203 -0.0017514306 0.0017816632 0.0038514005 0.00499444 -0.0064095184 0.0038225434
上越 0.0021432443 0.0036480147 0.008635659 -0.0022532658 0.0046517383 -0.0047445847 -0.0066110743 0.009692246 -0.0016018694 0.0031040024 0.009761165 -0.009880497 0.004444186 0.009874075 -0.005737711 0.009206911 -0.005588845 -0.009623923 -0.0046148603 -0.0077341893 0.009683953 0.003991493 -0.007386922 0.0029581927 0.0011642715 0.007853285 -0.004968868 0.0089152185 0.00948091 0.009337845 0.008273916 0.001967284 0.002150948 0.008238888 -0.0080359215 -0.0060588242 0.007864718 -0.0029641192 0.004000868 -0.008116405 0.0077083535 -0.0014696508 -0.0076181805 -0.005469985 -0.0072837807 0.004164932 -0.009911663 0.002541822 -0.0040909187 0.004475586
新潟 0.0011827273 -0.0020625906 0.004003327 -0.004108306 -0.006839996 0.0070975753 0.0058198944 -0.0030640669 0.008266242 -0.0029367432 0.00021721341 0.009890045 -0.0064423196 -0.0075578573 -0.008879014 -0.009004655 -0.004217586 0.0020560983 -0.008327004 -0.0023692548 0.009297434 -0.009347313 -0.0054814243 -0.0056203073 -0.0038054085 -0.0053331964 -0.00014530245 0.0024355303 -0.006779808 0.0030193736 -0.0021615713 0.0012589912 -0.009861813 -0.0023583083 0.005942965 -0.008347929 -0.0025423232 -0.0034735955 0.007966566 0.0095491 0.008122336 -0.007358589 -0.0024191497 0.0013568952 0.0039925193 0.005854382 -0.0037062082 -0.0023102786 -0.007187367 0.00029763728
Class 0.0056051784 -0.002823705 0.0076210345 0.00714786 0.005607524 -0.0076788743 0.0065612644 0.009065323 -0.0060641896 -0.0023158416 0.007495391 -0.009031594 -0.008067449 -0.005841792 0.005614872 0.002895995 -0.004881153 0.0023859967 0.00083383906 0.0047091995 0.0062728915 -0.0022142604 0.00018897775 0.008251394 -0.009814265 -0.008148493 -0.0075197225 0.0014420926 0.0013040251 -0.003776363 0.0019027429 -0.006971137 0.009083909 -0.0072279116 -0.0059115426 0.009460111 -0.008249741 0.0051849377 0.0033601753 0.0009120508 0.0023051011 -0.0011688876 8.97394e-06 -0.006388339 0.0041668396 0.0065855808 0.0036668633 -0.0045944015 0.007573975 0.008484075
同事 0.0018120302 -0.00891497 -0.003687473 -0.006937146 -0.00030986397 0.006588332 0.002447423 0.002326349 -0.0044476446 -0.00958513 -0.0018745769 -0.003940188 -0.0074928743 0.008918304 -0.0030410846 -0.0017628801 0.0005222037 0.0019045462 0.004178284 0.0030760579 0.003514835 -0.0071278266 -0.002042066 -0.0060479227 -0.004373166 0.009818123 -0.008917659 -0.0061730426 -0.0009398192 0.0025264297 -0.001268275 -0.0028369294 0.0067648906 0.004562673 0.005251295 0.005116799 0.002561622 -0.0015171178 -0.004083193 0.0024859873 0.00037618534 0.00023127711 -0.0025343702 0.004340821 0.008920822 -0.0034425282 -0.007922588 -0.0013883144 0.0010757403 0.0030566824
北九州 -0.004745407 -0.0020409308 -0.0047535864 0.005478115 0.008132586 -0.0031468389 0.0035596145 -0.007741697 -1.481658e-05 0.0011679756 -0.005910031 0.0036262649 0.0032122496 0.0055746203 -0.005239654 -0.0010949183 -0.0023633577 0.00075676374 0.00541485 -0.008598139 -0.0061881905 -7.72198e-05 0.0010978789 -0.000902705 0.0037189748 -0.0065760664 -0.0067412467 -0.0011755311 0.0005372136 -0.0023617384 -0.004460703 0.0035384938 -0.0075805266 -0.00321987 0.009510491 -0.0039316793 0.0067590824 0.00553776 0.0077685234 -0.0069088335 0.0033614498 0.0050119436 -0.0009335026 -0.0065598288 -0.003294735 0.009037406 -0.0051053786 0.004109452 -0.0038525967 -0.005535808
增加 -0.0043321927 0.0011536058 0.0061210413 -0.006126509 -0.0036043369 -0.008003903 -0.0017808548 0.0086551355 0.007838591 -0.003915497 0.0082023 -0.000120403165 -0.002909253 -0.0031117783 0.009029457 0.0038375827 0.0045378916 -0.0025313962 -0.005159995 0.0030387254 0.0032248334 -0.0046658395 0.005815549 -0.009680075 -0.008918379 0.006670056 -0.0067341453 0.0064041247 0.0065552155 -0.007440983 -0.0040605846 -0.0050458545 0.00917518 -0.0022619497 0.00869149 -0.00917289 -0.0007202271 0.008363753 -0.002502644 0.0027012182 0.0024415073 -0.0034362231 -0.001254847 -0.005224644 0.0066373143 -0.0041874307 -0.0084917145 0.009896417 -0.00015968354 -0.0063921274
說 0.00018977343 0.0082529485 -0.006638669 -0.00342544 -0.006053458 -0.005338163 -0.0002917436 -0.0032365487 -0.0039069904 0.004682912 -0.0034829348 0.0073630335 -2.6473479e-06 -0.0027742398 0.009790001 0.0055984105 -0.0073947795 -0.0029849142 -0.0026728266 0.00015152118 -0.008683317 0.0014344723 0.0025535256 -0.0044344384 0.0014870513 -0.003964195 -0.0039965343 -0.008535675 0.008823738 -0.0015909378 -0.0019133318 -0.009796343 -0.006449147 0.006863761 -0.0051476997 0.009605126 -0.0020753122 0.00027429982 0.0035456473 0.0055628186 -0.008222245 -0.009116974 -0.0028199626 -0.0044436017 -0.004782787 -0.0018867316 -1.7193977e-05 -0.00900787 0.0040520183 0.0014594466
真的 0.00888989 0.00940756 -0.00061647454 -0.009416892 0.004458496 -0.0018983795 -0.0054984665 -0.004694314 -0.008727864 -0.005896446 0.007580868 -0.0010952009 -0.008706758 0.004028589 -0.0024142447 -0.006782106 -0.0008368477 0.006616075 0.009252289 0.009015764 0.007900151 -0.001833493 -0.0075818156 -0.004753768 0.008969946 -0.0039969883 0.0011636462 0.00035950856 0.009747929 -0.008989307 -0.006743672 -0.0051465835 -0.0028825265 0.0059145503 -0.005652492 0.0066073546 0.007560906 -0.0065023564 0.005554163 -0.004615911 0.003371583 -0.0095639145 -0.008973686 9.741523e-05 0.00052543555 0.00087717915 0.007508752 0.0072714593 -0.0066355127 -0.0042183045
20 0.006641991 0.0058356556 -0.0051609296 -0.0021458794 0.0029353846 -0.008879153 -0.0062627015 -0.0006558162 0.0016895877 0.009163912 0.006218859 0.0067609246 -0.006510464 0.0019510393 0.0007407983 -0.0047424054 0.0053966497 -0.0062284796 0.0064821225 0.009060296 -0.002679516 -0.0084854225 -0.006120792 -0.0015328474 0.006650813 0.009359008 -0.00086869637 0.008436241 -0.0030473096 -0.00877189 0.00591396 -0.008631603 0.009284791 0.008165768 -0.0072461194 0.0076470138 0.000590103 0.007862507 -0.00496097 0.0049669403 -0.0046023037 0.00991901 0.0041481256 -0.004989066 -0.0037481256 -0.004055688 -0.0022431423 -0.005186858 0.0026786786 -0.005505755
1000 0.003136517 -0.0075322445 -0.0059920726 0.007210377 0.0035875768 0.00808834 0.0053024376 0.0041721114 0.009520814 0.003885344 0.008057807 -0.0050931107 -0.009932043 -2.2673625e-05 0.0016064536 -0.0012317806 -0.0059260563 0.005887037 0.007436353 0.008758465 0.0028301505 -0.0068443385 0.00076574244 -0.0070846556 -0.00026234522 0.00688176 -0.009720882 -0.0007126043 -0.008308919 -0.009674127 -0.009859707 0.0065179933 0.007849135 -0.004110516 0.0009130347 -0.0062755975 -0.0050363173 0.007918492 -0.0014306895 -4.791701e-05 -0.007885652 0.0044337898 0.006244505 -0.0073106266 -0.006810453 -0.002447983 -0.006535983 0.0012925817 -0.009412603 0.0031105743
鐵路 -0.003108437 0.0052065603 0.0066415807 0.00507656 0.0072866245 0.0020716132 -0.0040115276 0.000114127855 -0.0062201996 0.006244413 -0.00015369618 0.0053588287 -0.008433581 0.007397902 -0.004399675 -0.0020649603 -0.00034290302 0.0019357327 0.0075315 -0.008642395 0.0045033093 0.007947839 -0.0062875347 -0.009635569 -0.0064370455 0.008429358 0.0055368086 0.0055540404 -0.0030125233 -0.004487045 0.002891173 -0.0043187276 -0.0030687456 0.009143143 -0.0025549892 0.0020442053 0.0053947973 -0.004296942 -0.0010400647 -0.008015234 0.0024476922 0.0023977445 -0.004161258 -0.009429645 0.0043544373 0.0063725975 0.0090320185 0.008147579 0.0027970064 0.006925345
唐吉軻德 -8.444906e-05 0.0058229263 -0.0034393512 0.0016846538 0.0006893831 -0.009307854 0.000920208 0.0003126664 -0.007795984 -0.0027568142 0.00396531 -0.0058527784 -0.0026686448 0.008846485 -0.007525796 0.00232397 0.006893196 -0.0013067964 0.0055496776 0.007256163 0.002102033 -0.0080534285 0.0054539945 0.00983818 0.0027831434 0.004408402 -0.007906429 0.0001207247 -0.007981046 0.007577021 0.0031326113 0.005742979 -0.00058794086 0.004516663 -0.0019593537 0.0021180168 -0.0053748842 0.009089909 0.0033392087 0.003447041 -0.0048704157 -0.008378146 0.00533107 0.00460608 -0.0099664135 -0.0011687069 -0.00703368 0.0036927145 0.0027649158 -0.0075513837
本店 0.002601252 -0.009188327 -0.009443699 -0.004005267 0.007119393 -0.0080740005 -0.0041023693 0.0084547475 -0.004385213 0.006385855 -0.0067820437 0.009571361 0.004310213 0.00039761644 0.002120108 0.007984003 0.0036644607 -0.008587012 0.0049840882 -0.0022378622 -0.00836394 -0.006083201 -0.0038066036 0.0006513741 0.004017964 -0.0006682328 -0.000989663 0.0014579357 0.006354813 0.009621611 -0.0013328795 0.008109055 -0.0073554036 0.009967225 0.0023911279 0.009558539 -0.009135018 -0.008063874 -0.0003526326 -0.0034155708 6.669159e-06 0.0038233723 -0.007637242 0.008680733 -0.0068571544 0.0020780421 0.008402796 -0.0005382044 0.001736318 0.0017717867
午餐 -4.2493622e-05 0.009927838 0.007620766 0.0041192477 0.006633106 0.0024406123 0.0009994608 0.009262197 -0.006116366 -0.008569292 0.0068207025 0.005544699 0.00035007563 0.00781306 -0.0065203477 0.009744344 -0.00863617 0.0034032897 -0.006150992 -0.0051371595 0.008005307 0.0018979668 -0.008063073 -0.009211876 -0.007612258 -0.0010633186 -0.0022694115 -0.006669092 0.0037010396 0.0011741063 -0.007933315 -0.0029700373 0.009414465 -0.007075417 0.000877351 -0.00782264 -0.0032838653 0.0006779315 -0.0054013166 -0.008017982 0.002609061 0.0020154861 0.0055172644 0.0012778072 0.008037034 0.00899684 0.0091817565 -0.0056374096 0.00034551317 0.0062431446
同意 -0.004229331 -0.0099695865 -0.00850261 -0.0069458177 -0.0068418058 0.0071688066 0.0057769883 -0.0020984297 -0.00522307 0.0026353928 0.0064355605 -0.0069275824 -0.00835715 -0.008720491 -0.007698087 -0.0035551758 0.00406171 0.0095033785 -0.0047930423 -0.0070264125 -0.003673424 0.005951348 -0.0028034959 0.0055196527 -0.0016982004 -0.00061156886 -0.008737646 0.008727617 0.00049857306 -0.0022378564 -8.951768e-06 -0.009991334 0.0075182547 -0.0035100358 -0.00773032 0.0075308373 0.0021691432 0.0071678 -0.009706395 0.005082909 -0.0037449978 0.0071506794 -0.009702906 0.0064111697 -0.0022597567 -0.0078052897 0.00587609 -0.0030698632 0.009486371 0.0022566947
晚餐 -0.00018593342 0.009887745 0.004517087 -0.0029722475 0.00032548807 0.0021442561 -0.009776512 -0.00493914 0.0061040837 0.00637581 0.0021315315 -0.0018155868 -0.0031233928 -0.0048277713 -0.00972585 -0.007320495 -0.007813703 -0.00880691 0.0077158357 -0.0023886033 -0.0020983592 0.0065988232 0.0059202826 -0.006415967 0.003263467 0.0082249595 0.0051314095 0.006180747 0.006914421 -0.009434888 0.008404789 -0.002098352 -0.0056510787 0.005643513 -0.0041697253 -0.0033843375 0.0064610555 0.009762006 0.0048130816 -0.0027000986 0.006561108 -0.009938892 0.009422532 -0.0012971001 0.0015198027 -0.0015470941 -0.0055914796 0.0008833501 0.0015497429 0.008157859
請客 -0.0046876813 -0.0062210523 0.005618648 0.008162441 0.0032642628 -0.007805879 0.009421994 -0.0056103356 -0.0056382273 -0.009724115 -0.0032233098 0.009898473 -0.006120293 -0.00034752593 -0.00986848 -0.0028586753 0.0051824786 0.0010320328 -0.00094220624 -0.008057733 -0.009994837 -0.0061367326 0.002463333 0.0011669052 -0.0043893526 0.009546773 0.007873353 -0.009726527 -0.0009235241 0.0092047565 0.0027423857 -0.0074497797 -0.0030666848 0.0027403089 -0.007370071 -0.005259534 0.0019086805 -0.0019148681 -0.0027697762 -0.008394123 0.008597052 0.0013915994 -0.005120758 -0.008589891 -0.0004328826 -0.005189489 0.0027588552 -0.009327034 0.009814892 -0.0079780035
續攤 0.0006080995 0.005286494 -0.0022906042 3.0226765e-05 0.0077885166 -0.0027765362 -0.008753868 0.0012113529 -0.0040516555 -0.009373811 -0.0029732033 -0.0025500823 -0.0020855293 0.0037759456 0.0076817125 -0.004112036 -0.005816897 0.002676827 0.008891544 0.00058080506 -0.007657557 -0.0094268285 -0.0098451525 -0.004491284 -0.003671682 -0.007894343 -0.0004716647 -0.0023373151 -0.0018127083 -0.0092641115 -0.0022713984 0.002683498 0.0011189957 0.0008816008 -0.0010329866 0.0027287418 0.0013999398 -0.008102687 -0.0015036848 -0.008793866 -0.0067270473 0.0052044103 0.0022535524 -0.005107375 0.005199564 -0.00023465793 -0.0068760384 -0.009266205 -0.005029534 -0.004635573
21 0.0022801505 0.007241046 0.00030258799 0.0072329775 0.0017547077 -0.0038638043 0.00019685086 0.0060708057 -0.0055927723 0.0018045618 -0.0011345966 -0.0043451823 0.0018048662 -0.007071527 0.009811236 -0.0073566795 0.0066641895 0.0036601052 0.004218459 -0.0067337155 0.009877296 0.0045994623 0.009238065 0.004995255 -0.0075527383 -0.0011654723 0.0048230984 -0.005486052 0.0052029705 -0.008712295 0.0013470917 -0.00807484 -0.006899714 -0.008766739 -0.0007421233 0.0028204252 0.005076046 -0.005482685 0.004709562 0.0016212078 0.006889249 -0.0014618117 -0.0036815747 -0.0034444067 -0.0045485883 0.00045588095 -0.00027303182 -0.0029583338 -0.009294595 -0.0097832745
帶路 0.00217011 -0.004328788 -0.004035071 0.0025183444 0.002493383 -0.0015098575 -0.007276271 0.0039004933 0.0055247345 -0.004265888 -0.00627065 0.007937223 -0.009316329 0.009623925 -0.0045280484 -0.009907496 -0.00729468 0.008168127 -9.292473e-05 0.006943534 0.008761797 -3.6363122e-05 0.007476877 0.0058983704 -6.908391e-05 0.001367019 0.001743827 0.0027974483 -0.0009603119 -0.007501774 -0.0072300355 -0.0049078325 -0.006616339 -0.0048932014 0.006012916 0.007054972 0.00050244934 0.0009136716 0.009988718 0.008651597 -0.005656426 -0.009019526 0.009534444 -0.006913334 -0.0045687994 0.00111678 0.0023858168 -0.0016795273 0.0019399325 0.008889279
太宰 -0.0068984777 -0.00052952813 -0.002959694 0.0043113516 -0.0096884575 0.0040212567 -0.009789822 0.0031267894 -0.0002687408 0.004962579 0.009829671 0.0018975479 0.0022306293 -0.0068548927 -0.0012933 -0.0036048288 -0.00026118403 -0.0044605336 -0.008654197 -0.00475967 -0.004141806 0.007954884 0.00479516 0.009737414 -0.001921508 0.005144054 0.0010611438 0.008782399 0.007925719 0.0016788313 0.0014033675 -0.00064986025 0.009935496 -0.007878074 0.009988575 -0.00054742396 0.009350994 0.009933201 -0.0021714545 0.005668299 -0.0041956697 0.009052881 0.0031243504 0.009342806 0.0011520663 0.0078092664 0.0057097087 0.008817664 0.006725104 0.007993092
府 -0.005481437 -0.0043726843 0.0045899604 -0.009184181 -0.0019344501 0.003819454 -0.003944548 0.008557667 0.00920704 -0.006666613 -0.0061372616 -0.002015409 -0.0012681716 -0.009341243 -0.009776713 0.0055147004 -0.0034734458 0.0028840913 0.0009719552 -0.008159523 0.0031679166 -0.0057585994 0.004806741 0.0011984359 -0.0033181508 0.0034082911 -0.008654362 0.0048087467 0.008591152 -0.0022990378 -0.005290922 0.0064096595 0.0038121487 0.0011802141 -0.008420177 0.009336865 0.0023962294 -0.0038090374 -0.003848262 0.0084675085 -0.0037872787 -0.006674889 -0.004010831 0.007364926 0.0036593862 -0.005774842 0.00750786 -0.003187701 0.008097048 -0.0013849621
買 0.009241639 0.0005755661 -0.001531195 -0.008703312 0.0066039627 0.0034156258 -0.001607633 0.0012248934 -0.007664235 0.0031022632 0.00060410466 -0.00909271 0.00054306287 0.0036755851 0.0016739924 -0.008408174 -0.004673773 -0.006674079 -0.008111692 0.009955992 -0.00270892 -0.0016768441 0.008508328 0.0007980369 0.0011107633 0.00039793193 -0.009428978 0.006834786 0.0005639002 -0.0063319607 0.005669644 0.006523442 0.008653823 0.009322121 -0.006066148 -0.0022997407 0.008690977 0.0092243375 0.0017907734 0.0021347033 0.008758272 0.0073742564 -0.0067460476 0.007761388 0.0013169231 -0.004811584 0.004598243 0.0036076552 0.0050280225 -0.0068797893
Outlet 0.008290231 -0.0058793025 -0.005543165 -0.008851057 0.0068867337 0.004913047 0.0054291477 -0.00642251 -0.0010653144 0.004848597 -0.0051509086 -0.008991869 -0.0007530279 -0.009242646 -0.0023441375 0.0095110815 0.0001523518 0.008066718 -0.006704398 0.007648193 0.008605543 0.0075727217 -0.004231359 0.004839897 0.00066034147 -0.0030520468 -0.009484769 0.004153948 0.0033012659 0.0033713775 0.0014864773 0.006874385 0.0005360796 0.005971294 -0.0074892244 -0.0056445473 -0.007246002 -0.0025092897 0.0061463793 0.008257291 -0.0076891035 -0.0032060319 0.0036117823 -0.006451074 0.007852938 -0.0038223963 0.0012981377 -0.0039130836 -0.00072801654 0.0022895106
會合 -0.00279697 -0.006156721 -0.007531148 -0.0075525995 -0.0053526857 -0.0030077526 -0.007999279 -0.006524297 -0.0076946015 0.008571211 0.0032493642 0.008576683 -0.0019631078 0.0064605344 -0.008383661 0.0032423132 0.008156324 0.0021007864 -0.007021604 0.0070777647 -0.009854089 0.007490744 -0.008375532 0.0007400735 0.00049724407 0.002441429 0.00295487 0.00953914 -0.007967031 0.0057761525 0.0046010646 0.0014278005 -0.007335822 0.0031396518 0.00958434 0.004143559 0.0033430255 0.008336433 0.00456286 -0.0034473431 -0.0017520224 -0.0017394132 0.0052849557 -0.004378487 -0.002182102 0.009783689 0.0023515602 0.0034231232 -0.005177011 -0.0064843222
分 0.0045083137 -0.004819118 -0.0063182446 -0.0024346174 0.0010020632 0.0026713288 -0.001711818 -0.0032612015 0.003984895 -0.00792801 0.004984689 0.0013950928 0.0034767042 0.0024451492 0.0037111335 -0.0025456387 0.003257581 -0.008661383 0.009776222 0.006894877 0.004681579 0.0088368 0.007993902 0.0024474212 -0.0008193257 0.0018987958 -0.0059128893 -0.004768843 0.0024022472 -0.008118129 -0.008904897 0.0019483496 -0.006948708 -0.003460384 -0.00020752384 0.005030345 -0.005942055 0.005853157 0.0030087119 -0.008860467 0.0021346444 -0.0048035183 -0.0031286953 0.0024929454 0.007573968 0.007224767 0.0030822763 0.002412654 -0.0078412015 -0.007808526
一起 -0.0023056078 -0.0089974655 -0.009569196 0.008165098 0.008512115 0.007641291 0.0090616075 -0.0035330905 0.009306869 -0.0019394716 -0.0025971422 0.0041637714 0.0066384305 -0.0076817493 0.008856536 -0.006138618 0.008153505 -0.0077272714 0.0055167526 -0.0056547495 0.009682733 0.006816561 -0.0040552174 -0.008696498 0.0004988803 -0.006392479 0.007970877 0.009227676 0.0015244164 0.0073338035 0.006835852 -0.00011097062 0.003581568 -0.007980129 0.00850068 -0.009932036 -0.0056914776 -0.006168709 0.009376295 -0.008655526 -0.009922852 -0.003836398 -1.2848434e-05 -0.007786538 0.0027673244 -0.0033504807 -0.002320357 -0.009070316 0.00080125744 -0.0055342666
一組 -0.004981927 -0.002747474 0.0018513926 0.0009119457 -0.0048728557 0.006177061 0.0090498775 -0.005638027 -0.009998941 0.0041845003 -0.0059242705 -0.008080197 0.00031071986 0.0034022748 0.004049214 0.0023879183 -0.0068807807 0.008930558 0.009803485 0.005739679 -0.0064923484 -0.00079998793 0.008499457 -0.0040050684 0.0013006892 -0.00736689 0.004436621 -0.0014295875 0.0019788768 -0.0079481965 0.008145658 0.005779368 0.003106455 -0.0024757106 0.007299954 -0.003658581 -0.004748583 0.002024048 -0.0047466513 -0.0035112048 0.0029546972 -0.009955797 -0.004401992 0.007900268 0.0035562038 0.008794304 0.0007920329 -0.0010660241 0.004267468 0.005595217
22 -0.009136926 0.009694505 0.009952703 0.0058320016 0.0070363902 0.002318551 -0.0028883677 0.009901706 0.008820681 -0.009828818 -0.00012338425 -0.00575883 0.002771116 0.002623465 -0.00062961376 -0.003082959 0.009975181 -0.0036322428 -0.0019894203 0.0060222438 -0.0013631056 -0.004658964 0.0011212355 -0.0038193918 -0.0052715214 -0.0019941593 0.0026732737 -0.0063414504 -0.00784208 0.0025174245 0.0041955602 0.0007160004 -0.009934194 -0.00083206856 0.0051773554 -0.008078883 -0.0041804174 0.006517535 0.0075379047 0.0008311155 -0.0026604016 -0.00034790055 0.003659674 0.005668794 -0.004124732 -0.0032689264 0.0068469048 0.008561337 0.00830717 -0.0063853054
1024 0.0027250024 -0.008513511 -0.0048198695 -0.007083546 -0.0016410942 -0.00904325 0.0065638344 0.008809513 -0.007534679 0.008389713 -0.000908686 0.0048038824 0.0090868315 -0.0055723595 0.0071758796 -0.0036139213 -0.005908469 -0.0008151985 -0.00079120346 -0.006383115 -0.009090594 4.064345e-05 0.008759071 -0.008961738 -0.009793545 0.008524683 -0.0055448525 -0.0041039404 -0.009274202 -0.0077293487 1.2601733e-05 0.0059181564 -0.0018635208 0.009637546 -0.008040692 -0.0046949587 0.0021996382 0.0049041123 0.0009095619 0.00093155156 0.0023226552 -0.009628033 -0.00090209907 -0.0037379283 -0.007544353 -0.0034824098 0.003582319 0.00020849254 0.00068162446 0.0040023867
搭車 -0.0057252822 -0.00074642594 0.006730172 -0.0040671695 -0.0005692996 -0.006713697 0.005653283 0.0018363929 0.0083598755 -0.009930731 -0.0035028283 -0.009603144 -0.00862017 0.001409135 -0.0058481297 -0.005273652 0.0039116363 0.002281237 0.0075702216 0.0098171625 0.0032138417 0.0033384073 -0.00301027 -0.0021868662 0.009731748 0.0067213923 0.0033345935 0.0019768463 -0.0054241414 -0.009713433 -0.0042594713 0.0066959653 -0.0049151876 0.0041971984 0.005208447 -0.0064622834 -0.0041582743 0.0033845827 0.0071991296 0.0034044832 0.005906752 0.0016701418 -0.0057957014 0.004468542 0.006819536 0.0059449645 0.0036242572 0.009877058 -0.007831751 0.003901631
大分 -0.002964966 -0.0006155539 0.007984261 -0.005458287 -0.005815636 0.0027140148 -0.009734509 -0.008165318 -0.007268047 -0.0061936234 0.0027093561 -0.005477185 -0.008128674 -0.0047621722 0.0014827155 -0.0076331515 0.0072491127 0.0061663324 0.0058038454 -0.00018104042 0.008847481 -0.0001782316 -0.008799086 -0.0023505038 0.007533353 0.0029583713 -5.900568e-05 -0.0007442686 -0.007038871 0.0039370717 -0.0010570154 -0.0024614243 -0.007835658 -0.008304332 -0.0060771406 0.0045676087 -0.0015039794 0.0076651415 0.0023891418 0.009561827 0.008703685 -0.0024865982 -0.0049847537 0.005125665 -0.0046925135 0.0050893025 0.008820493 -0.001647656 -0.002392165 -0.008692915
天婦羅 -0.0065403897 -0.0032966002 0.0018501086 -0.0015129786 0.008653737 0.00165453 0.0056174826 0.0018589494 -0.006655378 0.009389462 0.0036537573 -0.0061180857 -0.006831845 0.0010228911 -0.00041016666 -0.00012497528 0.00050408026 -0.0032726696 -0.004220469 0.0008326572 0.0016136535 -0.00062329415 -0.0089082 0.0062867715 -0.00075069035 -0.005353352 0.0052425307 -0.008349665 -0.008545243 0.0049520973 0.0077349157 -0.008006193 0.004485789 -0.00063106086 -0.0006519058 0.0026187347 -0.005116257 -0.008745094 -0.0050406675 -0.009674795 0.0022545166 0.008896849 0.004922817 0.0028447504 0.009387504 -0.0054498552 -0.007978252 -0.0005545212 -0.002622962 -0.0037226023
と -0.008538154 -0.009565344 -0.003948524 0.0072137755 0.0003179933 0.0037414294 -0.002097436 0.0068544927 0.007549654 0.008511042 0.0072948085 -0.0075972327 0.003036556 0.0029920693 -0.0063627455 -0.0032487612 -0.009403122 -0.008206048 -0.0063750143 -0.0011152897 -0.005937154 0.0041830847 -0.0050220313 0.008475386 0.0071232542 0.0027062004 -0.006623497 0.0014992569 -0.0075306613 -0.0014879793 0.0061114524 0.00076072826 -0.0013596992 -0.0063576074 -0.008890799 0.0038625025 -0.008612107 0.008866879 0.0026282417 -0.007518092 0.0040595415 0.008319829 -0.00074255705 5.2526257e-06 -0.00051835604 0.0024312837 0.0058222637 -0.0028535705 0.004435352 0.0062398114
よ -0.008092811 -0.0037022422 -0.008844805 0.003695309 -0.0035322271 -0.0013567691 0.004603305 0.00939889 -0.002958946 -0.00594326 -0.008405413 -0.006386188 -0.000118437434 0.003947167 -0.002595193 0.0009348981 0.0066479985 0.0034717286 0.008473547 0.0067372727 5.97258e-05 -0.0009942305 0.008581964 0.0076753404 -0.0051819123 -0.0006377588 -0.0074440143 -0.0046349517 0.007990317 0.003055411 -0.00595115 -0.0030007688 -0.0008457683 -0.0043065576 -7.8702506e-05 0.0073426343 0.0067746136 0.004525339 0.008381645 -0.0062696096 -0.006936662 0.008990455 0.003583934 0.0064834952 -0.0045999666 0.00835272 -0.0064285705 -0.0055744257 0.008233427 0.0038224384
常本店 -0.008502977 0.006523387 0.004921796 -0.0019351126 -0.009820198 0.0029333727 0.008652132 -0.005033679 0.000613489 -0.003975372 -0.002781909 0.00527182 0.005709295 -0.0005768202 -0.00331395 0.00072458584 -0.00058384467 -0.0037131754 -0.004732185 -0.0033163603 -0.0017777415 0.00477791 -0.00166869 -0.0080615 -0.0070622806 -0.0045594405 0.0065923664 0.00024630927 -0.009169824 0.006964218 -0.0031910827 0.00624715 0.002113166 0.0017929256 -0.0060102846 -0.007801022 0.0006917858 0.00052910164 0.0031330737 -0.007522156 -0.0036738343 0.0034771243 0.007531284 -0.009480529 0.0036832832 -0.00016919519 0.008678459 -0.009133084 -0.0065020993 0.007125867
23 0.0047550057 -0.009051483 0.0026431936 -0.0023262177 0.0058886744 7.5310745e-05 -0.002950784 -0.0018088283 -0.00935518 -0.0042945165 -0.0048563806 0.00111618 -0.0022570754 0.0088829 -0.005641909 -0.009823672 -0.008276168 -0.003042677 -0.008052436 -0.0052747405 -0.0029034505 -0.005816415 -0.0063475925 0.009933244 0.008261792 0.0047837184 0.0019023726 -1.9482957e-06 0.006715474 0.0047084503 -0.0020354602 -0.009944463 -0.0030757762 -0.0041624242 -0.0016376899 0.00873102 -0.001896784 -0.00093299826 -0.00023939801 -0.007056525 -0.00024417083 -0.0030247492 0.009411981 -0.0076073827 -0.007676885 -0.007713597 0.005784177 0.004686503 0.0044417917 -0.005017305
市場 -0.00496431 -0.005081716 -0.0029329844 -0.0056047104 -0.008145723 -0.0065516173 0.005924591 -3.3395e-05 0.0022049074 0.006324971 -0.009269446 -0.008903415 -0.004982548 0.009704192 -9.945708e-05 0.009241968 0.005936432 0.00085252675 0.0009196786 -0.006344737 -0.008904077 -0.0050515784 -0.0027984227 -0.0032006039 -0.0098192 0.0073488364 0.0045248787 -0.0035818042 -0.0030199206 -0.0033226958 0.0064872955 0.00069444673 0.0008682107 -0.0060412507 -0.00052737753 -0.005867446 -0.0031568715 -0.0049483683 0.006699165 0.0051397365 0.0021508727 -0.0033091437 0.0008932431 0.0010875845 0.009953006 0.0019905802 0.005474318 -0.00052452454 -0.0032221377 -0.006918036
纜車 -0.008897988 0.0033040924 7.871084e-06 -0.007665065 0.004908086 0.0019358519 -0.00091171305 -0.006681966 -0.005033396 0.0042356863 -0.0052910596 0.0024965028 0.007859588 -0.00963235 0.00070122705 -0.0022189312 0.0075892983 0.0038629083 0.0005954996 -0.00036587508 0.0028964006 0.0013363948 -0.002815805 0.0061417134 0.001233063 -0.007870678 0.0042850203 -0.0022089488 -0.006722885 -0.006449316 0.0055189026 0.004957323 0.007425256 -0.0020289212 -0.0037184316 -0.009939598 -0.009493579 -0.008419759 -0.006750737 -0.0034324657 0.0026720136 -0.003044505 -0.0069422205 0.008553574 -0.0004639294 -0.0052920296 -0.004624923 0.0057623396 0.0074260714 -0.0054810657
交誼廳 0.0014475161 -0.009659272 -0.0070180027 0.009908029 -0.0012102445 -0.0016602565 -0.008885735 0.002922596 -0.00038828317 -0.0032484878 -0.0050781695 0.0045312634 -0.00028915587 0.006147968 0.0028495225 0.0058993953 0.0009078063 -0.0019487852 -0.008091985 0.009523036 -0.000905198 0.0023349905 0.0018065313 -0.002192705 0.003295596 -0.0075096413 0.009817199 0.0073773437 0.0050375657 -0.0060949726 0.008853572 -0.004922266 0.007220909 0.0060587125 0.007913721 -0.0070191636 -0.0015830441 -0.0028880057 0.00432313 0.003748435 -0.0028090295 0.007488016 -0.0037895108 0.00889662 0.0066644484 -0.007322396 -5.6226036e-05 -0.009602138 0.009189229 -0.0042918
24 -0.004525837 -0.0034900815 -0.008160751 0.007856298 -0.0070327846 -0.0005418708 -0.0040718433 0.004017984 0.0071850936 0.00018883658 0.0045981226 -0.00676809 0.008542831 -0.006553863 -0.0031936201 0.0025000887 0.009813526 -0.0039118323 -0.00042783987 0.0005618236 0.0074850214 -0.008749012 -0.0026475035 -0.0028468233 0.0011877201 0.0069737504 -0.0017173303 0.005537799 0.004093604 -0.0029879464 -0.0052846535 0.0095946165 -0.008055533 0.006948168 0.0026137435 -0.0038652313 -0.0060655084 -0.0086288 -0.0072264643 0.008308187 0.0021551305 0.008137158 -0.002655918 0.0016949587 0.0045589954 -0.0005339408 -0.0035854117 -0.007870692 0.009322685 -0.0017403071
門司 -0.0076769 0.0029080135 0.004132483 0.008829884 6.815328e-05 -0.00047196596 -0.00053513626 0.0005318661 -0.0052141235 -0.007875999 -0.0014392771 -0.0014375405 -0.0040280987 -0.0064932485 0.0072182952 0.008748678 -0.002940318 0.00012714007 -0.008804044 0.0023701857 0.009822304 -0.006596246 0.004627837 0.001037356 0.00953004 -0.00833561 -0.0016308543 0.004148511 0.005919318 0.00876469 -0.000597769 0.009016401 0.0028994498 -0.008046464 -0.0012414983 -0.009976754 0.00909404 0.0005109603 0.00024836502 0.0027454966 -0.009905961 -0.005993538 0.0070247157 0.008654257 -0.0020538068 0.0091602625 0.001592061 -0.00449436 0.000837196 0.005188059
港 -0.009770757 -0.00022051316 -0.005261176 -0.007975792 -0.0068671093 -0.004898611 0.0005135648 0.0062895673 -0.0040765535 -0.0016515391 0.009047985 -0.005354042 0.0049002287 -0.004962925 0.0074665556 -0.006710276 -0.00930265 -0.0011765087 0.001293435 0.003479161 0.0025143554 0.004466839 -0.0074775135 0.0046925033 -0.00654504 0.00024697866 -0.00011355946 0.00673858 -0.005031771 -0.0009058863 0.0043904306 -0.0009112398 0.008823909 -0.002954519 0.008537911 -0.0014393324 0.0017633194 0.006125769 -0.0061924537 0.008675269 0.008370542 0.007149558 -0.007942202 -0.0064371414 -0.0052090324 0.005627676 0.0067669107 0.00046027682 -0.007902872 -0.00039810748
唐戶 -0.005423736 0.008548922 -0.0072120847 -0.0042869044 -0.0018815397 0.009306299 0.008221442 -0.009864202 0.009570457 0.0070687965 0.009624193 -0.0013657262 -0.00012801943 -0.0042481953 0.0010932513 -0.009663465 0.0016014478 -0.0010084354 0.0022644573 -0.0063187275 0.00047546646 0.0017218324 0.0060704807 0.00554124 -0.0018919666 0.008099243 -0.005126755 0.008369187 0.00050401164 -0.00028291877 -0.008471593 -0.00596025 -0.0030775184 0.007508935 -0.005898354 0.0060461047 -0.0031243577 -0.0055304123 0.00089929166 -0.009315223 -0.006978065 -0.004912779 0.002680039 -0.0059049865 0.0022576023 0.0009402897 -0.001962754 -0.008409041 0.0017475617 -0.0018567052
早餐 0.0033927788 0.009950899 -0.0023977503 -0.009926798 -0.0077352193 0.0024022497 0.0074645313 -0.003885236 0.004624577 -0.0014334059 -0.0003515129 -0.0029525512 0.0057837577 -0.0011827176 -0.0019134136 0.0064473455 -0.009338594 0.009360262 -0.0030171953 -0.00056562625 0.007770358 0.0038951377 0.008945938 0.0002329511 -0.002922414 0.0056153857 0.008519472 -0.0066084308 0.0062276097 -0.0011073964 0.0020120703 -0.008704816 0.009433447 -0.0048510646 0.003692374 0.0063392892 -0.0030230482 0.0040386044 0.001485484 -0.0087466445 0.0045999666 -0.00726825 -0.003248017 0.0024084803 -0.0016516099 0.006076131 0.00034726152 -0.008235816 -0.007516373 -0.002495886
下 -0.0073173614 -0.0043082163 -0.005534876 0.0008990754 -0.0047695464 -0.009070512 0.0023738423 0.0081284605 0.009444928 0.0036974873 -0.0023009325 0.0024279323 -0.0060180696 -0.00054876925 -0.009728004 0.003616828 -0.009013407 0.0047666207 -0.002528985 -0.00409874 0.008115165 -0.006589433 -0.002127767 0.008938549 -0.0061623533 -0.0035845411 -0.008076078 0.00538624 0.002496601 0.001384655 -0.0011088386 0.0035096803 -0.0050577694 0.0048989784 0.006559376 -0.005472729 0.0059858114 0.0065369154 -0.008395032 -0.0065958737 -0.008718687 -0.00031925584 0.0043780277 9.094153e-05 -0.007150971 -0.0091649415 0.0051832907 0.0028306213 -0.0050650304 0.003032837
選擇 0.005666953 -0.004267734 0.0074747265 -0.004903003 0.003082689 -0.0014866581 -0.0031757932 -0.004116908 -0.0076266937 -0.009373644 -0.00083893794 0.0060919137 0.005622603 -0.0065887384 -0.00742302 -0.007666496 0.0051219333 -0.0058017164 -0.0014604564 -0.0039298115 -0.0026724134 -0.0031736868 0.008561169 0.0028921785 -0.0032131732 -0.0046345354 -0.0071844147 0.008839513 -0.008235606 -0.009395907 0.006798944 0.00644141 -0.0050123846 0.0073771435 -0.008626998 -0.009340135 0.008857398 -0.007192903 -0.0006516217 -0.007428893 -0.008531354 0.0016256894 -0.0009512443 -0.0011843963 -0.008149013 -0.0036022987 0.008404558 -0.009916542 0.0041502216 0.0050120805
整體 -0.0026230158 -0.009458534 -0.00934177 -0.006336834 -0.0017838423 0.003533822 -0.004284598 -0.0077727935 0.008029661 -0.0075601363 -0.007532933 0.0075635277 0.003109733 -0.0043554837 -0.008657199 0.0099896155 -0.002693359 -0.005808151 -0.006292607 0.00791806 0.0076899934 0.0050349673 -0.0015760475 -0.0092021115 0.00017718402 -0.0035979417 -0.0051417365 0.0032130345 0.004756644 0.0043006535 0.009076003 -0.00094508857 0.009102072 0.0010313261 -0.00993091 -0.0067505147 0.008584656 0.00014154588 -0.004903554 0.007991196 -0.008408674 -0.0013979527 0.0028646083 0.0046120742 -0.008443136 -0.003330577 0.0062590586 0.009010467 -0.001038336 -0.006882951
運河 -0.0045944597 0.008902492 -0.009923642 -0.008625709 -0.00086388236 0.0061456035 0.0013647277 0.008914348 0.0038275358 0.009019379 0.0011767293 0.007578082 -0.0043789856 0.009340815 0.0035859495 -0.003239074 0.0062868213 0.0043140217 0.004294911 0.00044776523 -0.0057424074 -0.0029032773 0.0060105664 -0.0059152166 -0.005969297 0.0054939636 -0.0059115086 -0.006463765 -0.0049547395 0.0016668458 -0.0004819238 -0.0078119473 0.005335489 0.0007346044 -0.004330183 0.0073364293 0.006959396 0.007574785 -0.0051980494 0.0006831271 0.008504936 0.005125611 0.004687837 -0.005175135 0.0069549666 0.008853958 -0.009042604 0.0097458055 -0.008740899 -0.008220473
景 -0.0065775868 0.0051051155 0.0028671834 0.0067906985 0.006791775 0.00011031264 -0.003795457 0.007518945 -0.008836319 -0.0040005357 -0.008167146 -0.0060782987 0.009262905 0.008693361 -0.007089451 -0.002215818 0.0053305775 0.0028592364 0.006991299 -0.00022376352 0.008988105 0.005165511 0.008370909 -0.009687975 -0.006281965 -0.008559933 -0.002091564 -0.004464936 0.00857236 0.007001653 -0.009877637 0.0034984285 0.0052869646 0.00776656 0.0017422192 -0.0060172803 -0.0055368757 0.0008645057 0.0019664157 -0.0067388946 -0.0026116858 0.0041560214 -0.006496681 0.00356209 0.003517997 -0.00021836431 0.0045669335 -0.005225394 0.005126027 -0.0081802
皿 -0.004586521 -0.0043223677 -0.0068454887 0.0041045365 0.0057372837 -0.0055597383 0.009157048 0.0060686874 -0.009501472 -0.008472027 0.004585494 -0.004459458 -0.008963337 -0.009417182 -0.006868536 0.0099163465 -0.0017615483 0.009904323 -0.0038756724 0.007609986 -0.006017403 0.007634028 -0.006529956 -0.008765556 0.000710815 0.008748625 -0.00482605 -0.0059375665 0.0084300125 -0.0017409063 0.0026313865 -0.005737988 0.0010389417 0.0050660763 -0.0053435834 0.006830909 -0.0063746586 -0.0022754322 0.004502845 -0.0032268965 0.00028779826 -0.007918332 -0.004707454 0.0072697615 0.002156378 0.009533486 0.0009783896 0.000352727 0.0047329706 -0.0068725916
意思 -0.009113893 4.507086e-05 0.0045159287 -0.0049090805 -0.0070821205 0.00076216453 -2.8037643e-05 -0.004392239 0.0076713827 0.0035797935 -0.005279946 0.0022341078 -0.0031763741 -0.0038409696 0.004567418 0.009369496 -0.0049800985 -0.0032900306 -0.0071594417 0.009941678 0.009321043 -0.0017314415 -0.008272048 -0.008093756 -0.009781318 0.00457205 0.00068858 0.00954809 -0.007892141 -0.00931181 0.00096173614 0.0013976572 -0.0076408153 0.003526274 0.0010847904 -0.003806697 -0.008506806 -0.0018393588 0.006216689 -0.008076909 -0.0025499149 -0.008817936 -0.0062254383 -0.00093064556 -0.008432785 -0.0006398864 -0.003839415 0.007729072 -0.00022309356 0.00017970908
16 -0.00559762 0.006898419 -0.006921185 -0.0031279884 -0.0038790768 -0.004291591 0.0072773984 0.0063433787 0.004320741 -0.00064552 -0.0028161185 0.0028507228 0.0018496242 0.008648549 0.009082021 0.0069723446 4.774518e-05 0.00025646883 0.0052700653 -0.00054317736 -0.004950559 0.0016455555 0.009308722 -0.006047064 0.004770224 -0.004700357 -0.006587882 0.0060723317 -0.006268497 -0.0019866985 -7.470657e-05 0.0020718935 0.0032156303 0.006111222 -0.004603617 0.00798854 -0.0067968518 -0.008151321 0.0026161727 0.0013796396 0.0011063074 -0.0053481213 0.0052647614 0.0076376875 -0.0047304775 -0.0042041135 -0.0014622709 -0.00879075 -0.001806823 -0.003259996
典禮 0.0026691253 0.0052255034 -0.004016863 0.0078303935 0.0023117631 -0.008580044 -0.00748598 -0.009706944 0.0034933807 -0.007425834 -0.009919553 0.009218965 -0.0054163425 0.0040391292 -0.0023097813 0.0030802733 -0.0032010688 -0.0032255086 -0.0015205625 0.0011563618 -0.006290599 -0.0029134336 -0.0079654595 -0.0019198386 -0.00205704 0.0086747855 -0.007916426 0.008232904 -0.00455133 -0.009699877 -0.0028181856 -0.009946116 0.006914268 -0.00062399666 0.0055035683 -0.0073966463 -0.009730613 -0.007946118 -0.0037485145 0.004552144 0.0012738714 0.00657761 0.0018993036 -0.0096617425 4.0871713e-05 0.008435782 0.0066929427 0.0035510557 -0.0056175194 0.006088488
喊 0.007933781 0.0049277116 -0.0012655822 0.004638143 -0.0010953468 -0.0096607 0.0015339801 -0.00852706 0.0024360234 -0.007574004 0.00458408 0.0042919917 -0.005393236 0.0079652015 0.0048717735 0.009019773 0.0011056592 -0.0051828907 -0.004000728 0.008065424 -0.001905245 0.0058463127 -0.008797145 0.0038340073 0.00070999644 -0.00024497692 0.005676578 0.0019913753 -0.000530103 0.0021125933 -0.0015294359 -0.0004483733 -0.0070898687 -0.0025048326 0.0087704975 -0.0063118357 -0.0045744213 0.003436994 0.009859337 0.005218083 0.0052288203 -0.007549712 -0.0021702156 0.002603256 0.00018455928 -0.009490753 -0.002864315 0.000387338 -0.005609188 0.009055948
新 0.0038544317 -0.0023344972 0.005873437 0.009002137 0.0017477592 -0.0052117473 -0.0028471118 -0.0028037296 0.0086189825 -0.0065910458 0.005907818 -0.0035253854 0.0018725885 0.00827203 -0.0091097485 0.0014009718 0.0044556097 0.0029862206 0.008102496 -0.002556531 -0.0016856052 -0.008216107 -0.0044014817 0.008095243 -0.005823524 -0.0012188972 0.0027701396 -0.00068516424 0.0033175184 -0.006499517 -0.0019183535 -0.0028236392 0.009996432 0.009136091 0.007289414 -0.0034858761 -0.002441344 0.002926397 -0.005212529 -0.003414319 -0.0020614618 -0.0026302834 0.006736317 -0.008604168 0.008699353 -0.0049181506 -0.0052618114 -0.002940621 -0.0019122594 0.0024616572
越 0.0028687462 0.007138003 0.002535523 -0.007864369 -0.0035418377 0.00366084 0.0063499245 0.0031571724 0.0040886477 0.0056366804 0.008569518 0.008863588 0.0007874586 0.0036629364 -0.0071247756 0.00879979 -0.0032073616 0.003994214 0.006756365 0.0017123683 0.008564005 0.006149761 0.009229112 0.00056243077 -0.006933895 -0.0022240197 -0.008695657 -0.005275984 -0.0010023683 0.0065639354 -0.0032760634 -0.0072944006 0.0065813437 -0.004845686 0.0010759024 -0.0065453076 -0.00037843594 -0.006262915 -0.0054905354 -0.002438785 0.0086565055 -0.002271214 0.0044959085 -0.0019986152 0.007319224 -0.0067541637 -0.0071503827 0.00038981592 -0.007282884 0.0052472786
E4 0.0014929526 -0.009293185 0.005632506 0.009479798 -9.703913e-05 0.006849006 0.0056349398 0.005942437 0.005007 -0.008656225 -0.0056081126 -0.0002350449 -0.0006529831 -0.0071576433 0.008787513 -0.007621171 -0.008042404 0.009713414 0.0008082562 0.0028068197 -0.0001910702 -0.008026051 0.0060141166 0.0045009926 -0.0047967043 -0.009704011 0.0035537856 -0.0014183433 0.0045348774 0.009334401 0.00847534 0.0071180454 -0.0015309979 0.0008445209 -0.0011663642 -0.002928386 0.0010239189 0.007218078 -0.003593447 -0.0069370316 -0.0019234493 0.00011259427 -0.0057148184 0.005585727 0.008024432 0.009845051 -0.0070943297 0.0011442578 0.0054421746 0.002070869
GRAN -0.0041341507 0.0021869051 -0.009395177 0.0016108424 -0.0012009704 -0.009245255 -0.006737226 0.008463967 0.006223911 -0.00047219856 0.009925682 -0.0036588649 -0.0050895605 -0.006093624 0.0032079187 0.0031066837 0.005428837 0.00016127666 0.00014815501 -0.0010389852 0.002649641 0.0073553803 -0.005568251 0.006038069 -0.00025762332 0.00819448 -0.0058155474 -0.0028360127 0.00455251 -0.0052447533 -0.00048909197 0.007080953 -0.0005479262 0.0034758975 0.0068818554 -0.006641252 0.0010006183 -0.006977441 -0.009977317 -0.0024700756 -0.0071108253 -4.5127425e-05 0.00733463 -0.008168727 -0.00720708 0.0036917154 0.0020423853 -0.0049387068 0.0067069484 -0.00016534881
一下 -0.009665518 0.0078933695 -0.0023907414 0.00051234907 0.0074067563 -0.008589052 0.004239819 -0.005077959 0.009161695 -0.009305256 -0.0075681563 0.008755209 -0.009374822 -0.0026750201 -0.002029007 -0.003224499 0.004554612 -0.0054810164 -0.00599225 -0.008243879 0.0012858773 0.0024502238 0.0055670035 0.0016150665 -0.00846159 0.0060974853 -0.0015736079 -0.007534624 -0.0039537586 -0.008371904 -0.0044503175 0.0011936277 -7.033932e-05 0.001984714 -0.0006226045 0.0047435495 0.0039495425 -0.009176919 -0.0039233924 -0.0017009735 -0.0005891013 -0.009633944 0.0011381652 0.00010335104 -0.0017520859 -0.0029844723 -0.0023425915 -0.00995111 -0.0039753197 -0.0088161845
好像 -0.0072080386 0.007842221 0.009331817 -0.0076905247 0.00827321 0.0045408346 -0.005921365 -0.0037999395 0.0067012385 0.001349935 0.0062307734 -0.0045873765 -0.0023211325 0.0057708626 -0.003627765 0.003673654 0.008246914 0.0042246436 -0.0032509232 0.0060034846 -0.0057730144 0.0018287521 -0.0061337478 -0.008511967 0.0037398052 -0.0054968875 0.0055701486 0.004950744 0.0064757597 0.008060689 -0.0036337432 0.00017485944 0.0028951527 -0.008125889 -0.0008595003 0.008866062 -0.0028617359 0.007920908 0.005932441 0.007339337 0.0051009576 -0.007505656 0.009635173 0.006108903 -0.0010520093 -0.007008096 -0.0007233979 -0.0017909117 0.008453966 0.008359497
內部 -0.0012454578 0.005230907 0.0012665766 -0.0018989381 -0.0033784292 -0.005458707 -0.00049008854 0.009301662 0.0077970955 -0.0051441863 0.0016729365 0.0055258865 -0.0075146747 0.00713061 -0.00010328615 -0.009090077 0.00079705607 -0.006374988 -0.0067701144 0.002662507 -0.009506511 0.009197084 -0.0053119077 0.008783024 -0.00016769514 -0.0045329924 -0.0041326275 0.009529855 0.00831227 -1.055424e-06 0.0038417375 -0.008194678 -0.00057522586 0.009263238 -0.0071832677 -0.0006031501 0.0025788662 0.0074687423 -0.008407046 0.0013797319 0.0049594757 0.0015013437 0.005281208 -0.002330373 0.008587099 -0.0029584519 0.006180376 0.002901426 0.0010087175 0.0052608186
設計 -0.006502978 -0.0024074423 0.0021524131 0.008254034 -0.006722211 0.003768083 -0.0029417425 0.008464693 0.008021896 0.009598655 0.0006584508 0.0009327266 -0.0046263468 -0.0072670695 0.0065285284 0.0042016143 0.008136986 -0.0024306357 -0.0018779662 0.0012518376 0.007374357 0.0045131063 -0.008269381 0.0028037843 -0.008800293 -0.0074677872 -0.005811475 -0.008304365 0.005936121 -0.007454698 -0.0076882453 0.004600133 -0.0038165213 0.0017334373 -0.0008811477 -0.0063628405 0.0067927497 -0.008295344 0.0009217396 -0.0037687935 0.0038404618 0.008762859 -0.0047070715 0.00976777 0.0055150804 0.0008831238 -0.0056527783 0.0043394244 0.006373158 0.00017288524
搭乘 0.0062473104 0.008713608 -0.009242209 0.0056359223 0.0054672696 -0.0061614304 0.0018076204 0.009057132 -0.0013819522 -0.003982532 0.006325414 0.0057918853 -0.008655402 0.0015696306 -0.008690046 -0.0057452293 0.00746852 0.0024493048 -0.004059079 0.00067168736 0.0010198009 0.0016279098 -0.009949083 -0.0044470592 0.0027972215 0.009437387 0.002746822 0.002075225 0.00482642 0.008597891 0.0006947674 -0.0027631414 0.0076228324 -0.0071287607 0.0058134543 0.004153418 -0.005677528 0.00567016 0.0040044836 -0.005998927 -0.00060632464 0.0055863294 0.0040301145 0.002803796 -0.004894839 0.008848705 0.002715298 0.004566444 -0.006292872 -0.0027502137
49 -0.009004022 -0.0063994373 -0.004103163 0.007845407 0.0039889812 -0.0073367287 -0.004401921 0.00764076 -0.0049593216 0.0076286723 -0.008814945 -0.0014201283 -0.00704775 0.0065616197 0.007903198 0.003907543 -0.002656413 -0.004819127 -0.0010808309 -0.008984768 -0.00826586 -0.0040400727 -0.0073706517 0.003850032 0.007009249 0.0066237496 -0.005480033 0.0006000023 -0.0031385827 -0.0021992628 -0.00387794 -0.0018800368 -0.0044519813 -0.0010027922 -0.0055275406 -0.007703178 0.0031351421 0.0011226038 0.0032360593 0.0011210219 0.008007637 0.007815117 0.0055256016 0.005912563 -0.008682402 0.009520438 0.006386753 0.0053976546 0.0053252876 -0.00037012537
列車 -0.0056055933 0.007702722 0.00725178 0.004442689 -0.0052295993 -0.009561159 0.008410906 0.0060679084 -0.0025939548 0.007004507 -0.002174112 -0.009052115 0.008318606 -0.0058372184 -0.009352222 0.009745212 -0.0026634831 -0.0003442802 -0.004185686 0.004534268 0.008179621 0.004219478 -0.00021500251 0.0051137484 -0.0049737706 0.0029117244 0.009320881 -0.0016971353 0.00024913007 0.0088041015 -0.0039799395 0.008684367 0.007417502 -0.0030277052 0.0079304585 0.009375324 -0.0024188724 -0.009728887 0.0036966417 -0.0047892644 0.008131337 0.006421487 -0.0019698767 -0.009550678 0.00096762535 -0.0049384665 0.0006539457 0.0004757385 -0.007715096 0.0026998562
標誌 0.0015087617 -0.005359588 0.0018588735 -0.0051781083 0.00449464 -0.0054982547 -0.003205196 0.006196381 -0.002189642 0.0005965328 -0.0024255943 0.004677235 -0.0021521815 -0.00036613742 -0.009719471 0.0069301645 -0.00023384157 0.0063705416 0.007845187 0.0021889096 0.0043316917 0.0087218955 0.006749849 0.005824688 0.0015284958 -0.007242289 -0.007547024 0.00010992773 -0.008237208 0.004596775 0.0040895133 -0.0062017306 0.0056382357 -0.0070216293 0.0077446676 0.006641223 -0.008448943 0.00032602384 0.0021134953 -0.00084634457 -0.0051792758 -0.008532274 -0.0003086419 0.0025375744 -0.0046722945 -0.00058427814 0.003078386 0.0008244159 -0.0085359095 0.0049526845
座位 -0.0015760398 -0.006268719 -0.0044612433 -0.00084874587 -0.009270835 0.004812633 -0.005005822 0.008677176 0.0020870653 0.0089189615 0.009632445 -0.0031019207 0.0012805032 0.0033630144 0.00685539 -0.006183205 -0.00033583236 -0.0061459825 -0.0053761606 0.007727492 0.0015332836 -0.0022537648 0.009427738 0.0073133768 -0.0040258453 -0.003571898 -0.0054507866 0.009110478 -0.0010383868 -0.0006205359 -0.0012198974 -0.008861034 -0.009613262 -0.008219439 0.007269117 0.00456856 0.004959296 -0.0049878214 0.0011514043 0.0016547582 0.004661337 -0.00802894 0.009719042 -0.009108282 -0.008358763 -0.0061449003 -0.0073684263 -0.001415597 0.0036891145 0.003958291
經濟艙 0.0068308935 0.0018858435 0.005464647 -0.005241953 -0.0061751073 0.006938931 -0.001510484 -0.0051180194 0.00495753 -0.0098202275 -0.0026553804 -0.0071992083 -0.0011508944 0.005922715 -0.0018435178 -0.004395074 -0.0033030526 -0.0007093318 0.0056639775 -0.0011422642 -0.008878154 -0.0020226433 0.007450472 0.005314853 -0.008486771 0.004892949 0.006156864 0.0052314475 -0.0034412155 -0.009284454 0.0022290621 0.001036277 0.0061197383 0.004798277 -0.0006828659 0.008985796 -3.158926e-05 0.006186512 0.007820364 0.0023521492 -0.0015165636 0.0074392855 0.0025320244 0.00802226 -0.0063274335 0.009501451 -0.0056332704 -0.008708784 -0.009387279 -0.0060483
這台 -0.008027006 0.0069952793 0.0011056805 -0.0057149585 0.0024992232 -0.0052117174 0.0044375425 -0.0049656015 -0.00050919305 0.0062642293 -0.0020879353 0.0070304656 -0.0064874548 0.009783292 -0.009083191 0.0042745406 0.0083176 -0.009979758 -0.009609048 -0.0045508007 -0.00042528284 -0.008900564 0.009307674 -0.00024772793 0.00643161 -0.0035879218 -0.0060547274 0.0059543727 -0.0051472867 4.314214e-05 -0.004319365 0.00886908 0.004004552 0.0028506864 -0.0044090576 -0.008966572 -0.00882162 0.008478969 0.0022402385 -0.0015307096 0.00028668347 0.009067445 -0.00252179 -0.0009362862 0.008066339 -0.0086804 0.0046088817 0.0017380501 0.005294466 -0.006279139
